tree
version=v3
num_class=1
num_tree_per_iteration=1
label_index=0
max_feature_idx=24
objective=binary sigmoid:1
feature_names=FN Active age user_gender fashion_news_frequency_1 fashion_news_frequency_2 fashion_news_frequency_3 fashion_news_frequency_4 fashion_news_frequency_5 club_member_status_1 club_member_status_2 club_member_status_3 club_member_status_4 i_repurchase_ratio p_repurchase_ratio season_type index_group_no_1 index_group_no_2 index_group_no_3 index_group_no_4 index_group_no_5 i_pop p_pop purchase_cnt purchase_cnt_cat
feature_infos=-1:0:1 -1:0:1 [0:95] -1:0:2 [0:1] [0:1] [0:1] none [0:1] [0:1] [0:1] [0:1] [0:1] [0.10851063806699865:0.99999999957044683] [0.24999993750001562:0.99999999943534723] -1:0:2:1 [0:1] [0:1] [0:1] [0:1] [0:1] [0.14285714285714285:389.02183844678541] [0.16466067408122154:1481.9164091315729] [0:154] [0:131]
tree_sizes=2287 2956 3635 3617 4560 4071 3747 4062 3574 9264 8824 10574 10032 11208 10713

Tree=0
num_leaves=20
num_cat=0
split_feature=21 23 22 21 14 14 21 22 13 19 22 14 21 2 2 2 13 2 2
split_gain=3.04177e+06 293188 116931 66709.2 165770 90010 53238.7 26095.5 25262.9 9533.96 3399.62 36086.4 1092.14 4.65661e-10 2.91038e-11 1.45519e-11 1.45519e-11 7.27596e-12 9.09495e-13
threshold=62.538553145468605 1.0000000180025095e-35 94.553400364560687 120.09120658849731 0.9031466871300825 0.99999999828178199 107.68895300303744 804.68391576266856 0.7813460689378533 1.0000000180025095e-35 251.16946226814702 0.91757534458195023 140.71461285955985 83.500000000000014 78.500000000000014 74.500000000000014 0.9999999937885804 70.500000000000014 54.500000000000007
decision_type=2 2 2 2 2 2 2 2 2 2 2 2 2 2 2 2 2 2 2
left_child=13 14 16 4 -4 6 7 -6 -5 10 11 -10 -12 -1 -2 -7 -3 -8 -11
right_child=1 2 3 8 5 15 17 -9 9 18 12 -13 -14 -15 -16 -17 -18 -19 -20
leaf_value=-1.2064662733576785 -1.2064662733576785 -1.2064662733576785 -1.2064662733576785 -1.2064662733576785 -1.37735153699859 -1.2064662733576785 -1.2064662733576785 -1.2064662733576785 -1.2064662733576785 -1.2064662733576785 -1.3822131729378899 -1.3816099450017045 -1.3865782487381253 -1.2064662733576785 -1.2064662733576785 -1.2064662733576785 -1.2064662733576785 -1.2064662733576785 -1.2064662733576785
leaf_weight=109798.45400780439 8920.7774826139212 1498.1420982331038 6048.7262747883797 712.91125018894672 96480.873525112867 3003.6304310113192 1687.6749494969845 811.02429378032684 1082.345222979784 251.89422006905079 58838.930965617299 48586.852533772588 418515.63503363729 16.977964282035828 6.5299862623214713 5.3872386664152137 1994.0945548564196 9.9582290500402433 16.651464968919754
leaf_count=672580 54645 9177 37052 4367 591002 18399 10338 4968 6630 1543 360423 297623 2563654 104 40 33 12215 61 102
internal_value=-1.35248 -1.3772 -1.37959 -1.38054 -1.35906 -1.36811 -1.37302 -1.37593 -1.38493 -1.38517 -1.38526 -1.37779 -1.38604 -1.20647 -1.20647 -1.20647 -1.20647 -1.20647 -1.20647
internal_weight=0 648472 639545 636052 108047 101999 98989.5 97291.9 528005 527292 527024 49669.2 477355 109815 8927.31 3009.02 3492.24 1697.63 268.546
internal_count=4644956 3972272 3917587 3896195 661853 624801 606369 595970 3234342 3229975 3228330 304253 2924077 672684 54685 18432 21392 10399 1645
is_linear=0
shrinkage=1


Tree=1
num_leaves=26
num_cat=2
split_feature=21 23 22 21 14 14 21 18 13 19 22 14 21 2 2 2 13 0 0 2 2 13 13 2 23
split_gain=2.66905e+06 261433 104474 65242.7 145214 79504.2 47244.2 23514.8 22707.5 8571.31 3376.48 32226.5 1090.05 4.65661e-10 2.91038e-11 1.45519e-11 1.45519e-11 7.27596e-12 3.63798e-12 1.81899e-12 1.81899e-12 1.81899e-12 9.09495e-13 2.27374e-13 2.27374e-13
threshold=62.538553145468605 1.0000000180025095e-35 94.553400364560687 120.09120658849731 0.9031466871300825 0.99999999828178199 107.68895300303744 1.0000000180025095e-35 0.7813460689378533 1.0000000180025095e-35 251.16946226814702 0.91757534458195023 140.71461285955985 81.500000000000014 50.500000000000007 51.500000000000007 0.85776527627223398 0 1 51.500000000000007 74.500000000000014 0.99999999798589945 0.7999999871794875 55.500000000000007 9.5000000000000018
decision_type=2 2 2 2 2 2 2 2 2 2 2 2 2 2 2 2 2 1 1 2 2 2 2 2 2
left_child=13 -2 16 4 14 6 7 -6 19 10 11 -10 -12 -1 -4 -7 22 -8 -16 -5 -17 -20 -3 -21 -15
right_child=1 2 3 8 5 15 17 -9 9 -11 12 -13 -14 24 18 20 -18 -19 21 23 -22 -23 -24 -25 -26
leaf_value=0.13024966085472092 0.13024966085472092 0.13024966085472092 0.13024966085472092 0.13024966085472092 -0.024355512441143277 0.13024966085472092 0.13024966085472092 0.148931654588289 0.13024966085472092 0.13024966085472092 -0.029367050315374437 -0.028760788107923561 -0.033767355883143897 0.13024966085472092 0.13024966085472092 0.13024966085472092 0.13024966085472092 0.13024966085472092 0.13024966085472092 0.13024966085472092 0.13024966085472092 0.13024966085472092 0.13024966085472092 0.13024966085472092 0.13024966085472092
leaf_weight=119209.17247104645 9694.3608971685171 106.01129773259163 5568.606830060482 706.62380060553551 95238.521889090538 2714.8110593259335 1030.1532627493143 710.03052401542664 1175.3426487743855 291.61970697343349 57808.912566974759 47753.542811363935 410114.76043173671 30.314267411828041 513.39250540733337 546.89774833619595 3541.805547490716 813.34420400857925 479.00088039040565 33.859795764088631 5.850121781229972 7.4456095397472373 144.48028035461903 33.682519346475601 11.522967144846914
leaf_count=672448 54685 598 31412 3986 591556 15314 5811 4414 6630 1645 360423 297623 2563654 171 2896 3085 19979 4588 2702 191 33 42 815 190 65
internal_value=0 -0.024355 -0.0267365 -0.0276882 -0.00643499 -0.0153189 -0.0201828 -0.0230732 -0.0321049 -0.0323479 -0.0324396 -0.0249411 -0.0332237 0.13025 0.13025 0.13025 0.13025 0.13025 0.13025 0.13025 0.13025 0.13025 0.13025 0.13025 0.13025
internal_weight=0 639033 629339 625546 107628 101060 97792 95948.6 517918 517144 516853 48928.9 467924 119251 6568.45 3267.56 3792.3 1843.5 999.839 774.166 552.748 486.446 250.492 67.5423 41.8372
internal_count=4644956 3972272 3917587 3896195 661853 624801 606369 595970 3234342 3229975 3228330 304253 2924077 672684 37052 18432 21392 10399 5640 4367 3118 2744 1413 381 236
cat_boundaries=0 1 2
cat_threshold=1 1
is_linear=0
shrinkage=0.03


Tree=2
num_leaves=32
num_cat=1
split_feature=21 23 22 21 14 14 21 22 13 19 22 14 21 2 13 2 14 0 2 2 12 13 2 2 2 13 14 2 2 13 23
split_gain=2.37615e+06 236192 94561.9 63772.8 129059 71193.2 42486.1 23543.3 20669.4 7803.43 3351.5 29154.1 1089.05 2.32831e-10 5.82077e-11 1.45519e-11 1.45519e-11 7.27596e-12 7.27596e-12 7.27596e-12 7.27596e-12 7.27596e-12 3.63798e-12 3.63798e-12 1.81899e-12 1.81899e-12 1.81899e-12 9.09495e-13 1.13687e-13 5.68434e-14 5.68434e-14
threshold=62.538553145468605 1.0000000180025095e-35 94.553400364560687 120.09120658849731 0.9031466871300825 0.99999999828178199 107.68895300303744 804.68391576266856 0.7813460689378533 1.0000000180025095e-35 251.16946226814702 0.91757534458195023 140.71461285955985 63.500000000000007 0.99999999848599475 71.500000000000014 0.80795479674565662 0 71.500000000000014 82.500000000000014 1.0000000180025095e-35 0.99999998994949524 71.500000000000014 60.500000000000007 60.500000000000007 0.99999999766898517 0.78954825794171202 58.500000000000007 75.500000000000014 0.99999999794237826 8.5000000000000018
decision_type=2 2 2 2 2 2 2 2 2 2 2 2 2 2 2 2 2 1 2 2 2 2 2 2 2 2 2 2 2 2 2
left_child=13 14 17 4 15 6 7 -6 24 10 11 -10 -12 -1 -2 16 26 18 -3 21 -7 -15 -8 -16 -5 -23 -4 -11 -25 -22 -21
right_child=1 2 3 8 5 20 22 -9 9 27 12 -13 -14 19 23 -17 -18 -19 -20 30 29 25 -24 28 -26 -27 -28 -29 -30 -31 -32
leaf_value=0.11800679755197586 0.11800679755197586 0.11800679755197586 0.11800679755197586 0.11800679755197586 -0.024140608002702478 0.11800679755197586 0.11800679755197586 0.13272126221270517 0.11800679755197586 0.11800679755197586 -0.029003170842253092 -0.028393632750773237 -0.033441344708315716 0.11800679755197586 0.11800679755197586 0.11800679755197586 0.11800679755197586 0.11800679755197586 0.11800679755197586 0.11800679755197585 0.11800679755197585 0.11800679755197586 0.11800679755197586 0.11800679755197586 0.11800679755197586 0.11800679755197586 0.11800679755197586 0.11800679755197586 0.11800679755197586 0.11800679755197586 0.11800679755197586
leaf_weight=124505.28909540176 9201.161854326725 2139.9417660832405 506.59381580352783 820.18145477771759 93759.84967726469 3466.5274431705475 1962.2926622629166 869.12489354610443 1257.0048648118973 306.57267969846725 56793.593832314014 46932.389227420092 401815.23420107365 2423.0048525333405 1111.0178744792938 25.784715175628662 6113.0630250573158 1910.9128254055977 4.9294308423995963 20.28650385141373 19.717723369598392 558.16324615478516 9.2900812029838544 51.948617339134216 7.773333251476287 18.20097541809082 379.37658137083054 5.3086178302764884 3.79186987876892 8.3421137332916242 11.565203130245207
leaf_count=656696 48531 11287 2672 4326 591002 18284 10350 4968 6630 1617 360423 297623 2563654 12780 5860 136 32243 10079 26 107 104 2944 49 274 41 96 2001 28 20 44 61
internal_value=0 -0.0239977 -0.0263758 -0.0273279 -0.00629245 -0.0150159 -0.0198281 -0.0226999 -0.0317641 -0.0320086 -0.0321009 -0.0245748 -0.0328917 0.118007 0.118007 0.118007 0.118007 0.118007 0.118007 0.118007 0.118007 0.118007 0.118007 0.118007 0.118007 0.118007 0.118007 0.118007 0.118007 0.118007 0.118007
internal_weight=0 629482 619114 615058 107120 100095 96600.6 94629 507938 507110 506798 48189.4 458609 127537 10367.9 7024.82 6999.03 4055.78 2144.87 3031.22 3494.59 2999.37 1971.58 1166.76 827.955 576.364 885.97 311.881 55.7405 28.0598 31.8517
internal_count=4644956 3972272 3917587 3896195 661853 624801 606369 595970 3234342 3229975 3228330 304253 2924077 672684 54685 37052 36916 21392 11313 15988 18432 15820 10399 6154 4367 3040 4673 1645 294 148 168
cat_boundaries=0 1
cat_threshold=1
is_linear=0
shrinkage=0.03


Tree=3
num_leaves=32
num_cat=2
split_feature=21 23 21 14 14 21 21 22 18 13 13 19 22 14 22 21 15 14 22 24 13 24 2 2 22 2 2 2 0 2 2
split_gain=2.13902e+06 215512 88843 115410 67173.2 102714 29495.9 21539 20627.5 18992.7 8285.62 7171.67 3324.92 26632.6 11861.3 1089.03 31854.7 829.074 1564.44 666.373 105.949 5.1301 2.91038e-11 1.45519e-11 1.45519e-11 3.63798e-12 3.63798e-12 3.63798e-12 9.09495e-13 4.54747e-13 5.68434e-14
threshold=62.538553145468605 1.0000000180025095e-35 120.09120658849731 0.9031466871300825 0.98457233236629393 65.731665091035055 107.68895300303744 804.68391576266856 1.0000000180025095e-35 0.7813460689378533 0.99999999765530523 1.0000000180025095e-35 251.16946226814702 0.91757534458195023 221.16281704299507 140.71461285955985 0 0.99999999794237826 94.594676157176167 1.0000000180025095e-35 0.99999998742088636 1.0000000180025095e-35 79.500000000000014 78.500000000000014 218.396768090156 59.500000000000007 31.500000000000004 67.500000000000014 1 51.500000000000007 55.500000000000007
decision_type=2 2 2 2 2 2 2 2 2 2 2 2 2 2 2 2 1 2 2 2 2 2 2 2 2 2 2 2 1 2 2
left_child=-1 22 3 23 6 10 7 8 -5 25 20 12 13 27 -15 16 -14 18 -7 -17 -6 -12 -2 -3 -19 -4 -9 -11 -13 -30 -31
right_child=1 2 9 4 5 17 -8 26 -10 11 21 28 15 14 -16 19 -18 24 -20 -21 -22 -23 -24 -25 -26 -27 -28 -29 29 30 -32
leaf_value=0.10821075742903161 0.10821075742903161 0.10821075742903161 0.10821075742903161 -0.026505505034460902 0.15484151569675611 0.10821075742903161 0.10821075742903161 0.11995394931500797 0.13264335204702821 0.10821075742903161 -0.036507768907904206 0.10821075742903161 0.15669476838320087 -0.029286623187220091 0.15646451952353599 -0.035106442188979639 -0.031417616577407208 0.10821075742903161 0.14497501076000027 -0.032355247773789779 0.10821075742903161 -0.035006008880388108 0.10821075742903161 0.10821075742903161 0.10821075742903161 0.10821075742903161 0.11995394931500797 0.10821075742903161 0.10821075742903161 0.10821075742903155 0.10821075742903161
leaf_weight=134790.09271752834 10952.982452571392 7969.9768953025341 866.02740770578384 82493.485305786133 51.705107301473618 2053.0580331683159 1558.9294844865799 521.94603317975998 739.53545933961868 1318.8783890604973 4063.459082275629 169.51855319738388 822.29758834838867 45812.262592941523 311.49728804826736 109943.64989638329 54971.182021081448 2570.8310136198997 2114.7165170907974 283679.06025564671 288.74259474873543 4125.9425956308842 4.6086604297161093 4.8090369701385489 1845.8686903715134 9.0169443190097791 409.79234009981155 9.6180739402770978 142.2673436999321 7.8146850764751461 10.018827021121977
leaf_count=672684 54662 39775 4322 527080 331 10246 7780 2783 4227 6582 26013 846 5312 295613 2010 716060 355111 12830 12905 1847594 1441 26413 23 24 9212 45 2185 48 710 39 50
internal_value=0 -0.0236534 -0.0260265 -0.00173149 -0.0102572 0.0440069 -0.0210908 -0.0234857 -0.0250914 -0.0314317 -0.0297226 -0.0316775 -0.0317703 -0.0242178 -0.0280322 -0.0325677 -0.0286452 0.117267 0.126865 -0.0331237 0.115293 -0.0357512 0.108211 0.108211 0.108211 0.108211 0.119954 0.108211 0.108211 0.108211 0.108211
internal_weight=0 619843 608886 110813 102838 17114.3 85723.7 84164.8 83233 498073 8529.85 497198 496868 47452.3 46123.8 449416 55793.5 8584.47 4167.77 393623 340.448 8189.4 10957.6 7974.79 4416.7 875.044 931.738 1328.5 329.619 160.101 17.8335
internal_count=4644956 3972272 3917587 683245 643446 99391 544055 536275 531307 3234342 54198 3229975 3228330 304253 297623 2924077 360423 45193 23151 2563654 1772 52426 54685 39799 22042 4367 4968 6630 1645 799 89
cat_boundaries=0 1 2
cat_threshold=1 1
is_linear=0
shrinkage=0.03


Tree=4
num_leaves=41
num_cat=4
split_feature=21 23 21 14 14 21 21 22 22 13 13 19 22 14 22 21 15 24 14 22 22 13 24 2 0 0 13 2 2 2 0 2 2 2 23 2 13 2 2 2
split_gain=1.94259e+06 198168 86440.9 104203 62922.9 90784.9 27043.6 19832 20059.4 17579.9 7637.13 6639.3 3295.86 24514 10519.5 1087.77 28295.8 668.544 580.253 1067.01 293.598 71.5475 5.16415 2.32831e-10 1.45519e-11 1.45519e-11 1.45519e-11 7.27596e-12 7.27596e-12 7.27596e-12 3.63798e-12 1.81899e-12 1.81899e-12 1.81899e-12 1.81899e-12 9.09495e-13 9.09495e-13 4.54747e-13 4.54747e-13 5.68434e-14
threshold=62.538553145468605 1.0000000180025095e-35 120.09120658849731 0.9031466871300825 0.98457233236629393 65.731665091035055 107.68895300303744 110.51440460504604 804.68391576266856 0.7813460689378533 0.99999999765530523 1.0000000180025095e-35 251.16946226814702 0.91757534458195023 221.16281704299507 140.71461285955985 0 1.0000000180025095e-35 0.99999999794237826 94.594676157176167 101.79703735706234 0.99999998742088636 1.0000000180025095e-35 63.500000000000007 1 2 0.99999999902997672 75.500000000000014 81.500000000000014 47.500000000000007 3 58.500000000000007 63.500000000000007 72.500000000000014 39.500000000000007 67.500000000000014 0.99999999919077665 59.500000000000007 52.500000000000007 53.500000000000007
decision_type=2 2 2 2 2 2 2 2 2 2 2 2 2 2 2 2 1 2 2 2 2 2 2 2 1 1 2 2 2 2 1 2 2 2 2 2 2 2 2 2
left_child=23 26 3 24 6 10 7 20 -9 31 21 12 13 34 -15 16 -14 -17 19 -7 -5 -6 -12 -1 27 -20 -2 -3 -25 -26 32 -4 -8 -31 -11 -32 -28 38 -13 -40
right_child=1 2 9 4 5 18 30 8 -10 11 22 37 15 14 -16 17 -18 -19 25 -21 -22 -23 -24 28 29 -27 36 -29 -30 33 35 -33 -34 -35 -36 -37 -38 -39 39 -41
leaf_value=0.10018934023014257 0.10018934023014257 0.10018934023014257 0.10018934023014257 0.10927931779748142 0.13693311492869228 0.10018934023014257 0.10018934023014257 -0.0263083499405736 0.10978567458671151 0.10018934023014257 -0.036233313204260598 0.10018934023014257 0.13831958715312206 -0.028937505862721986 0.13814762794151625 -0.034822257615461066 -0.031085709828446845 -0.0320367872915472 0.10018934023014257 0.12961531874588023 0.15819474601749839 0.10018934023014257 -0.034709832253343099 0.10018934023014257 0.10018934023014257 0.10018934023014257 0.10018934023014257 0.10018934023014257 0.10018934023014257 0.10018934023014257 0.10018934023014257 0.10018934023014257 0.10018934023014257 0.10018934023014257 0.10018934023014257 0.10018934023014257 0.10018934023014257 0.10018934023014257 0.1001893402301425 0.10018934023014257
leaf_weight=137757.02417218685 11038.459757581353 4762.0545971542597 899.92573991417885 780.79285699129105 56.629731819033623 2149.3331308066845 905.58960820734501 81042.450336769223 986.58932340145111 1383.4522738307714 3972.7826095372438 316.54730571806431 902.23349952697754 44986.558470994234 341.70195043087006 107551.8772482872 53907.508413925767 277990.24102881551 2530.4904896467924 2291.3870045989752 128.62720133364201 302.28274853527546 4037.6509945243597 3304.3427168130875 2713.6222311258316 2093.3237665742636 109.92099946737289 5.8736411929130545 49.506404340267181 852.09751877188683 700.01216645538807 16.152513280510902 19.299106776714325 15.103648781776426 7.3420514911413184 7.1322785913944236 323.05026561021805 5.0345495939254752 4.8247766941785839 18.66978807747364
leaf_count=656696 52621 22701 4290 3921 331 10246 4317 526549 4968 6595 26013 1509 5312 295613 2010 716060 355111 1847594 12063 12905 837 1441 26413 15752 12936 9979 524 28 236 4062 3337 77 92 72 35 34 1540 24 23 89
internal_value=0 -0.0233223 -0.0256889 -0.00170902 -0.0100491 0.0418463 -0.0207471 -0.0231269 -0.0246715 -0.0311079 -0.0293993 -0.0313546 -0.0314478 -0.0238714 -0.027678 -0.0322516 -0.0282971 -0.0328138 0.107628 0.115373 0.116198 0.105987 -0.0354654 0.100189 0.100189 0.100189 0.100189 0.100189 0.100189 0.100189 0.100189 0.100189 0.100189 0.100189 0.100189 0.100189 0.100189 0.100189 0.100189 0.100189
internal_weight=0 610157 598685 110353 102004 17433.9 84570.5 82938.5 82029 488332 8369.35 487416 487071 46719.1 45328.3 440352 54809.7 385542 9064.53 4440.72 909.42 358.912 8010.43 141111 8348.75 4623.81 11471.4 4767.93 3353.85 3580.82 1632.03 916.078 924.889 867.201 1390.79 707.144 432.971 345.076 340.042 23.4946
internal_count=4644956 3972272 3917587 683245 643446 99391 544055 536275 531517 3234342 54198 3229975 3228330 304253 297623 2924077 360423 2563654 45193 23151 4758 1772 52426 672684 39799 22042 54685 22729 15988 17070 7780 4367 4409 4134 6630 3371 2064 1645 1621 112
cat_boundaries=0 1 2 3 4
cat_threshold=1 1 1 1
is_linear=0
shrinkage=0.03


Tree=5
num_leaves=36
num_cat=4
split_feature=21 23 21 14 14 21 21 18 22 13 13 19 22 14 22 21 15 24 14 22 22 13 24 0 2 2 0 2 2 2 2 2 0 2 21
split_gain=1.77679e+06 183346 84058 94792 59099.9 81120.3 24949.8 18324.3 18385.9 16366.4 7088.61 6181.97 3264.71 22699.9 9472.53 1085.11 25519.7 671.441 419.417 755.667 78.0692 50.2032 5.20552 2.32831e-10 1.16415e-10 1.16415e-10 1.45519e-11 1.45519e-11 7.27596e-12 7.27596e-12 3.63798e-12 3.63798e-12 1.81899e-12 1.81899e-12 5.68434e-14
threshold=62.538553145468605 1.0000000180025095e-35 120.09120658849731 0.9031466871300825 0.98457233236629393 65.731665091035055 107.68895300303744 1.0000000180025095e-35 804.68391576266856 0.7813460689378533 0.99999999765530523 1.0000000180025095e-35 251.16946226814702 0.91757534458195023 221.16281704299507 140.71461285955985 0 1.0000000180025095e-35 0.99999999794237826 94.594676157176167 111.83028325044127 0.99999998742088636 1.0000000180025095e-35 1 80.500000000000014 63.500000000000007 2 78.500000000000014 21.500000000000004 73.500000000000014 72.500000000000014 73.500000000000014 3 54.500000000000007 127.68387778002082
decision_type=2 2 2 2 2 2 2 2 2 2 2 2 2 2 2 2 1 2 2 2 2 2 2 1 2 2 1 2 2 2 2 2 1 2 2
left_child=23 27 3 26 6 10 7 8 -5 33 21 12 13 32 -15 16 -14 -17 19 -7 -9 -6 -12 24 -1 -25 -3 -2 -20 -28 -8 -27 -11 -4 -35
right_child=1 2 9 4 5 18 30 20 -10 11 22 -13 15 14 -16 17 -18 -19 28 -21 -22 -23 -24 25 -26 31 29 -29 -30 -31 -32 -33 -34 34 -36
leaf_value=0.093497912940262731 0.093497912940262731 0.093497912940262731 0.093497912940262731 -0.025803447679313189 0.12324872104127217 0.093497912940262731 0.093497912940262731 0.091404581198910193 0.10149004886237901 0.093497912940262731 -0.035969430112633531 0.093497912940262731 0.1243269065006789 -0.028593702600250782 0.12419335153113598 -0.03454695416120003 -0.030760078503850621 -0.031725035990813416 0.093497912940262731 0.11763512872156955 0.12438884706066654 0.093497912940262731 -0.034422698734581113 0.093497912940262731 0.093497912940262731 0.093497912940262731 0.093497912940262731 0.093497912940262731 0.093497912940262731 0.093497912940262731 0.093497912940262731 0.093497912940262731 0.093497912940262731 0.093497912940262731 0.093497912940262731
leaf_weight=81174.908525168896 11907.684170231223 4952.8731540888548 902.58263030648232 79897.314692601562 60.957520335912704 2232.7044012844563 1689.6730360686779 70.997322142124176 1034.4309886693954 824.57090127468109 3883.2248193919659 358.46171580255032 972.48891639709473 44173.98558537662 368.24838683009148 105192.39239990711 52859.735963359475 272385.28212964535 439.74209269881248 2446.4294533282518 714.66102100908756 314.00810484588146 3950.5098405331373 63347.26725268364 27.892461776733398 1735.4341061711311 3711.0048754513264 8.7163943052291852 4363.426989197731 8.7163943052291852 5.6656562983989707 298.97232466936111 620.17145481705666 13.292501315474508 35.737216651439667
leaf_count=372516 54645 22729 4142 527080 331 10246 7754 322 4968 3784 26013 1645 5312 295613 2010 716060 355111 1847594 2018 12905 3905 1441 26413 290704 128 7964 17030 40 20024 40 26 1372 2846 61 164
internal_value=0 -0.0230034 -0.0253625 -0.00168564 -0.0098504 0.0399544 -0.0204135 -0.0227767 -0.0241764 -0.030792 -0.0290902 -0.0310396 -0.0311331 -0.0235346 -0.0273306 -0.0319431 -0.0279584 -0.0325112 0.0997253 0.106118 0.121408 0.0983345 -0.0351894 0.0934979 0.0934979 0.0934979 0.0934979 0.0934979 0.0934979 0.0934979 0.0934979 0.0934979 0.0934979 0.0934979 0.0934979
internal_weight=0 600400 588483 109776 101104 17691 83412.7 81717.4 80931.7 478707 8208.7 477755 477397 45987 44542.2 431410 53832.2 377578 9482.3 4679.13 785.658 374.966 7833.73 146584 81202.8 65381.7 8672.59 11916.4 4803.17 3719.72 1695.34 2034.41 1444.74 951.612 49.0297
internal_count=4644956 3972272 3917587 683245 643446 99391 544055 536275 532048 3234342 54198 3229975 3228330 304253 297623 2924077 360423 2563654 45193 23151 4227 1772 52426 672684 372644 300040 39799 54685 22042 17070 7780 9336 6630 4367 225
cat_boundaries=0 1 2 3 4
cat_threshold=1 1 1 1
is_linear=0
shrinkage=0.03


Tree=6
num_leaves=33
num_cat=3
split_feature=21 23 21 14 14 21 21 22 22 13 13 19 22 14 22 21 17 24 14 22 22 13 24 0 2 0 2 0 2 2 2 2
split_gain=1.63471e+06 170482 81709 86767.5 55629.9 73131.8 23133 18239.2 17040.8 15307.7 6616.03 5782.9 3231.75 21122.3 8626.02 1081.23 24059.9 675.011 311.16 551.409 211.6 36.3061 5.25384 1.45519e-11 1.45519e-11 7.27596e-12 3.63798e-12 1.81899e-12 1.81899e-12 4.54747e-13 4.54747e-13 2.84217e-14
threshold=62.538553145468605 1.0000000180025095e-35 120.09120658849731 0.9031466871300825 0.98457233236629393 65.731665091035055 107.68895300303744 110.51440460504604 804.68391576266856 0.7813460689378533 0.99999999765530523 1.0000000180025095e-35 251.16946226814702 0.91757534458195023 221.16281704299507 140.71461285955985 1.0000000180025095e-35 1.0000000180025095e-35 0.99999999794237826 94.594676157176167 101.79703735706234 0.99999998742088636 1.0000000180025095e-35 0 48.500000000000007 1 62.500000000000007 2 72.500000000000014 59.500000000000007 56.500000000000007 61.500000000000007
decision_type=2 2 2 2 2 2 2 2 2 2 2 2 2 2 2 2 2 2 2 2 2 2 2 1 2 1 2 1 2 2 2 2
left_child=-1 24 3 23 6 10 7 20 -9 27 21 12 13 26 -15 16 -14 -17 19 -7 -5 -6 -12 -3 -2 -20 -11 -4 -8 -13 -29 -32
right_child=1 2 9 4 5 18 28 8 -10 11 22 29 15 14 -16 17 -18 -19 25 -21 -22 -23 -24 -25 -26 -27 -28 30 -30 -31 31 -33
leaf_value=0.087830091125215157 0.087830091125215157 0.087830091125215157 0.087830091125215157 0.10227376746665999 0.11243594908604464 0.087830091125215157 0.087830091125215157 -0.025617915288257614 0.094590559410174191 0.087830091125215157 -0.035715508186082393 0.087830091125215157 -0.030108545149541435 -0.02825482453109087 0.11319242309240508 -0.034279979106265325 0.1375328984982998 -0.031419512465934239 0.087830091125215157 0.10801824617818474 0.14229836928543252 0.087830091125215157 -0.034144024062191095 0.087830091125215157 0.087830091125215157 0.087830091125215157 0.087830091125215157 0.087830091125215157 0.087830091125215157 0.087830091125215157 0.087830091125215129 0.087830091125215157
leaf_weight=151286.28564351797 9529.8908073604107 5111.7404106408358 568.09610089659691 812.33484295010567 64.752345934510231 2304.3201305568218 1743.8706121742725 78489.511691555381 1075.9109004735947 1465.4450488686562 3794.8446306735277 364.56206633150578 52080.347900629044 43374.817044660449 391.5312060713768 102866.48643642664 782.07034063339233 266866.60631218553 2712.9624960869551 2582.0760538130999 139.25805455446243 324.08015890419483 3864.5714803785086 3839.0342210233212 2768.7375685423613 2244.2719678729773 25.638541370630264 397.62229073047638 5.8473866283893576 5.3975876569747916 11.02007479965687 5.3975876569747916
leaf_count=672684 42374 22729 2526 3921 331 10246 7754 526549 4968 6516 26013 1621 355823 295613 2010 716060 4600 1847594 12063 12905 837 1441 26413 17070 12311 9979 114 1768 26 24 49 24
internal_value=0 -0.0226954 -0.0250459 -0.00166157 -0.00965908 0.0382828 -0.0200858 -0.0224309 -0.0239924 -0.0304837 -0.0287941 -0.0307319 -0.0308256 -0.0232065 -0.0269894 -0.0316416 -0.0276284 -0.0322153 0.0931256 0.0984979 0.108131 0.0919277 -0.0349226 0.0878301 0.0878301 0.0878301 0.0878301 0.0878301 0.0878301 0.0878301 0.0878301 0.0878301
internal_weight=0 590613 578314 109109 100159 17891.9 82266.7 80517 79565.4 469205 8048.25 468223 467853 45257.4 43766.3 422596 52862.4 369733 9843.63 4886.4 951.593 388.833 7659.42 8950.77 12298.6 4957.23 1491.08 982.136 1749.72 369.96 414.04 16.4177
internal_count=4644956 3972272 3917587 683245 643446 99391 544055 536275 531517 3234342 54198 3229975 3228330 304253 297623 2924077 360423 2563654 45193 23151 4758 1772 52426 39799 54685 22042 6630 4367 7780 1645 1841 73
cat_boundaries=0 1 2 3
cat_threshold=1 1 1
is_linear=0
shrinkage=0.03


Tree=7
num_leaves=36
num_cat=5
split_feature=21 23 21 14 14 21 21 18 22 13 13 19 22 14 22 21 15 24 14 22 22 13 24 0 2 2 2 0 1 1 2 14 2 23 24
split_gain=1.5114e+06 159175 79382.6 79839.3 52464.9 66419.2 21538.2 16759.2 16236.1 14371.7 6202.72 5430.06 3196.49 19732.9 7922.61 1079.66 22500.9 679.21 235.861 412.272 92.656 26.9064 5.3088 2.91038e-11 1.45519e-11 7.27596e-12 7.27596e-12 1.81899e-12 1.81899e-12 9.09495e-13 9.09495e-13 9.09495e-13 4.54747e-13 4.54747e-13 5.68434e-14
threshold=62.538553145468605 1.0000000180025095e-35 120.09120658849731 0.9031466871300825 0.98457233236629393 65.731665091035055 107.68895300303744 1.0000000180025095e-35 110.51440460504604 0.7813460689378533 0.99999999765530523 1.0000000180025095e-35 251.16946226814702 0.91757534458195023 221.16281704299507 140.71461285955985 0 1.0000000180025095e-35 0.99999999794237826 94.594676157176167 111.83028325044127 0.99999998742088636 1.0000000180025095e-35 1 75.500000000000014 42.500000000000007 58.500000000000007 2 3 4 70.500000000000014 0.78340207337090628 61.500000000000007 18.500000000000004 6.5000000000000009
decision_type=2 2 2 2 2 2 2 2 2 2 2 2 2 2 2 2 1 2 2 2 2 2 2 1 2 2 2 1 1 1 2 2 2 2 2
left_child=-1 23 3 24 6 10 7 8 -5 29 21 12 13 28 -15 16 -14 -17 19 -7 -9 -6 -12 25 -3 -2 -20 30 -11 31 -8 34 -31 -13 -4
right_child=1 2 9 4 5 18 27 20 -10 11 22 33 15 14 -16 17 -18 -19 26 -21 -22 -23 -24 -25 -26 -27 -28 -29 -30 32 -32 -33 -34 -35 -36
leaf_value=0.082967532339268055 0.082967532339268055 0.082967532339268055 0.082967532339268055 0.10172176659281558 0.10366927011908829 0.082967532339268055 0.082967532339268055 0.080592646346592064 -0.024994185192564026 0.082967532339268055 -0.035470973457108528 0.082967532339268055 0.10993303631104361 -0.027920512056959813 0.10428907382778353 -0.034020808153512577 -0.030142047056467374 -0.031119753796728225 0.082967532339268055 0.10012241634828042 0.11551158865382567 0.082967532339268055 -0.033873259065841134 0.082967532339268055 0.082967532339268055 0.082967532339268055 0.082967532339268055 0.082967532339268055 0.082967532339268055 0.082967532339268055 0.082967532339268055 0.082967532339268055 0.082967532339268055 0.082967532339268055 0.082967532339268055
leaf_weight=155283.65594136715 5160.2399416565895 9173.4264579713345 38.319756209850311 920.84454919397831 68.066831156611443 2365.2061573863029 1011.5492271780968 75.244315415620804 77576.573980808258 879.96934139728546 3707.6935973614454 373.50220209360123 1053.4747099876404 42589.286312624812 411.87424197793007 100575.30106127262 50861.671473458409 261436.38854882121 4792.9704709947109 2700.2009581774473 750.7859955728054 332.64318493008614 3779.8807826787233 5327.3694807887077 13.850514292716978 2135.9801458418369 295.24679633975029 778.16806134581566 650.51248794794083 412.51448401808739 6.2327314317226401 546.86447265744209 5.5402057170867911 6.2327314317226401 4.8476800024509421
leaf_count=672684 22354 39739 166 4436 331 10246 4382 322 527612 3812 26013 1618 5312 295613 2010 716060 355111 1847594 20763 12905 3905 1441 26413 23078 60 9253 1279 3371 2818 1787 27 2369 24 27 21
internal_value=0 -0.0223974 -0.0247383 -0.00163738 -0.00947601 0.0367946 -0.0197671 -0.0220931 -0.0235077 -0.0301814 -0.0285103 -0.03043 -0.0305239 -0.0228867 -0.0266542 -0.0313455 -0.0272996 -0.0319257 0.0875296 0.0921122 0.112331 0.086484 -0.0346644 0.0829675 0.0829675 0.0829675 0.0829675 0.0829675 0.0829675 0.0829675 0.0829675 0.0829675 0.0829675 0.0829675 0.0829675
internal_weight=0 580818 568195 108349 99161.3 18041.9 81119.4 79323.4 78497.4 459846 7888.28 458838 458458 44531.6 43001.2 413927 51915.1 362012 10153.6 5065.41 826.03 400.71 7487.57 12623.6 9187.28 7296.22 5088.22 1795.95 1530.48 1008.09 1017.78 590.032 418.055 379.735 43.1674
internal_count=4644956 3972272 3917587 683245 643446 99391 544055 536275 532048 3234342 54198 3229975 3228330 304253 297623 2924077 360423 2563654 45193 23151 4227 1772 52426 54685 39799 31607 22042 7780 6630 4367 4409 2556 1811 1645 187
cat_boundaries=0 1 2 3 4 5
cat_threshold=1 1 1 1 1
is_linear=0
shrinkage=0.03


Tree=8
num_leaves=31
num_cat=1
split_feature=21 23 21 14 14 21 21 22 22 13 13 19 22 14 22 21 17 24 14 22 13 24 2 2 2 2 0 10 21 21
split_gain=1.40322e+06 149131 77107.9 73790.9 49553.8 60700 20120.4 15586.9 15902.8 13535.7 5836.74 5114.82 3160.47 18496 7325.38 1074.48 21004.2 683.987 182.037 314.532 20.3485 5.37011 2.32831e-10 7.27596e-12 7.27596e-12 3.63798e-12 1.81899e-12 9.09495e-13 9.09495e-13 1.13687e-13
threshold=62.538553145468605 1.0000000180025095e-35 120.09120658849731 0.9031466871300825 0.98457233236629393 65.731665091035055 107.68895300303744 804.68391576266856 110.51440460504604 0.7813460689378533 0.99999999765530523 1.0000000180025095e-35 251.16946226814702 0.91757534458195023 221.16281704299507 140.71461285955985 1.0000000180025095e-35 1.0000000180025095e-35 0.99999999794237826 94.594676157176167 0.99999998742088636 1.0000000180025095e-35 72.500000000000014 74.500000000000014 65.500000000000014 63.500000000000007 0 1.0000000180025095e-35 42.670498279670113 61.806413996982961
decision_type=2 2 2 2 2 2 2 2 2 2 2 2 2 2 2 2 2 2 2 2 2 2 2 2 2 2 1 2 2 2
left_child=22 -2 3 23 6 10 7 8 -5 27 20 12 13 26 -15 16 -14 -17 19 -7 -6 -12 -1 -3 -20 -8 -11 -4 -24 -30
right_child=1 2 9 4 5 18 25 -9 -10 11 21 -13 15 14 -16 17 -18 -19 24 -21 -22 -23 28 -25 -26 -27 -28 -29 29 -31
leaf_value=0.078750310167954793 0.078750310167954793 0.078750310167954793 0.078750310167954793 0.093496769825134177 0.096414574461051561 0.078750310167954793 0.078750310167954793 0.090248150044700284 -0.024947209728459496 0.078750310167954793 -0.035235304268180979 0.078750310167954793 -0.029497954159056566 -0.027590427460881379 0.096931841888890258 -0.033768948201931999 0.12051729845918481 -0.030825342335805986 0.078750310167954793 0.093520774414234634 0.078750310167954793 -0.033609902527443176 0.078750310167954793 0.078750310167954793 0.078750310167954793 0.078750310167954793 0.078750310167954793 0.078750310167954793 0.078750310167954793 0.078750310167954793
leaf_weight=157942.98385411501 12896.216549798846 9369.6549280434847 10.376401722431181 1034.0871615260839 70.945894315838814 2416.286637455225 1795.5891526043415 1102.4780466556549 76028.690750166774 892.37054812908173 3621.8162962049246 387.93592803180218 50113.372926667333 41817.573993325233 429.55340623855591 98319.796585738659 854.31555640697479 256096.33577990532 5104.7179928123951 2802.4217169582844 339.82715640962124 3696.4763187021017 598.05806291103363 16.036257207393646 93.387615501880646 39.147333770990372 671.16452959179878 1019.4814692288637 89.61437851190567 6.6031647324562064
leaf_count=669740 54685 39731 44 4758 331 10246 7614 4968 526549 3784 26013 1645 355823 295613 2010 716060 4600 1847594 21646 12905 1441 26413 2536 68 396 166 2846 4323 380 28
internal_value=0 -0.0221086 -0.024439 -0.00161295 -0.00929809 0.0354608 -0.0194505 -0.0217555 -0.0233578 -0.0298861 -0.0282379 -0.030135 -0.030229 -0.0225744 -0.0263243 -0.0310562 -0.0269834 -0.0316419 0.082724 0.086682 0.0818012 -0.0344143 0.0787503 0.0787503 0.0787503 0.0787503 0.0787503 0.0787503 0.0787503 0.0787503
internal_weight=0 571040 558144 107532 98145.9 18145.9 80000 78165.3 77062.8 450612 7729.07 449582 449194 43810.7 42247.1 405384 50967.7 354416 10416.8 5218.71 410.773 7318.29 158637 9385.69 5198.11 1834.74 1563.54 1029.86 694.276 96.2175
internal_count=4644956 3972272 3917587 683245 643446 99391 544055 536275 531307 3234342 54198 3229975 3228330 304253 297623 2924077 360423 2563654 45193 23151 1772 52426 672684 39799 22042 7780 6630 4367 2944 408
cat_boundaries=0 1
cat_threshold=1
is_linear=0
shrinkage=0.03


Tree=9
num_leaves=85
num_cat=7
split_feature=21 13 23 22 17 13 21 14 14 21 13 19 22 14 21 14 21 14 14 23 22 22 21 13 23 23 23 14 14 13 23 22 22 21 13 22 14 23 21 14 21 23 13 13 13 22 23 14 13 24 23 23 15 13 2 0 14 23 23 0 2 2 2 2 2 2 2 2 2 24 0 2 23 24 0 2 2 2 23 2 3 21 0 2
split_gain=1.31179e+06 163209 110596 37132.6 29338.1 21743.9 19127.6 41971.3 37743.7 21004.3 6904.3 4830.47 3122.6 17385.1 2931.92 1991.88 1822 1518.5 2905.1 2138.92 1858.47 3614.31 1071.62 451.544 262.795 171.921 148.657 146.576 182.682 132.909 101.065 86.147 83.3322 79.6002 69.4721 63.237 113.286 67.5004 62.3176 148.581 34.6972 21.6677 21.0915 19.9175 17.1627 17.0008 16.0565 15.0194 10.8853 10.3087 7.9479 4.61338 4.42794 1.16415e-10 1.45519e-11 7.27596e-12 3.63798e-12 3.63798e-12 3.63798e-12 1.81899e-12 1.81899e-12 9.09495e-13 9.09495e-13 9.09495e-13 9.09495e-13 4.54747e-13 4.54747e-13 4.54747e-13 4.54747e-13 4.54747e-13 2.27374e-13 2.27374e-13 2.27374e-13 2.27374e-13 1.13687e-13 1.13687e-13 1.13687e-13 5.68434e-14 5.68434e-14 2.84217e-14 2.84217e-14 2.84217e-14 1.42109e-14 1.42109e-14
threshold=80.061519630068574 0.99999999765530523 1.0000000180025095e-35 110.51440460504604 1.0000000180025095e-35 0.7813460689378533 120.09120658849731 0.98457233236629393 0.9031466871300825 107.68895300303744 0.99999999794237826 1.0000000180025095e-35 251.16946226814702 0.91757534458195023 78.238406950984313 0.99999999911776294 63.201313270063274 0.903202483924607 0.98805703219149688 1.0000000180025095e-35 112.72782806856601 804.68391576266856 140.71461285955985 0.99999999801584194 1.0000000180025095e-35 1.0000000180025095e-35 1.0000000180025095e-35 0.99870046218600272 0.95428356415257676 0.99999999827734587 1.0000000180025095e-35 101.79703735706234 94.594676157176167 70.855396903294931 0.99999999824715047 95.991420099305316 0.99999999828178199 1.0000000180025095e-35 95.660055841521583 0.99999999847904453 83.233166512811025 1.0000000180025095e-35 0.99999999395764894 0.9999999937885804 0.99999999775276371 260.32614265650778 1.0000000180025095e-35 0.99999999828178199 0.89977445256057276 1.0000000180025095e-35 1.0000000180025095e-35 1.0000000180025095e-35 0 0.99999996824596893 77.500000000000014 1 0.88403929101288747 27.500000000000004 24.500000000000004 2 70.500000000000014 72.500000000000014 75.500000000000014 49.500000000000007 66.500000000000014 47.500000000000007 59.500000000000007 52.500000000000007 53.500000000000007 16.500000000000004 3 48.500000000000007 11.500000000000002 13.500000000000002 4 48.500000000000007 68.500000000000014 49.500000000000007 5.5000000000000009 25.500000000000004 5 69.401763116041238 6 52.500000000000007
decision_type=2 2 2 2 2 2 2 2 2 2 2 2 2 2 2 2 2 2 2 2 2 2 2 2 2 2 2 2 2 2 2 2 2 2 2 2 2 2 2 2 2 2 2 2 2 2 2 2 2 2 2 2 1 2 2 1 2 2 2 1 2 2 2 2 2 2 2 2 2 2 1 2 2 2 1 2 2 2 2 2 9 2 1 2
left_child=1 16 54 32 27 57 7 8 58 -10 14 12 13 -8 15 24 53 55 19 61 31 -22 -14 25 -6 -12 -16 28 33 30 -30 -21 43 65 40 -20 37 -37 39 -9 -34 79 77 48 51 60 -35 -40 75 -26 -47 -29 -53 -1 -2 56 -18 -5 -7 63 -46 -19 -38 -45 -61 -3 -25 -27 -36 -58 -48 -28 -17 -32 -43 -4 -65 -42 -73 -31 -70 -62 -59 -77
right_child=2 4 3 5 10 6 11 38 9 -11 23 -13 22 -15 26 72 17 18 35 20 21 -23 -24 66 49 67 71 44 29 41 73 -33 34 46 68 36 62 -39 47 -41 42 74 -44 59 45 50 70 -49 -50 -51 -52 52 -54 -55 -56 -57 69 82 -60 64 81 -63 -64 76 -66 -67 -68 -69 80 -71 -72 78 -74 -75 -76 83 -78 -79 -80 -81 -82 -83 -84 -85
leaf_value=0.075058478054008157 0.075058478054008157 0.075058478054008157 0.075058478054008157 0.075058478054008157 0.075058478054008157 0.075058478054008157 0.075058478054008157 0.090961197154079895 -0.027019292990624361 0.075058478054008157 0.075058478054008157 0.075058478054008157 -0.026667545620193203 -0.025999508428099147 0.075058478054008157 0.075058478054008157 0.075058478054008157 0.075058478054008157 0.075058478054008157 0.08311441389612681 0.17565220483791205 0.085049000831033617 -0.031363528106324298 0.075058478054008157 -0.03540503639356813 0.17565220483791205 0.17565220483791205 0.075058478054008157 0.075058478054008157 0.075058478054008129 0.17565220483791205 0.1091573600393969 0.11012935951769294 0.075058478054008157 0.075058478054008157 0.075058478054008157 0.075058478054008157 0.092217423184678932 0.069076465137064308 0.075058478054008157 0.075058478054008157 0.10810760890456192 0.092374600057051698 0.075058478054008157 0.075058478054008157 0.075058478054008157 0.10810760890456192 0.075058478054008157 0.084868776110247277 -0.033898762790916415 0.092374600057051698 0.092374600057051698 0.075058478054008157 0.075058478054008157 0.075058478054008157 0.075058478054008157 0.075058478054008157 0.075058478054008143 0.075058478054008157 0.075058478054008157 0.075058478054008129 0.075058478054008157 0.075058478054008157 0.075058478054008157 0.075058478054008157 0.075058478054008157 0.075058478054008157 0.17565220483791205 0.075058478054008157 0.075058478054008157 0.10810760890456192 0.17565220483791208 0.075058478054008157 0.17565220483791205 0.10810760890456192 0.075058478054008157 0.075058478054008157 0.075058478054008157 0.17565220483791202 0.075058478054008157 0.075058478054008101 0.075058478054008157 0.075058478054008129 0.075058478054008157
leaf_weight=116364.92447912693 9827.6030800044537 241.85707426071167 127.64678919315338 1850.6385057270527 19.674881041049957 3589.4661021232605 1590.7861134409904 827.22677585482597 64503.130644395947 1866.7143231630325 19.914818614721298 394.69730868935585 50043.63405290246 41504.630373895168 17.035567730665207 127.64678919315338 2740.0870913267136 839.54157027602196 1998.2001135349274 550.25520724058151 1221.4908376336098 586.53827647864819 346948.72930490971 318.63709783554077 8142.0953074395657 62.455357611179352 50.559099018573761 23.273944646120071 11.037128388881682 10.797190815210344 45.460702478885651 144.29115915298462 90.974437147378922 15.116067141294478 255.29357838630676 262.49170559644699 1025.9730650186539 964.41441744565964 502.66881939768791 1465.5386999845505 60.944143712520599 35.487494498491287 501.08347967267036 631.03581875562668 1663.2472606897354 34.311073035001755 60.950273036956787 1520.0045292079449 350.34248207509518 8214.9867031425238 78.287440806627274 89.909946024417877 15.595942288637159 43921.052735686302 6.2383769154548636 2509.7470206022263 591.68605667352676 7.9179399311542511 51.346640765666962 701.57746541500092 13.436504125595095 6.4783144891262046 5.7585017681121817 124.76753830909729 12.476753830909727 49.907015323638916 12.476753830909727 3.3989310264587393 17.035567730665207 6.2383769154548636 45.111221820116043 4.107041656970976 23.03400707244873 2.9740646481513968 34.284528583288193 5.7585017681121817 6.7182520627975455 11.517003536224363 4.3902859091758728 13.19656655192375 5.7585017681121853 11.517003536224363 9.8374405205249804 10.077378094196318
leaf_count=484980 40959 1008 532 7713 82 14960 6630 3744 452876 7780 83 1645 360423 297623 71 532 11420 3499 8328 2388 8625 2569 2563654 1328 58528 441 357 97 46 45 321 724 459 63 1064 1094 4276 4394 2046 6108 254 177 2285 2630 6932 143 304 6335 1533 58898 357 410 65 183052 26 10460 2466 33 214 2924 56 27 24 520 52 208 52 24 71 26 225 29 96 21 171 24 28 48 31 55 24 48 41 42
internal_value=0 0.0667084 -0.0246102 -0.0264966 -0.0155497 -0.0270987 -0.0274695 -0.0133921 -0.0189891 -0.0241483 -0.0296347 -0.0298449 -0.029939 -0.0222691 -0.0326624 -0.0335177 0.0759485 0.0865528 0.0953907 0.116296 0.130236 0.14626 -0.0307716 0.0909491 -0.0345167 0.152295 0.153131 0.0805061 0.0939277 0.121902 0.156983 0.0885248 0.0803123 0.0835469 0.0876484 0.0789459 0.0823852 0.0885463 0.0774101 0.0807962 0.0929171 0.0996507 0.0901869 0.0768028 0.0765679 0.0758113 0.103985 0.0735718 0.0820184 -0.0346485 0.087098 0.087148 0.0898149 0.0750585 0.0750585 0.0750585 0.0750585 0.0750585 0.0750585 0.0750585 0.0750585 0.0750585 0.0750585 0.0750585 0.0750585 0.0750585 0.0750585 0.175652 0.0750585 0.0750585 0.108108 0.175652 0.0750585 0.175652 0.108108 0.0750585 0.0750585 0.0750585 0.175652 0.0750585 0.0750585 0.0750585 0.0750585 0.0750585
internal_weight=0 193255 529424 519590 19516.2 516677 514809 74326.1 70010.7 66369.8 17020.4 440482 440088 43095.4 16603.5 16527.4 173739 13453.2 7605.43 3348.6 2502.58 1808.03 396992 416.883 16376.8 85.7691 76.092 2495.76 566.179 153.238 59.4719 694.546 2913.01 412.942 942.607 4256.84 2258.64 1226.91 4315.44 2292.77 664.519 93.7658 573.545 1970.4 1929.58 1800.8 121.178 2022.67 493.825 16357.1 112.599 128.78 105.506 160286 9833.84 5847.76 3338.01 1868.39 3640.81 1476.58 1688.2 846.02 1031.73 762.522 714.054 291.764 331.114 65.8543 278.088 597.924 106.061 59.0564 150.681 48.4348 69.772 143.483 131.486 72.4611 8.49733 23.9938 22.7941 24.9535 17.7554 15.8359
internal_count=4644956 859656 3785300 3744315 131304 3731825 3724038 494063 475830 460656 120552 3229975 3228330 304253 118624 118136 728352 60320 35948 17832 14306 11194 2924077 1928 117508 548 488 10752 2644 836 388 3112 12490 1808 4205 18116 9788 5488 18233 9852 3046 448 2587 8285 8108 7536 592 8381 2131 117426 500 572 475 668032 40985 24372 13912 7787 15174 6154 7036 3526 4300 3178 2976 1216 1380 465 1159 2492 529 417 628 342 348 598 548 302 60 100 95 104 74 66
cat_boundaries=0 1 2 3 4 5 6 7
cat_threshold=1 1 1 1 1 4 2
is_linear=0
shrinkage=0.03


Tree=10
num_leaves=81
num_cat=6
split_feature=21 13 23 22 17 13 21 14 14 21 13 19 22 14 21 14 21 14 14 23 22 22 21 13 23 23 14 14 23 13 23 22 22 21 13 22 14 23 21 14 21 23 13 13 13 22 14 23 24 13 23 23 14 2 2 23 2 2 2 2 24 0 0 2 0 2 2 2 2 2 2 2 2 2 2 2 3 2 0 3
split_gain=1.22993e+06 148798 104358 34944.3 27530.5 20541 18691.9 39269.7 35497.7 19804 6471.49 4571.72 3090.2 16375.7 2622.39 1891.88 1418.57 1159.56 2141.59 1531.62 1270.16 2377.18 1077.02 324.118 249.699 113.76 112.81 133.694 98.2886 89.4668 66.5804 64.8755 64.5412 60.8466 53.5322 49.6743 88.1647 52.0359 49.2423 115.683 25.6925 16.2423 16.2305 15.6968 13.4404 13.3339 12.0445 11.9862 10.4283 8.51183 6.1344 3.56934 3.40865 1.16415e-10 7.27596e-12 3.63798e-12 1.81899e-12 1.81899e-12 1.81899e-12 1.81899e-12 1.81899e-12 9.09495e-13 4.54747e-13 4.54747e-13 2.27374e-13 2.27374e-13 2.27374e-13 2.27374e-13 2.27374e-13 2.27374e-13 2.27374e-13 2.27374e-13 1.13687e-13 5.68434e-14 5.68434e-14 5.68434e-14 5.68434e-14 2.84217e-14 1.42109e-14 1.42109e-14
threshold=80.061519630068574 0.99999999765530523 1.0000000180025095e-35 110.51440460504604 1.0000000180025095e-35 0.7813460689378533 120.09120658849731 0.98457233236629393 0.9031466871300825 107.68895300303744 0.99999999794237826 1.0000000180025095e-35 251.16946226814702 0.91757534458195023 78.238406950984313 0.99999999911776294 63.201313270063274 0.903202483924607 0.98805703219149688 1.0000000180025095e-35 112.72782806856601 804.68391576266856 140.71461285955985 0.99999999801584194 1.0000000180025095e-35 1.0000000180025095e-35 0.99870046218600272 0.95428356415257676 1.0000000180025095e-35 0.99999999827734587 1.0000000180025095e-35 94.594676157176167 101.79703735706234 70.855396903294931 0.99999999824715047 95.991420099305316 0.99999999828178199 1.0000000180025095e-35 95.660055841521583 0.99999999847904453 83.233166512811025 1.0000000180025095e-35 0.99999999395764894 0.9999999937885804 0.99999999775276371 260.32614265650778 0.99999999828178199 1.0000000180025095e-35 1.0000000180025095e-35 0.89977445256057276 1.0000000180025095e-35 1.0000000180025095e-35 0.99999999869536371 81.500000000000014 78.500000000000014 47.500000000000007 66.500000000000014 63.500000000000007 70.500000000000014 19.500000000000004 23.500000000000004 0 1 54.500000000000007 2 42.500000000000007 62.500000000000007 42.500000000000007 47.500000000000007 60.500000000000007 62.500000000000007 58.500000000000007 57.500000000000007 48.500000000000007 86.500000000000014 73.500000000000014 3 30.500000000000004 4 5
decision_type=2 2 2 2 2 2 2 2 2 2 2 2 2 2 2 2 2 2 2 2 2 2 2 2 2 2 2 2 2 2 2 2 2 2 2 2 2 2 2 2 2 2 2 2 2 2 2 2 2 2 2 2 2 2 2 2 2 2 2 2 2 1 1 2 1 2 2 2 2 2 2 2 2 2 2 2 9 2 1 9
left_child=1 16 54 31 26 56 7 8 55 -10 14 12 13 -8 15 24 53 -18 19 61 32 -22 -14 25 -6 78 27 33 -16 30 -29 43 -21 65 40 57 37 -37 39 -9 -33 -31 73 49 51 59 -40 79 -26 -4 77 -28 70 -1 -2 -7 -5 -20 60 -46 -45 -19 -13 -63 -36 -3 -25 -27 -30 -49 -53 -64 -66 -42 -55 -59 -70 -47 -12 -35
right_child=2 4 3 5 10 6 11 38 9 -11 23 62 22 -15 28 -17 17 18 35 20 21 -23 -24 66 48 67 44 29 68 41 -32 34 -34 47 64 36 -38 -39 46 -41 42 -43 -44 58 45 50 -48 69 -50 -51 -52 52 -54 74 -56 -57 -58 75 -60 -61 -62 63 71 -65 72 -67 -68 -69 76 -71 -72 -73 -74 -75 -76 -77 -78 -79 -80 -81
leaf_value=0.071800265816289774 0.071800265816289774 0.071800265816289774 0.071800265816289774 0.071800265816289774 0.071800265816289774 0.071800265816289774 0.071800265816289774 0.085668770624605067 -0.026685649044449769 0.071800265816289774 0.07180026581628976 0.071800265816289774 -0.026339078311584233 -0.025667330406489081 0.071800265816289774 0.071800265816289774 0.071800265816289774 0.071800265816289774 0.071800265816289774 0.078892276231699796 0.15218906190727849 0.080560707669037127 -0.031090012373917415 0.071800265816289774 -0.035180880286365422 0.15218906190727849 0.071800265816289774 0.071800265816289774 0.15218906190727849 0.071800265816289774 0.15218906190727849 0.10177333066011197 0.1009721651126336 0.071800265816289788 0.071800265816289774 0.071800265816289774 0.071800265816289774 0.086736682313238528 0.066468312258719062 0.071800265816289774 0.071800265816289774 0.10010400946062079 0.086870889012405958 0.071800265816289774 0.071800265816289774 0.071800265816289774 0.071800265816289774 0.10010400946062079 -0.033648200581119267 0.080404264087724039 0.086870889012405958 0.086870889012405958 0.071800265816289774 0.071800265816289774 0.071800265816289774 0.071800265816289774 0.071800265816289774 0.071800265816289774 0.071800265816289774 0.071800265816289774 0.071800265816289774 0.071800265816289774 0.071800265816289774 0.071800265816289774 0.071800265816289774 0.071800265816289774 0.071800265816289774 0.15218906190727849 0.15218906190727843 0.10010400946062079 0.086870889012405958 0.071800265816289774 0.071800265816289774 0.071800265816289774 0.071800265816289774 0.071800265816289774 0.15218906190727849 0.071800265816289774 0.07180026581628976 0.071800265816289774
leaf_weight=162439.63391447067 9964.1428281068802 225.73357772827148 145.46193909645081 1885.8970130681992 19.946285963058472 3685.1979553699493 1612.7301943302155 851.5867687612772 63367.570468485355 1892.4646925926208 9.4866482019424438 205.78729176521301 49161.098147705197 40791.365089058876 17.270564675331116 152.75936079025269 5928.4253840446472 508.63029205799103 1973.2228260040283 562.1210124194622 1365.0413621217012 600.41559019684792 339612.19155886769 329.84346055984497 7951.0421131402254 53.810326159000397 23.594996809959412 11.189379930496214 53.968591824173927 24.3247389793396 54.126857489347458 95.41772948205471 151.19529980421066 6.8109269142150861 160.54327726364136 266.11264443397522 1045.9637761116028 994.11240896582603 506.65607169270515 1485.7550568580627 57.892878770828247 73.03657865524292 516.59351594746113 1474.5656769275665 51.568446636199951 20.67602813243866 1540.9722143411636 102.41911029815674 8030.6648360043764 358.56883044540882 80.710671856999397 88.171322196722031 15.811080336570738 47.676488399505615 5.351442575454711 5.837937355041503 8.2704112529754621 47.676488399505615 8.7569060325622541 1659.9201879501343 13.621853828430174 306.73495852947235 188.5167270898819 42.325045824050903 115.78575754165649 70.055248260498047 5.837937355041503 19.783208146691322 3.7983759641647339 8.6048842668533307 4.5216062664985648 5.837937355041503 5.594689965248107 15.567832946777342 9.7298955917358381 4.864947795867919 8.2298145890235883 14.108348608016966 10.702885150909424 8.5136586427688581
leaf_count=667796 40963 928 598 7753 82 15150 6630 3744 452876 7780 39 846 360423 297623 71 628 24372 2091 8112 2388 8625 2569 2563654 1356 58528 340 97 46 341 100 342 459 724 28 660 1094 4300 4394 2046 6108 238 348 2285 6062 212 85 6335 488 58898 1533 357 390 65 196 22 24 34 196 36 6824 56 1261 775 174 476 288 24 125 24 41 20 24 23 64 40 20 52 58 44 35
internal_value=0 0.0639447 -0.0243261 -0.026206 -0.0153391 -0.0268071 -0.027177 -0.0131744 -0.0187105 -0.0238297 -0.0293695 -0.0295564 -0.0296505 -0.0219604 -0.0324097 -0.0332752 0.0725844 0.0818199 0.0893692 0.106691 0.117863 0.130308 -0.0304892 0.0855758 -0.0342783 0.134883 0.0765859 0.0881487 0.135516 0.111255 0.138418 0.0764259 0.0835724 0.0792443 0.0828044 0.0752279 0.0782388 0.0835827 0.0738775 0.0768531 0.0873302 0.0930326 0.0849946 0.0733421 0.0731342 0.072466 0.070481 0.0966711 -0.0344107 0.0779212 0.082332 0.0823752 0.0846748 0.0718003 0.0718003 0.0718003 0.0718003 0.0718003 0.0718003 0.0718003 0.0718003 0.0718003 0.0718003 0.0718003 0.0718003 0.0718003 0.0718003 0.152189 0.152189 0.100104 0.0868709 0.0718003 0.0718003 0.0718003 0.0718003 0.0718003 0.152189 0.0718003 0.0718003 0.0718003
internal_weight=0 195505 519746 509776 19211 506808 504914 73336 68951.1 65260 16667.1 431578 431177 42404.1 16237.7 16154.4 176294 13796.8 7868.42 3536.46 2678.77 1965.46 388773 429.464 16001.7 93.7831 2543.9 584.815 83.2673 162.678 65.3162 2968.37 713.316 422.137 967.396 4331.95 2306.19 1260.23 4384.97 2337.34 685.472 97.3613 590.054 2000.98 1959.08 1826.98 2047.63 126.349 15981.7 504.031 115.495 132.099 108.504 162497 9969.49 3691.04 1894.17 2025.76 1496.94 1711.49 1488.19 857.69 400.142 349.06 281.924 295.789 335.681 73.5935 65.9968 111.024 92.6929 194.355 121.38 73.4607 57.4064 52.5414 12.0282 34.7844 20.1895 15.3246
internal_count=4644956 859656 3785300 3744315 131304 3731825 3724038 494063 475830 460656 120552 3229975 3228330 304253 118624 118136 728352 60320 35948 17832 14306 11194 2924077 1928 117508 548 10752 2644 488 836 388 12490 3112 1808 4205 18116 9788 5488 18233 9852 3046 448 2587 8285 8108 7536 8381 592 117426 2131 500 572 475 668032 40985 15174 7787 8328 6154 7036 6118 3526 1645 1435 1159 1216 1380 465 417 529 410 799 499 302 236 216 76 143 83 63
cat_boundaries=0 1 2 3 4 5 6
cat_threshold=1 1 1 4 1 1
is_linear=0
shrinkage=0.03


Tree=11
num_leaves=97
num_cat=7
split_feature=21 13 23 22 17 21 21 14 14 13 18 13 19 22 14 21 14 21 24 14 14 23 22 22 13 23 14 14 14 23 23 13 22 22 21 23 13 22 14 23 21 13 13 23 13 22 24 22 23 18 13 23 23 14 13 2 0 2 2 2 2 2 2 2 2 2 0 1 2 2 22 22 0 2 2 2 1 2 2 2 2 2 23 2 2 2 2 2 2 2 2 2 2 0 0 2
split_gain=1.15598e+06 136341 98672.6 32967.1 25908.7 20040 39243 29098.1 26877.5 11467.8 11323.3 6089.28 4334.92 3057.28 15455.6 2380.38 1800.28 1120.03 1086.32 900.429 1614.91 1128.12 900.709 1638.17 239.514 237.697 103.149 88.1581 100.179 78.8471 68.083 62.6846 51.1664 49.2499 47.2511 45.9928 41.8473 39.4831 69.5118 40.6912 19.4147 12.6726 12.5116 12.4049 10.6547 10.5845 10.56 9.78423 9.12237 8.10525 6.73834 4.80198 2.79987 2.66225 1.85577 1.16415e-10 7.27596e-12 7.27596e-12 3.63798e-12 1.81899e-12 1.81899e-12 1.81899e-12 1.81899e-12 1.81899e-12 1.81899e-12 1.81899e-12 9.09495e-13 9.09495e-13 9.09495e-13 9.09495e-13 9.09495e-13 9.09495e-13 4.54747e-13 4.54747e-13 4.54747e-13 4.54747e-13 2.27374e-13 2.27374e-13 2.27374e-13 2.27374e-13 2.27374e-13 2.27374e-13 2.27374e-13 1.13687e-13 1.13687e-13 1.13687e-13 1.13687e-13 1.13687e-13 5.68434e-14 5.68434e-14 5.68434e-14 2.84217e-14 2.84217e-14 1.42109e-14 1.42109e-14 1.42109e-14
threshold=80.061519630068574 0.99999999765530523 1.0000000180025095e-35 110.51440460504604 1.0000000180025095e-35 120.09120658849731 107.68895300303744 0.98457233236629393 0.9031466871300825 0.7813460689378533 1.0000000180025095e-35 0.99999999794237826 1.0000000180025095e-35 251.16946226814702 0.91757534458195023 78.238406950984313 0.99999999911776294 63.201313270063274 1.0000000180025095e-35 0.903202483924607 0.98805703219149688 1.0000000180025095e-35 112.72782806856601 804.68391576266856 0.99999999801584194 1.0000000180025095e-35 0.99999999828178199 0.99870046218600272 0.95428356415257676 1.0000000180025095e-35 1.0000000180025095e-35 0.99999999827734587 94.594676157176167 101.79703735706234 70.855396903294931 1.0000000180025095e-35 0.99999999824715047 95.991420099305316 0.99999999828178199 1.0000000180025095e-35 83.233166512811025 0.99999999395764894 0.9999999937885804 1.0000000180025095e-35 0.99999999775276371 260.32614265650778 1.0000000180025095e-35 160.77498964929481 1.0000000180025095e-35 1.0000000180025095e-35 0.89977445256057276 1.0000000180025095e-35 1.0000000180025095e-35 0.99999999869536371 0.98693770773608869 80.500000000000014 0 70.500000000000014 44.500000000000007 71.500000000000014 72.500000000000014 62.500000000000007 56.500000000000007 62.500000000000007 71.500000000000014 37.500000000000007 1 2 71.500000000000014 69.500000000000014 308.52572667339149 202.32457787237476 3 53.500000000000007 33.500000000000007 52.500000000000007 4 56.500000000000007 44.500000000000007 48.500000000000007 53.500000000000007 31.500000000000004 11.500000000000002 20.500000000000004 48.500000000000007 26.500000000000004 52.500000000000007 62.500000000000007 52.500000000000007 76.500000000000014 49.500000000000007 56.500000000000007 53.500000000000007 5 6 59.500000000000007
decision_type=2 2 2 2 2 2 2 2 2 2 2 2 2 2 2 2 2 2 2 2 2 2 2 2 2 2 2 2 2 2 2 2 2 2 2 2 2 2 2 2 2 2 2 2 2 2 2 2 2 2 2 2 2 2 2 2 1 2 2 2 2 2 2 2 2 2 1 1 2 2 2 2 1 2 2 2 1 2 2 2 2 2 2 2 2 2 2 2 2 2 2 2 2 1 1 2
left_child=1 17 57 32 27 6 7 8 59 67 -10 15 13 14 -11 16 25 55 -15 56 21 68 33 -24 29 93 49 28 34 -13 -17 35 42 -23 76 -30 40 60 39 -39 -34 88 50 -33 52 -46 -27 54 -36 -9 84 -47 -29 87 -8 -1 -19 -2 -49 -5 -22 -28 -40 -44 65 -58 -43 73 70 -56 -21 -67 77 -7 -26 -52 83 -14 -31 -32 -38 -50 -18 -3 -4 -45 -53 -54 -42 -59 -80 -75 -81 -6 -84 -82
right_child=2 4 3 5 11 9 47 26 10 12 -12 24 72 18 -16 30 82 19 -20 20 37 22 23 -25 74 46 61 44 31 78 79 43 36 -35 48 -37 80 38 62 -41 41 66 63 85 45 51 -48 58 81 -51 75 86 53 -55 69 -57 64 89 -60 -61 -62 -63 -64 -65 -66 71 -68 -69 -70 -71 -72 -73 -74 91 -76 -77 -78 -79 90 92 95 -83 94 -85 -86 -87 -88 -89 -90 -91 -92 -93 -94 -95 -96 -97
leaf_value=0.068904211226153922 0.068904211226153922 0.068904211226153922 0.068904211226153922 0.068904211226153922 0.068904211226153908 0.068904211226153922 0.068904211226153922 0.082275518820907681 -0.027535258113510253 0.068904211226153922 0.11241706151030452 0.068904211226153922 0.068904211226153922 -0.032806021573044998 -0.02533836552863921 0.068904211226153922 0.068904211226153922 0.068904211226153922 -0.029221525432222097 0.068904211226153922 0.068904211226153922 0.075195625601862756 0.13493912503878375 0.076647249209563464 0.068904211226153922 -0.034964785516814749 0.068904211226153922 0.068904211226153922 0.068904211226153922 0.13493912503878375 0.13493912503878375 0.068904211226153922 0.0948281358030688 0.094156314590989096 0.068904211226153922 0.13493912503878375 0.068904211226153922 0.068904211226153922 0.068904211226153922 0.082023072879377962 0.068904211226153922 0.082138972471792568 0.068904211226153922 0.093426133280691229 0.068904211226153922 0.068904211226153922 -0.033404314390946502 0.068904211226153922 0.093426133280691229 0.073958277257119245 0.07651019187703105 0.082138972471792568 0.082138972471792568 0.068904211226153922 0.064123130145410698 0.068904211226153922 0.068904211226153922 0.068904211226153922 0.068904211226153922 0.068904211226153922 0.068904211226153922 0.068904211226153922 0.068904211226153922 0.068904211226153922 0.068904211226153922 0.068904211226153922 0.082138972471792568 0.068904211226153922 0.068904211226153922 0.064123130145410698 0.068904211226153922 0.068904211226153922 0.068904211226153922 0.068904211226153922 0.068904211226153922 0.07651019187703105 0.068904211226153922 0.068904211226153922 0.13493912503878369 0.13493912503878375 0.068904211226153894 0.093426133280691229 0.068904211226153922 0.068904211226153922 0.068904211226153922 0.093426133280691229 0.082138972471792568 0.082138972471792568 0.068904211226153922 0.068904211226153922 0.13493912503878375 0.068904211226153922 0.13493912503878369 0.068904211226153894 0.06890421122615388 0.068904211226153922
leaf_weight=164133.53378820419 10007.296905398369 9.8330068588256818 130.77899122238159 2776.1036614179611 7.1289299726486206 588.99711084365845 85.301334500312805 749.46722380816936 61728.473484843969 1629.8208868503571 524.72613662481308 20.403489232063293 203.05159163475037 105117.81208966672 40091.964624240994 17.453587174415588 130.77899122238159 3419.9197854995728 275584.97371935844 457.23481893539429 2041.3322238922119 571.90457552671432 1491.2210404872894 611.95324067771435 247.79177284240723 7763.0196876525879 2136.2207400798798 23.845041632652283 11.307957887649534 61.204898357391357 61.723583936691284 24.582517147064209 99.271151348948479 157.17850014567375 15.48698580265045 59.13015604019165 261.55798244476318 268.93273758888245 957.73486804962158 1019.2966827303171 66.372796297073364 255.25396920740604 1469.2970498800278 29.429745823144913 1729.6259064674377 35.152999520301819 7849.3618401885033 3113.6216218471527 42.509632855653763 122.71739621460438 337.99247640371323 72.797226458787918 90.416937321424484 15.978636145591734 503.40999215841293 85.547159671783447 1589.997209072113 60.227167010307312 1370.229505777359 8.8497061729431135 5.8998041152954093 51.869111180305481 99.313369274139404 43.51105535030365 13.766209602355955 457.23481893539429 274.49654817581177 445.18938553333282 7.6205803155899039 5.9751927852630606 401.92415535449982 510.33305597305298 196.41431200504303 17.69941234588623 91.446963787078857 27.411237508058548 130.77899122238159 4.9165034294128409 10.719501972198488 6.9158077239990217 13.766209602355959 72.811371147632599 16.224461317062378 158.31141042709351 16.224461317062378 46.433598965406418 9.969046935439108 4.636766016483306 7.866405487060546 7.6205803155899039 8.4718644618988019 21.632615089416504 3.4579038619995117 13.028734087944033 7.3747551441192654 9.5871816873550397
leaf_count=667684 40709 40 532 11293 29 2396 347 3235 450194 6630 2682 83 826 813950 297623 71 532 13912 2110127 1860 8304 2388 8625 2569 1008 58528 8690 97 46 354 357 100 459 724 63 342 1064 1094 3896 4394 270 1101 5977 135 7036 143 58898 12666 195 509 1418 314 390 65 2022 348 6468 245 5574 36 24 211 404 177 56 1860 1184 1811 31 24 1635 2076 799 72 372 115 532 20 62 40 56 334 66 644 66 213 43 20 32 31 49 88 20 53 30 39
internal_value=0 0.0614792 -0.0240486 -0.0259213 -0.015139 -0.026521 -0.0120232 -0.0180227 -0.0222766 -0.0290238 -0.0263556 -0.0291146 -0.0292724 -0.0293664 -0.0216569 -0.0321657 -0.0330406 0.0696005 -0.0302113 0.0777199 0.0842474 0.0988521 0.108017 0.117978 0.080969 -0.0340473 0.0723815 0.073142 0.083211 0.121573 0.122069 0.10264 0.0730072 0.0792832 0.0754848 0.124338 0.0786036 0.0719485 0.0746059 0.0792844 0.082533 0.0805122 0.0702765 0.0874248 0.0700913 0.0694971 -0.0341802 0.0684247 0.0905229 0.0811053 0.0743281 0.0781935 0.0782313 0.0802344 0.0648089 0.0689042 0.0689042 0.0689042 0.0689042 0.0689042 0.0689042 0.0689042 0.0689042 0.0689042 0.0689042 0.0689042 0.082139 0.0689042 0.0689042 0.0641231 0.0689042 0.0689042 0.0689042 0.0689042 0.0689042 0.0765102 0.0689042 0.0689042 0.134939 0.134939 0.0689042 0.0934261 0.0689042 0.0689042 0.0689042 0.0934261 0.082139 0.082139 0.0689042 0.0689042 0.134939 0.0689042 0.134939 0.0689042 0.0689042 0.0689042
internal_weight=0 197201 510168 500093 18899.5 497079 73177 68098.4 65038.2 423902 62253.2 16316.5 422829 422425 41721.8 15876.5 15786.9 178302 380703 14082.8 8091.55 3699.04 2832.26 2103.17 440.038 15632.5 3060.27 2583.04 600.615 100.8 89.5509 170.884 3013.39 729.083 429.731 70.4381 988.172 4392.51 2345.28 1288.23 703.261 603.99 2025.22 100.446 1982.42 1847.55 15612.4 5078.54 130.808 872.185 512.407 117.919 134.877 111.032 594.687 164219 5991.25 10075.1 4483.85 2784.95 2047.23 2188.09 1057.05 1512.81 2571.33 2557.57 529.751 1073.52 866.78 509.385 859.159 967.568 404.382 628.329 339.239 365.404 298.923 207.968 80.3963 72.0973 284.911 115.321 154.378 168.144 147.003 75.8633 82.7663 95.0537 74.2392 67.8477 19.1914 39.332 10.3737 20.1577 23.5992 23.3534
internal_count=4644956 859656 3785300 3744315 131304 3731825 497483 476850 464205 3234342 452876 120552 3229975 3228330 304253 118624 118136 728352 2924077 60320 35948 17832 14306 11194 1928 117508 12645 10752 2644 548 488 836 12490 3112 1808 388 4205 18116 9788 5488 3046 2587 8285 448 8108 7536 117426 20633 592 3744 2131 500 572 475 2393 668032 24372 40985 18240 11329 8328 8901 4300 6154 10460 10404 2285 4367 3526 2046 3495 3936 1645 2556 1380 1533 1216 846 465 417 1159 529 628 684 598 348 357 410 302 276 111 160 60 82 96 95
cat_boundaries=0 1 2 3 4 5 6 7
cat_threshold=1 1 1 1 1 1 1
is_linear=0
shrinkage=0.03


Tree=12
num_leaves=92
num_cat=8
split_feature=21 13 23 22 17 21 21 14 14 13 18 13 19 22 14 21 14 21 21 14 14 23 22 22 23 13 14 14 14 23 23 13 22 22 21 13 23 22 14 23 21 24 13 13 23 13 22 22 23 18 13 23 23 14 13 0 23 2 13 2 2 0 2 2 0 0 0 2 2 2 2 2 23 24 2 2 2 2 0 2 2 2 2 2 2 2 0 2 2 3 2
split_gain=1.0888e+06 125478 93462.6 31168.4 24443 19530.7 36951.8 27400.7 25428.6 10890.2 10401.9 5747.83 4116.97 3023.81 14612.1 2184.26 1715.89 1111.77 894.852 709.075 1240.47 849.867 657.416 1169.52 226.634 181.087 82.2867 69.7907 76.5265 56.5934 48.8443 45.3071 40.8136 38.1717 37.1927 33.123 32.9254 31.7093 55.4302 32.2163 14.9243 10.7035 10.0729 10.0198 9.62509 8.53711 8.49096 7.97452 7.05709 6.36894 5.39227 3.80529 2.22273 2.10552 1.51884 1.16415e-10 5.82077e-11 7.27596e-12 7.27596e-12 3.63798e-12 3.63798e-12 1.81899e-12 1.81899e-12 1.81899e-12 9.09495e-13 9.09495e-13 9.09495e-13 9.09495e-13 9.09495e-13 4.54747e-13 4.54747e-13 4.54747e-13 4.54747e-13 4.54747e-13 2.27374e-13 2.27374e-13 2.27374e-13 2.27374e-13 1.13687e-13 1.13687e-13 1.13687e-13 1.13687e-13 1.13687e-13 1.13687e-13 5.68434e-14 5.68434e-14 1.42109e-14 1.42109e-14 1.42109e-14 1.42109e-14 7.10543e-15
threshold=80.061519630068574 0.99999999765530523 1.0000000180025095e-35 110.51440460504604 1.0000000180025095e-35 120.09120658849731 107.68895300303744 0.98457233236629393 0.9031466871300825 0.7813460689378533 1.0000000180025095e-35 0.99999999794237826 1.0000000180025095e-35 251.16946226814702 0.91757534458195023 78.238406950984313 0.99999999911776294 140.71461285955985 63.201313270063274 0.903202483924607 0.98805703219149688 1.0000000180025095e-35 112.72782806856601 804.68391576266856 1.0000000180025095e-35 0.99999999801584194 0.99999999828178199 0.99870046218600272 0.95428356415257676 1.0000000180025095e-35 1.0000000180025095e-35 0.99999999827734587 94.594676157176167 101.79703735706234 70.855396903294931 0.99999999824715047 1.0000000180025095e-35 95.991420099305316 0.99999999828178199 1.0000000180025095e-35 83.233166512811025 1.0000000180025095e-35 0.9999999937885804 0.99999999395764894 1.0000000180025095e-35 0.99999999775276371 260.32614265650778 160.77498964929481 1.0000000180025095e-35 1.0000000180025095e-35 0.89977445256057276 1.0000000180025095e-35 1.0000000180025095e-35 0.99999999869536371 0.98693770773608869 0 11.500000000000002 63.500000000000007 0.99999999779977744 70.500000000000014 55.500000000000007 1 68.500000000000014 75.500000000000014 2 3 4 54.500000000000007 74.500000000000014 49.500000000000007 61.500000000000007 64.500000000000014 8.5000000000000018 9.5000000000000018 62.500000000000007 39.500000000000007 60.500000000000007 50.500000000000007 5 46.500000000000007 58.500000000000007 21.500000000000004 26.500000000000004 62.500000000000007 51.500000000000007 76.500000000000014 6 26.500000000000004 67.500000000000014 7 73.500000000000014
decision_type=2 2 2 2 2 2 2 2 2 2 2 2 2 2 2 2 2 2 2 2 2 2 2 2 2 2 2 2 2 2 2 2 2 2 2 2 2 2 2 2 2 2 2 2 2 2 2 2 2 2 2 2 2 2 2 1 2 2 2 2 2 1 2 2 1 1 1 2 2 2 2 2 2 2 2 2 2 2 1 2 2 2 2 2 2 2 1 2 2 9 2
left_child=1 18 58 32 27 6 7 8 59 67 -10 15 13 14 -11 16 24 -15 55 57 21 68 33 -24 86 29 49 28 34 -13 -17 36 42 -23 74 40 -30 62 39 -39 81 -26 50 84 -33 52 63 54 89 -9 79 -48 87 83 -8 -1 -57 -20 -2 -5 -49 -28 -22 -47 -40 70 -45 -7 -21 -14 -44 -67 -32 -27 75 -3 -37 -38 85 -4 -18 -34 -50 -54 -42 -59 -6 -29 -73 -36 -64
right_child=2 4 3 5 11 9 47 26 10 12 -12 25 69 17 -16 30 80 -19 19 20 37 22 23 -25 41 73 61 45 31 -31 72 44 35 -35 48 76 77 38 64 -41 43 -43 65 66 -46 46 51 60 82 -51 -52 -53 53 -55 -56 56 -58 78 -60 -61 -62 -63 90 -65 -66 71 -68 -69 -70 -71 -72 88 -74 -75 -76 -77 -78 -79 -80 -81 -82 -83 -84 -85 -86 -87 -88 -89 -90 -91 -92
leaf_value=0.066313813644021266 0.066313813644021266 0.066313813644021266 0.066313813644021266 0.066313813644021266 0.066313813644021252 0.066313813644021266 0.066313813644021266 0.078146700924578025 -0.027217272595724137 0.066313813644021266 0.10365377124553525 0.066313813644021266 0.066313813644021266 -0.025640010153260357 -0.025012406675356987 0.066313813644021266 0.066313813644021266 -0.030561737861708217 0.066313813644021266 0.066313813644021266 0.066313813644021266 0.071932709204973244 0.1216925628225521 0.073205451472936542 -0.034756313603744683 0.066313813644021266 0.066313813644021266 0.066313813644021238 0.066313813644021266 0.1216925628225521 0.1216925628225521 0.066313813644021266 0.088963085351548607 0.088391658499229017 0.06631381364402128 0.066313813644021266 0.1216925628225521 0.066313813644021266 0.066313813644021266 0.077926439832264549 0.066313813644021266 -0.033166674431191888 0.066313813644021266 0.078027497763929518 0.087768854999065102 0.066313813644021266 0.066313813644021266 0.066313813644021266 0.087768854999065102 0.070824516651214822 0.073084411385890224 0.078027497763929518 0.078027497763929518 0.066313813644021266 0.062003725008122158 0.066313813644021266 0.066313813644021266 0.066313813644021266 0.066313813644021266 0.066313813644021266 0.066313813644021266 0.066313813644021266 0.06631381364402128 0.066313813644021266 0.066313813644021266 0.066313813644021266 0.078027497763929518 0.066313813644021266 0.066313813644021266 0.066313813644021266 0.066313813644021266 0.066313813644021224 0.1216925628225521 0.066313813644021266 0.066313813644021266 0.066313813644021266 0.066313813644021266 0.1216925628225521 0.066313813644021266 0.066313813644021266 0.066313813644021266 0.088963085351548607 0.087768854999065102 0.078027497763929518 0.066313813644021266 0.066313813644021266 0.066313813644021252 0.066313813644021266 0.066313813644021266 0.066313813644021266 0.066313813644021252
leaf_weight=91668.410056591034 7574.9537178277969 218.00566673278809 129.81246519088745 2796.6658769845963 7.1842776536941528 1026.1130359172821 85.963598132133484 765.13976499438286 60593.417144298553 1642.4745118618011 551.5752854347229 20.561898112297058 346.33172965049744 47311.195904672146 39406.436227664351 17.589093565940857 148.64022731781006 325472.67402815819 5904.9807639122009 868.05892753601074 2052.2260718345642 579.78375548124313 1602.0881608128548 621.3510934561491 7578.0911152213812 333.69731032848358 1283.7560966014862 10.404815912246706 11.395750761032103 86.373448669910431 69.098758935928345 24.77337121963501 10.281100690364836 162.32294365763664 6.936543941497801 280.43456220626831 52.195567905902863 271.02068114280701 587.62436532974243 1040.3553582429886 64.906232595443726 7671.1313698887825 764.25850212574005 260.55726639926434 78.291280925273895 1736.1178550720215 35.425920844078064 4150.2828804254532 21.372619792819023 124.27759750187397 370.96596425771713 84.485871121287346 92.295489460229874 16.102691292762756 510.96582368016243 64303.001006245613 9522.6361631155014 54.501416683197021 2578.4124765396118 9.9093484878540021 368.3800300359726 921.32167565822601 5.9456090927124006 6.9365439414978018 477.63059711456299 720.40963506698608 280.19963979721069 55.740085244178772 5.4501416683197013 61.190226912498474 23.039235234260559 6.9365439414978054 8.3587208390235883 8.1752125024795514 4.9546742439270011 78.283853054046631 6.6888102293014517 11.33071047067642 73.329178810119629 18.332294702529907 6.9365439414978018 92.306404024362564 97.6391262114048 4.7331020236015311 9.9093484878540021 4.9546742439270011 13.129886746406557 13.625354170799254 9.9093484878540021 8.6706799268722516 4.954674243927002
leaf_count=370028 30577 880 524 11289 29 4142 347 3235 450194 6630 2682 83 1398 360423 297623 71 600 2563654 23836 3504 8284 2388 8625 2569 58528 1347 5182 42 46 465 372 100 46 724 28 1132 281 1094 2372 4394 262 58898 3085 1101 348 7008 143 16753 95 509 1533 357 390 65 2046 259565 38439 220 10408 40 1487 3719 24 28 1928 2908 1184 225 22 247 93 28 45 33 20 316 27 61 296 74 28 413 434 20 40 20 53 55 40 35 20
internal_value=0 0.0592664 -0.0237782 -0.025643 -0.0149487 -0.026241 -0.0118352 -0.0177651 -0.0219838 -0.028744 -0.0260367 -0.0288692 -0.0289923 -0.0290861 -0.0213582 -0.0319298 -0.0328133 -0.0299371 0.0669363 0.0741318 0.0798334 0.0923216 0.0999822 0.108143 -0.0338232 0.0769715 0.0694207 0.0700925 0.0789409 0.111044 0.111444 0.0955168 0.0699772 0.0755328 0.0721721 0.0749261 0.113269 0.069035 0.0713972 0.0755265 0.0783693 -0.0339566 0.0675428 0.0766038 0.0826118 0.0673768 0.066845 0.0658833 0.0852814 0.0771236 0.0711522 0.0745669 0.0746001 0.0763602 0.0626244 0.0663138 0.0663138 0.0663138 0.0663138 0.0663138 0.0663138 0.0663138 0.0663138 0.0663138 0.0663138 0.0663138 0.0780275 0.0663138 0.0663138 0.0663138 0.0663138 0.0663138 0.121693 0.0663138 0.0663138 0.0663138 0.0663138 0.121693 0.0663138 0.0663138 0.0663138 0.0889631 0.0877689 0.0780275 0.0663138 0.0663138 0.0663138 0.0663138 0.0663138 0.0663138 0.0663138
internal_weight=0 198394 500686 490533 18582.9 487484 72161.7 67046.1 63951.6 415322 61145 15969 414240 413833 41048.9 15520.2 15425.1 372784 179811 14316.6 8278.81 3839.06 2965.55 2223.44 15269.5 448.808 3094.5 2613.98 613.85 106.935 95.0466 177.987 3048.95 742.107 435.863 1005.28 74.922 4439.76 2376.63 1311.38 718.16 15249.2 2043.66 615.572 103.065 2000.13 1862.97 5115.59 134.619 889.417 519.111 119.912 137.161 113.131 596.929 165494 73825.6 6037.77 10153.4 2806.58 4518.66 2205.08 2063.13 1743.05 1065.25 1524.55 540.757 1081.85 873.509 407.522 787.298 737.256 77.4575 341.873 301.244 296.29 287.123 63.5263 132.785 148.145 155.577 102.588 119.012 97.0286 74.8156 59.4561 20.3142 24.0302 16.8459 15.6072 10.9003
internal_count=4644956 859656 3785300 3744315 131304 3731825 497483 476850 464205 3234342 452876 120552 3229975 3228330 304253 118624 118136 2924077 728352 60320 35948 17832 14306 11194 117508 1928 12645 10752 2644 548 488 836 12490 3112 1808 4205 388 18116 9788 5488 3046 117426 8285 2587 448 8108 7536 20633 592 3744 2131 500 572 475 2393 668032 298004 24372 40985 11329 18240 8901 8328 7036 4300 6154 2285 4367 3526 1645 3178 2976 417 1380 1216 1196 1159 342 536 598 628 459 529 410 302 240 82 97 68 63 44
cat_boundaries=0 1 2 3 4 5 6 7 8
cat_threshold=1 1 1 1 1 1 1 1
is_linear=0
shrinkage=0.03


Tree=13
num_leaves=103
num_cat=10
split_feature=21 13 23 22 17 21 21 14 14 13 18 13 19 22 14 21 14 24 21 14 14 23 22 22 23 13 14 14 14 23 23 13 22 22 21 13 22 14 23 23 21 24 13 13 23 13 22 22 23 18 13 23 23 14 13 2 2 0 0 2 2 13 2 2 2 2 2 1 2 23 0 1 2 2 2 2 2 2 2 23 23 24 24 2 2 2 2 2 2 13 13 0 2 2 2 2 0 0 0 0 2 23
split_gain=1.02746e+06 115933 88663.5 29521.8 23110 19022.3 34858.8 25853.3 24093.9 10356 9618.91 5439.89 3915.38 2990.06 13835 2020.9 1637.74 1119.76 722.278 565.115 967.695 652.233 491.148 858.527 216.385 139.479 66.3 55.8706 59.408 41.7509 36.0204 33.5749 32.8812 29.9845 29.6206 26.5046 25.7004 44.6444 25.7842 24.2388 11.6418 10.8583 8.18171 8.00993 7.57024 6.90522 6.87524 6.54883 5.53622 5.06346 4.35643 3.04798 1.78318 1.68357 1.25201 1.16415e-10 2.91038e-11 7.27596e-12 3.63798e-12 3.63798e-12 3.63798e-12 3.63798e-12 1.81899e-12 1.81899e-12 1.81899e-12 1.81899e-12 1.81899e-12 9.09495e-13 9.09495e-13 9.09495e-13 4.54747e-13 4.54747e-13 4.54747e-13 4.54747e-13 4.54747e-13 2.27374e-13 2.27374e-13 2.27374e-13 2.27374e-13 2.27374e-13 2.27374e-13 2.27374e-13 2.27374e-13 1.13687e-13 1.13687e-13 1.13687e-13 1.13687e-13 1.13687e-13 1.13687e-13 1.13687e-13 1.13687e-13 5.68434e-14 5.68434e-14 2.84217e-14 2.84217e-14 2.84217e-14 1.42109e-14 1.42109e-14 1.42109e-14 1.42109e-14 1.42109e-14 1.42109e-14
threshold=80.061519630068574 0.99999999765530523 1.0000000180025095e-35 110.51440460504604 1.0000000180025095e-35 120.09120658849731 107.68895300303744 0.98457233236629393 0.9031466871300825 0.7813460689378533 1.0000000180025095e-35 0.99999999794237826 1.0000000180025095e-35 251.16946226814702 0.91757534458195023 78.238406950984313 0.99999999911776294 1.0000000180025095e-35 63.201313270063274 0.903202483924607 0.98805703219149688 1.0000000180025095e-35 112.72782806856601 804.68391576266856 1.0000000180025095e-35 0.99999999801584194 0.99999999828178199 0.99870046218600272 0.95428356415257676 1.0000000180025095e-35 1.0000000180025095e-35 0.99999999827734587 94.594676157176167 101.79703735706234 70.855396903294931 0.99999999824715047 95.991420099305316 0.99999999828178199 1.0000000180025095e-35 1.0000000180025095e-35 83.233166512811025 1.0000000180025095e-35 0.9999999937885804 0.99999999395764894 1.0000000180025095e-35 0.99999999775276371 260.32614265650778 160.77498964929481 1.0000000180025095e-35 1.0000000180025095e-35 0.89977445256057276 1.0000000180025095e-35 1.0000000180025095e-35 0.99999999869536371 0.98693770773608869 49.500000000000007 79.500000000000014 0 1 69.500000000000014 78.500000000000014 0.71874998502604226 66.500000000000014 58.500000000000007 68.500000000000014 33.500000000000007 50.500000000000007 2 58.500000000000007 34.500000000000007 3 4 68.500000000000014 71.500000000000014 75.500000000000014 49.500000000000007 52.500000000000007 18.500000000000004 50.500000000000007 22.500000000000004 16.500000000000004 4.5000000000000009 6.5000000000000009 49.500000000000007 49.500000000000007 20.500000000000004 41.500000000000007 61.500000000000007 33.500000000000007 0.69374309769126741 0.97723570026942974 5 56.500000000000007 44.500000000000007 59.500000000000007 61.500000000000007 6 7 8 9 46.500000000000007 4.5000000000000009
decision_type=2 2 2 2 2 2 2 2 2 2 2 2 2 2 2 2 2 2 2 2 2 2 2 2 2 2 2 2 2 2 2 2 2 2 2 2 2 2 2 2 2 2 2 2 2 2 2 2 2 2 2 2 2 2 2 2 2 1 1 2 2 2 2 2 2 2 2 1 2 2 1 1 2 2 2 2 2 2 2 2 2 2 2 2 2 2 2 2 2 2 2 1 2 2 2 2 1 1 1 1 2 2
left_child=1 18 57 32 27 6 7 8 62 68 -10 15 13 14 -11 16 24 -15 55 60 21 72 33 -24 -6 29 49 28 34 100 96 39 42 -23 75 40 63 38 -38 -30 85 -26 50 91 98 52 67 54 -36 -9 83 93 97 88 92 -1 -57 59 66 -2 61 89 -5 -22 -28 -44 -49 69 -7 -47 -56 -45 -21 -67 -69 -3 81 -31 80 -37 -52 -14 -27 -4 -18 -34 -41 -50 -54 -20 -58 -42 -8 -48 -77 -80 -17 -29 -33 -55 -13 -86
right_child=2 4 3 5 11 9 47 26 10 12 -12 25 76 17 -16 30 84 -19 19 20 36 22 23 -25 41 82 64 45 31 77 -32 44 35 -35 48 79 37 -39 -40 86 43 -43 65 71 -46 46 51 58 87 -51 78 -53 53 99 70 56 90 -59 -60 -61 -62 -63 -64 -65 -66 73 -68 74 -70 -71 -72 -73 -74 -75 -76 94 -78 -79 95 -81 -82 -83 -84 -85 101 -87 -88 -89 -90 -91 -92 -93 -94 -95 -96 -97 -98 -99 -100 -101 -102 -103
leaf_value=0.063983818743890683 0.063983818743890683 0.063983818743890683 0.063983818743890683 0.063983818743890683 0.063983818743890683 0.063983818743890683 0.063983818743890683 0.074527456954686239 -0.026902578828838491 0.063983818743890683 0.096401635560162804 0.063983818743890669 0.063983818743890683 -0.032360970500884885 -0.024689256178764992 0.063983818743890683 0.063983818743890683 -0.028641988239607993 0.063983818743890683 0.063983818743890683 0.063983818743890683 0.069032098178522974 0.11118647687990134 0.070155571297869937 -0.03455505284291753 0.063983818743890683 0.063983818743890683 0.063983818743890683 0.063983818743890683 0.11118647687990134 0.11118647687990134 0.063983818743890683 0.083944103253765862 0.083452209090428858 0.063983818743890683 0.063983818743890683 0.063983818743890683 0.063983818743890683 0.074333639137295279 0.11118647687990134 0.063983818743890683 -0.032934879489406169 0.063983818743890683 0.074422504542600104 0.082914688713392054 0.063983818743890683 0.063983818743890683 0.063983818743890683 0.082914688713392054 0.068033152988474788 0.070047925369067815 0.074422504542600104 0.074422504542600104 0.063983818743890683 0.06007964028773119 0.063983818743890683 0.063983818743890683 0.063983818743890683 0.063983818743890683 0.063983818743890683 0.063983818743890683 0.063983818743890683 0.063983818743890683 0.063983818743890683 0.063983818743890683 0.063983818743890683 0.063983818743890683 0.063983818743890683 0.063983818743890683 0.063983818743890683 0.06007964028773119 0.074422504542600104 0.063983818743890683 0.063983818743890683 0.063983818743890683 0.063983818743890683 0.063983818743890683 0.11118647687990134 0.070047925369067815 0.063983818743890683 0.070047925369067815 0.063983818743890683 0.063983818743890683 0.063983818743890683 0.063983818743890669 0.083944103253765862 0.11118647687990134 0.082914688713392054 0.074422504542600104 0.063983818743890683 0.063983818743890683 0.063983818743890683 0.063983818743890683 0.063983818743890683 0.063983818743890683 0.070047925369067815 0.063983818743890655 0.063983818743890669 0.063983818743890669 0.063983818743890655 0.063983818743890683 0.063983818743890683
leaf_weight=132911.73765087128 5854.963808298111 262.97655487060547 133.48052406311035 2800.6006970405579 20.420527935028076 1068.3422541618347 80.187926769256592 778.0201131105423 59480.062346234918 1651.0743927955627 574.89693108201027 15.439911365509035 351.88056063652039 100580.53748184443 38734.769198179245 7.7199556827545166 133.48052406311035 264433.15029284358 30.879822731018066 864.88406729698181 1954.3939418792725 585.92137026786804 1699.2610786110163 628.79174929857254 7396.3097897171974 326.97747778892517 2205.6660478115082 15.190880537033081 11.455418109893797 4.137331321835517 82.155579105019569 13.696695566177368 7.8084305226802817 166.7019416987896 15.688942193984984 282.40095949172974 272.43972635269165 1070.8325624465942 1057.6410268545151 49.056928530335426 51.798412322998047 7496.0169569328427 963.99833703041077 268.7626388669014 80.355166912078857 913.94314050674438 27.393391132354736 2165.3230535984039 115.45282602310181 125.47585733234882 318.80249252915382 85.898175537586212 63.040117621421814 7.9689865112304688 267.24953804910183 33331.282206535339 66.740262031555176 4318.1945657730103 1971.8260998725891 33.370131015777588 4.9806165695190421 5907.011251449585 20.669558763504028 119.53479766845703 10.957356452941893 561.56451821327209 405.17315793037415 825.78622722625732 19.175373792648315 6.474801540374755 244.24957780539989 281.03380680084229 13.198633909225462 6.9728631973266593 5.9767398834228507 32.872069358825684 33.868192672729492 87.475005090236664 32.076134040951729 6.2257707118988028 19.588478803634644 23.906959533691406 16.685065507888794 15.439911365509031 15.439911365509035 97.605381533503532 18.322467282414436 6.6962639093399039 35.610448122024536 126.50766086578369 50.802289009094238 23.408897876739502 6.2257707118988028 8.2180173397064191 6.9728631973266593 4.89711970090866 9.9612331390380877 8.9651098251342773 11.206387281417847 8.2180173397064227 5.2296473979949942 7.4709248542785636
leaf_count=533716 23511 1056 536 11246 82 4290 322 3235 450194 6630 2682 62 1413 813950 297623 31 536 2110127 124 3473 7848 2388 8625 2569 58528 1313 8857 61 46 21 417 55 34 724 63 1134 1094 4300 4394 249 208 58898 3871 1117 348 3670 110 8695 500 509 1302 357 262 32 1069 133844 268 17340 7918 134 20 23720 83 480 44 2255 1627 3316 77 26 977 1168 53 28 24 132 136 444 131 25 80 96 67 62 62 425 93 29 148 508 204 94 25 33 28 20 40 36 45 33 21 30
internal_value=0 0.0572697 -0.0235138 -0.02537 -0.0147675 -0.0259661 -0.0116535 -0.0175143 -0.0216971 -0.0284683 -0.0257222 -0.0286327 -0.0287161 -0.0288098 -0.0210641 -0.0317016 -0.0325929 -0.0296668 0.0645436 0.0709645 0.0759882 0.0867924 0.0932935 0.100104 -0.0336057 0.0734682 0.0667758 0.0673737 0.0752108 0.102497 0.102827 0.0895235 0.0672738 0.0722261 0.0692314 0.0716805 0.06643 0.0685431 0.0722137 0.104327 0.0747218 -0.0337395 0.0650905 0.0731664 0.0784358 0.064941 0.0644624 0.0635953 0.0807599 0.0736255 0.0683254 0.0713632 0.0713927 0.0729511 0.0606439 0.0639838 0.0639838 0.0639838 0.0639838 0.0639838 0.0639838 0.0639838 0.0639838 0.0639838 0.0639838 0.0639838 0.0639838 0.0639838 0.0639838 0.0639838 0.0600796 0.0744225 0.0639838 0.0639838 0.0639838 0.0639838 0.0639838 0.111186 0.0700479 0.0639838 0.0700479 0.0639838 0.0639838 0.0639838 0.0639838 0.0839441 0.111186 0.0829147 0.0744225 0.0639838 0.0639838 0.0639838 0.0639838 0.0639838 0.0639838 0.0700479 0.0639838 0.0639838 0.0639838 0.0639838 0.0639838 0.0639838
internal_weight=0 199126 491316 481109 18262.4 478033 71136.6 65996.3 62876.2 406897 60055 15624.9 405809 405400 40385.8 15169 15069.1 365014 180864 14503 8433.6 3958.76 3080.68 2328.05 14912.7 455.944 3120.12 2637.44 624.753 112.282 99.8368 184.093 3075.86 752.623 440.66 1019.04 4474.84 2400.91 1330.08 78.8348 730.418 14892.3 2056.82 625.004 105.258 2012.68 1873.69 5140.24 137.838 903.496 524.285 121.51 138.994 114.838 597.913 166361 33448.8 10206.5 4542.32 5888.33 6069.38 6064.4 2821.27 2073.93 2216.62 1532.54 2570.5 1752.18 1087.52 920.418 511.499 549.796 878.083 568.537 831.763 302.821 409.656 91.6123 375.364 288.627 338.391 375.788 343.663 148.92 156.391 105.414 67.3794 122.149 98.6506 157.387 117.543 75.2073 86.4137 35.6114 39.8449 36.9733 17.6812 24.156 24.9031 16.187 20.6696 22.9108
internal_count=4644956 859656 3785300 3744315 131304 3731825 497483 476850 464205 3234342 452876 120552 3229975 3228330 304253 118624 118136 2924077 728352 60320 35948 17832 14306 11194 117508 1928 12645 10752 2644 548 488 836 12490 3112 1808 4205 18116 9788 5488 388 3046 117426 8285 2587 448 8108 7536 20633 592 3744 2131 500 572 475 2393 668032 134316 40985 18240 23645 24372 24352 11329 8328 8901 6154 10322 7036 4367 3696 2046 2285 3526 2283 3340 1216 1645 465 1533 1159 1382 1509 1380 598 628 459 342 529 410 632 472 302 347 143 160 151 71 97 100 65 83 92
cat_boundaries=0 1 2 3 4 5 6 7 8 9 10
cat_threshold=1 1 1 1 1 1 2 1 1 2
is_linear=0
shrinkage=0.03


Tree=14
num_leaves=99
num_cat=15
split_feature=21 13 23 22 17 21 21 14 14 13 18 13 19 22 22 21 14 21 21 14 14 23 22 22 23 13 14 14 14 23 23 22 23 13 21 22 13 22 14 23 24 21 13 13 13 22 22 23 18 13 23 23 14 13 0 14 13 2 2 13 0 2 2 0 0 1 2 0 1 2 2 2 2 13 23 23 0 2 2 2 2 2 2 23 0 0 0 2 2 14 0 2 2 3 24 0 0 2
split_gain=971210 107487 84223.2 28006.3 21891 18515.7 32938.5 24435.4 22859.2 9859.74 8941.98 5159.99 3728.1 2955.89 13388.3 1881.87 1565.07 1147.5 588.217 455.085 764.91 508.414 374.066 644.624 206.848 109.106 53.8924 45.1656 46.7559 31.4922 27.1612 26.7254 25.4782 24.1947 23.8334 23.8295 21.4132 21.0009 36.2769 20.8346 11.0241 9.19707 6.69844 6.46559 5.63235 5.61328 5.41471 4.39601 4.06717 3.54956 2.46461 1.44389 1.35926 1.03872 1.16415e-10 5.82077e-11 1.45519e-11 3.63798e-12 3.63798e-12 3.63798e-12 1.81899e-12 1.81899e-12 1.81899e-12 9.09495e-13 9.09495e-13 9.09495e-13 9.09495e-13 4.54747e-13 4.54747e-13 4.54747e-13 4.54747e-13 4.54747e-13 4.54747e-13 4.54747e-13 4.54747e-13 4.54747e-13 2.27374e-13 2.27374e-13 2.27374e-13 2.27374e-13 2.27374e-13 2.27374e-13 2.27374e-13 2.27374e-13 1.13687e-13 1.13687e-13 1.13687e-13 1.13687e-13 1.13687e-13 1.13687e-13 5.68434e-14 5.68434e-14 5.68434e-14 2.84217e-14 2.84217e-14 1.42109e-14 1.42109e-14 1.42109e-14
threshold=80.061519630068574 0.99999999765530523 1.0000000180025095e-35 110.51440460504604 1.0000000180025095e-35 120.09120658849731 107.68895300303744 0.98457233236629393 0.9031466871300825 0.7813460689378533 1.0000000180025095e-35 0.99999999794237826 1.0000000180025095e-35 251.16946226814702 212.87920415677254 78.238406950984313 0.99999999911776294 140.71461285955985 63.201313270063274 0.903202483924607 0.98805703219149688 1.0000000180025095e-35 112.72782806856601 804.68391576266856 1.0000000180025095e-35 0.99999999801584194 0.99999999828178199 0.99870046218600272 0.95428356415257676 1.0000000180025095e-35 1.0000000180025095e-35 94.594676157176167 1.0000000180025095e-35 0.99999999827734587 70.855396903294931 101.79703735706234 0.99999999824715047 95.991420099305316 0.99999999828178199 1.0000000180025095e-35 1.0000000180025095e-35 83.233166512811025 0.9999999937885804 0.99999999395764894 0.99999999775276371 260.32614265650778 160.77498964929481 1.0000000180025095e-35 1.0000000180025095e-35 0.89977445256057276 1.0000000180025095e-35 1.0000000180025095e-35 0.99999999869536371 0.98693770773608869 0 0.99999999918692684 0.99999999901767322 76.500000000000014 62.500000000000007 0.99999999798589945 1 73.500000000000014 65.500000000000014 2 3 4 74.500000000000014 5 6 51.500000000000007 67.500000000000014 54.500000000000007 66.500000000000014 0.96604425061838706 27.500000000000004 32.500000000000007 7 20.500000000000004 52.500000000000007 30.500000000000004 60.500000000000007 67.500000000000014 61.500000000000007 32.500000000000007 8 9 10 60.500000000000007 55.500000000000007 0.78044659430533114 11 21.500000000000004 52.500000000000007 12 2.5000000000000004 13 14 41.500000000000007
decision_type=2 2 2 2 2 2 2 2 2 2 2 2 2 2 2 2 2 2 2 2 2 2 2 2 2 2 2 2 2 2 2 2 2 2 2 2 2 2 2 2 2 2 2 2 2 2 2 2 2 2 2 2 2 2 1 2 2 2 2 2 1 2 2 1 1 1 2 1 1 2 2 2 2 2 2 2 1 2 2 2 2 2 2 2 1 1 1 2 2 2 1 2 2 9 2 1 1 2
left_child=1 18 56 31 27 6 7 8 -5 65 -10 15 13 14 -11 16 24 -15 54 57 21 73 35 -24 95 29 48 28 34 -13 -17 42 93 79 -3 -23 41 61 39 -39 -26 88 49 90 51 64 53 -36 -9 84 -47 97 -53 -8 55 -1 -2 58 -20 -48 -28 62 -22 70 71 69 -40 -45 75 -7 -44 -46 -58 -21 -57 -65 -27 -31 -32 -34 -51 -55 -67 -61 91 -35 -49 -18 -33 -60 -43 -4 -52 -30 -71 -6 -54 -29
right_child=2 4 3 5 11 9 46 26 10 12 -12 25 -14 17 -16 30 87 -19 19 20 37 22 23 -25 40 76 60 44 32 77 78 36 33 85 47 -37 -38 38 66 -41 -42 43 63 67 45 50 59 86 -50 80 92 52 96 81 -56 74 72 -59 89 83 -62 -63 -64 68 -66 82 -68 -69 -70 94 -72 -73 -74 -75 -76 -77 -78 -79 -80 -81 -82 -83 -84 -85 -86 -87 -88 -89 -90 -91 -92 -93 -94 -95 -96 -97 -98 -99
leaf_value=0.061877508162920737 0.061877508162920737 0.061877508162920737 0.061877508162920737 0.061877508162920737 0.06187750816292073 0.061877508162920737 0.061877508162920737 0.071329578686012043 -0.026590917644154173 -0.023973568225914732 0.090299272864586277 0.061877508162920737 0.061877508162920737 -0.024950810978340537 0.074013266521039206 0.061877508162920737 0.061877508162920737 -0.030049162995439211 0.061877508162920737 0.061877508162920737 0.061877508162920737 0.066437285564161341 0.10264337373612943 0.06743498643870767 -0.034360612796850411 0.061877508162920737 0.061877508162920737 0.06187750816292073 0.061877508162920737 0.10264337373612943 0.10264337373612943 0.079600669163922624 0.10264337373612943 0.078704245232778816 0.061877508162920737 0.079172872496357349 0.061877508162920737 0.061877508162920737 0.061877508162920737 0.071157778501695704 -0.032708550884528197 0.061877508162920737 0.061877508162920737 0.071236495473995298 0.061877508162920737 0.061877508162920737 0.061877508162920737 0.078704245232778816 0.065531693207993666 0.067338648222896008 0.071236495473995298 0.071236495473995298 0.06187750816292073 0.058325683628091714 0.061877508162920737 0.061877508162920737 0.061877508162920737 0.061877508162920737 0.061877508162920737 0.061877508162920737 0.061877508162920737 0.061877508162920737 0.061877508162920737 0.061877508162920737 0.061877508162920737 0.061877508162920737 0.061877508162920737 0.071236495473995298 0.061877508162920737 0.061877508162920737 0.061877508162920737 0.061877508162920737 0.061877508162920737 0.061877508162920737 0.061877508162920737 0.061877508162920737 0.061877508162920737 0.10264337373612943 0.10264337373612943 0.10264337373612943 0.067338648222896008 0.058325683628091714 0.061877508162920737 0.061877508162920737 0.061877508162920737 0.078704245232778816 0.078704245232778816 0.061877508162920737 0.079600669163922624 0.061877508162920737 0.061877508162920737 0.061877508162920737 0.071236495473995298 0.061877508162920737 0.061877508162920737 0.06187750816292073 0.061877508162920716 0.061877508162920737
leaf_weight=91897.316464185715 9632.8732906281948 303.72012138366699 16.984348893165588 2829.6424795687199 7.243325263261795 585.4604971408844 86.670133322477341 788.34659494459629 58388.479046806693 38435.589678511024 595.00907438993454 20.730896443128586 410.87138131260872 45532.428651742637 1297.3235090076923 17.733658403158188 151.8600606918335 311863.87220558524 5931.5340811014175 545.74709311127663 2050.1108193397522 590.46693056821823 1784.0807978063822 634.44284106791019 7217.7182517647743 192.82231390476227 1294.3072935938835 19.23227742314339 22.229515463113785 12.61784680187702 81.292029395699501 102.39101558923721 38.887790143489838 41.750821083784103 15.735499709844587 170.38149783015251 289.4832406938076 273.24820131063461 1067.0167422294617 1071.4757427126169 7324.0518886372447 51.952126026153564 784.77682679891586 268.40168376266956 842.22388923168182 35.717086642980576 4146.4290584623814 71.707624912261963 126.34328052401543 368.56992334127426 76.546892553567886 99.949764162302017 7.9926347732543945 503.08509877324104 74432.410405278206 512.52770483493805 594.70198109745979 7.9926347732543936 4.9953967332839957 404.12759572267532 928.89402255415916 4.9953967332839957 24.976983666419983 718.58782008290291 839.22665119171143 446.33869811892509 6.9935554265975943 288.63541650772095 15.735499709844587 35.717086642980576 8.9917141199111921 75.930030345916748 9.2414839565753919 334.94135096669197 11.98895215988159 8.9917141199111921 151.8600606918335 83.5673788189888 4.964398741722106 31.854891926050186 10.12826196849346 7.9934077262878409 5.994476079940795 5.2451665699481955 52.201895862817764 40.335539013147354 53.073077648878098 4.9953967332839957 5.4013609141111365 142.8683465719223 23.478364646434784 80.176117569208145 10.482536241412161 14.236880689859388 17.234118729829788 13.237801343202593 8.2424046099185961 4.9953967332839957
leaf_count=367928 38567 1216 68 11329 29 2344 347 3235 450194 298749 2682 83 1645 360423 5504 71 608 2563654 23748 2185 8208 2388 8625 2569 58528 772 5182 77 89 61 393 436 188 177 63 724 1159 1094 4272 4394 58898 208 3142 1101 3372 143 16601 304 509 1492 314 410 32 2014 298004 2052 2381 32 20 1618 3719 20 100 2877 3360 1787 28 1184 63 143 36 304 37 1341 48 36 608 404 24 154 41 32 24 21 209 171 225 20 23 572 94 321 43 57 69 53 33 20
internal_value=0 0.0554596 -0.0232547 -0.0251017 -0.0145949 -0.0256956 -0.0114776 -0.01727 -0.0214159 -0.0281961 -0.0254118 -0.0284047 -0.0284432 -0.0285367 -0.0207742 -0.0314806 -0.0323791 -0.0293996 0.0623835 0.0681479 0.0726077 0.0820483 0.0876356 0.0934073 -0.0333944 0.0703721 0.0643993 0.064935 0.071924 0.095415 0.0956915 0.0648475 0.0844091 0.0897854 0.0666039 0.0692892 0.0687955 0.0640878 0.0659886 0.069272 -0.0335285 0.0715008 0.062879 0.0701203 0.0627436 0.0623107 0.0615253 0.0768199 0.0705287 0.065794 0.0685132 0.0685395 0.0699287 0.0588407 0.0618775 0.0618775 0.0618775 0.0618775 0.0618775 0.0618775 0.0618775 0.0618775 0.0618775 0.0618775 0.0618775 0.0618775 0.0618775 0.0712365 0.0618775 0.0618775 0.0618775 0.0618775 0.0618775 0.0618775 0.0618775 0.0618775 0.0618775 0.102643 0.102643 0.102643 0.0673386 0.0583257 0.0618775 0.0618775 0.0618775 0.0787042 0.0787042 0.0618775 0.0796007 0.0618775 0.0618775 0.0618775 0.0712365 0.0618775 0.0618775 0.0618775 0.0618775 0.0618775
internal_weight=0 199439 482067 471830 17938.8 468735 70104.6 64951 61813.1 398631 58983.5 15284.7 397540 397129 39732.9 14823.1 14719.1 357396 181501 14646.3 8558.88 4060.06 3179.37 2418.52 14562.3 461.598 3137.89 2654.07 633.532 116.916 103.99 3094.89 189.295 152.829 444.236 760.848 1029.74 4498.82 2418.73 1344.72 14541.8 740.26 2065.14 632.468 2020.54 1880.13 5153.55 140.516 914.69 528.061 122.747 140.412 116.185 597.749 166854 92421.8 10236.8 6087.39 6079.4 4555.8 2223.2 2080.08 2075.09 1537.08 1757.38 1090.74 1074.01 557.037 743.315 638.412 793.769 918.154 603.943 880.688 524.517 727.58 344.682 96.1852 86.2564 70.7427 378.698 511.079 452.333 409.373 149.362 82.0864 124.781 156.855 107.792 147.864 75.4305 97.1605 87.0294 36.4664 52.9512 20.4811 16.235 24.2277
internal_count=4644956 859656 3785300 3744315 131304 3731825 497483 476850 464205 3234342 452876 120552 3229975 3228330 304253 118624 118136 2924077 728352 60320 35948 17832 14306 11194 117508 1928 12645 10752 2644 548 488 12490 836 690 1808 3112 4205 18116 9788 5488 117426 3046 8285 2587 8108 7536 20633 592 3744 2131 500 572 475 2393 668032 370028 40985 24372 24340 18240 8901 8328 8308 6154 7036 4367 4300 2285 2976 2556 3178 3676 2418 3526 2100 2913 1380 465 417 342 1533 2046 1811 1639 598 348 529 628 459 592 302 389 357 146 212 82 65 97
cat_boundaries=0 1 2 3 4 5 6 7 8 9 10 11 12 13 14 15
cat_threshold=1 1 1 1 1 1 2 1 1 1 1 1 4 1 2
is_linear=0
shrinkage=0.03


end of trees

feature_importances:
age=199
p_repurchase_ratio=105
i_repurchase_ratio=103
p_pop=95
i_pop=94
purchase_cnt=93
FN=57
purchase_cnt_cat=28
index_group_no_4=15
index_group_no_3=12
Active=8
index_group_no_2=8
user_gender=5
season_type=5
club_member_status_2=1
club_member_status_4=1

parameters:
[boosting: gbdt]
[objective: binary]
[metric: auc]
[tree_learner: serial]
[device_type: cpu]
[data: ]
[valid: ]
[num_iterations: 200]
[learning_rate: 0.03]
[num_leaves: 128]
[num_threads: 0]
[deterministic: 0]
[force_col_wise: 0]
[force_row_wise: 0]
[histogram_pool_size: -1]
[max_depth: 8]
[min_data_in_leaf: 20]
[min_sum_hessian_in_leaf: 0.001]
[bagging_fraction: 1]
[pos_bagging_fraction: 1]
[neg_bagging_fraction: 1]
[bagging_freq: 0]
[bagging_seed: 3]
[feature_fraction: 1]
[feature_fraction_bynode: 1]
[feature_fraction_seed: 2]
[extra_trees: 0]
[extra_seed: 6]
[early_stopping_round: 30]
[first_metric_only: 0]
[max_delta_step: 0]
[lambda_l1: 0]
[lambda_l2: 0]
[linear_lambda: 0]
[min_gain_to_split: 0]
[drop_rate: 0.1]
[max_drop: 50]
[skip_drop: 0.5]
[xgboost_dart_mode: 0]
[uniform_drop: 0]
[drop_seed: 4]
[top_rate: 0.2]
[other_rate: 0.1]
[min_data_per_group: 100]
[max_cat_threshold: 32]
[cat_l2: 10]
[cat_smooth: 10]
[max_cat_to_onehot: 4]
[top_k: 20]
[monotone_constraints: ]
[monotone_constraints_method: basic]
[monotone_penalty: 0]
[feature_contri: ]
[forcedsplits_filename: ]
[refit_decay_rate: 0.9]
[cegb_tradeoff: 1]
[cegb_penalty_split: 0]
[cegb_penalty_feature_lazy: ]
[cegb_penalty_feature_coupled: ]
[path_smooth: 0]
[interaction_constraints: ]
[verbosity: -1]
[saved_feature_importance_type: 0]
[linear_tree: 0]
[max_bin: 255]
[max_bin_by_feature: ]
[min_data_in_bin: 3]
[bin_construct_sample_cnt: 200000]
[data_random_seed: 1]
[is_enable_sparse: 1]
[enable_bundle: 1]
[use_missing: 1]
[zero_as_missing: 0]
[feature_pre_filter: 1]
[pre_partition: 0]
[two_round: 0]
[header: 0]
[label_column: ]
[weight_column: ]
[group_column: ]
[ignore_column: ]
[categorical_feature: 0,1,3,15]
[forcedbins_filename: ]
[precise_float_parser: 0]
[objective_seed: 5]
[num_class: 1]
[is_unbalance: 0]
[scale_pos_weight: 1]
[sigmoid: 1]
[boost_from_average: 1]
[reg_sqrt: 0]
[alpha: 0.9]
[fair_c: 1]
[poisson_max_delta_step: 0.7]
[tweedie_variance_power: 1.5]
[lambdarank_truncation_level: 30]
[lambdarank_norm: 1]
[label_gain: ]
[eval_at: 12]
[multi_error_top_k: 1]
[auc_mu_weights: ]
[num_machines: 1]
[local_listen_port: 12400]
[time_out: 120]
[machine_list_filename: ]
[machines: ]
[gpu_platform_id: -1]
[gpu_device_id: -1]
[gpu_use_dp: 0]
[num_gpu: 1]

end of parameters

pandas_categorical:[[1, 2], [1, 2], [0.0, 1.0, 2.0], [0, 1, 2]]
