tree
version=v3
num_class=1
num_tree_per_iteration=1
label_index=0
max_feature_idx=24
objective=binary sigmoid:1
feature_names=FN Active age user_gender fashion_news_frequency_1 fashion_news_frequency_2 fashion_news_frequency_3 fashion_news_frequency_4 fashion_news_frequency_5 club_member_status_1 club_member_status_2 club_member_status_3 club_member_status_4 i_repurchase_ratio p_repurchase_ratio season_type index_group_no_1 index_group_no_2 index_group_no_3 index_group_no_4 index_group_no_5 i_pop p_pop purchase_cnt purchase_cnt_cat
feature_infos=-1:0:1 -1:0:1 [0:91] -1:0:2 [0:1] [0:1] [0:1] none [0:1] [0:1] [0:1] [0:1] [0:1] [0:0.99999999957044683] [0:0.99999999943534723] -1:0:2:1 [0:1] [0:1] [0:1] [0:1] [0:1] [0.0062111801242236021:389.02183844678541] [0.008130081300813009:1481.9164091315729] [0:140] [0:74]
tree_sizes=13616 13843 13873 13931 13892 13978

Tree=0
num_leaves=128
num_cat=8
split_feature=21 13 23 13 23 13 23 22 14 17 24 21 14 21 14 13 18 13 13 16 24 16 17 13 14 19 23 15 24 22 22 16 13 13 14 13 24 21 21 17 13 23 13 23 24 22 14 13 23 16 23 24 23 15 13 22 13 13 15 13 15 14 23 13 13 13 23 15 14 23 24 14 13 16 13 14 24 15 21 24 14 14 14 13 22 14 17 23 2 22 23 24 13 23 13 17 14 13 23 6 13 16 23 13 13 2 13 2 24 23 24 23 23 13 2 2 13 23 6 23 1 2 3 23 24 13 23
split_gain=252124 118929 71703.8 60678.8 42254 32652.5 22700.2 15000.8 12940.4 11176.5 7264.91 7094.64 20877.9 12026.2 6410.76 5645.15 3302.52 2460.6 2402.55 2277.63 2186.9 3252.38 2251.21 2107.54 1947.64 1920.32 1320.38 1218.31 1205.58 1070.56 6805.87 1013.64 913.274 874.418 824.137 770.542 744.122 698.732 695.276 578.964 486.618 463.525 444.658 372.206 423.958 361.062 359.276 358.156 357.554 330.974 308.291 303.89 295.729 254.94 239.16 231.725 231.329 302.133 230.72 191.742 177.145 156.737 150.207 149.329 148.841 130.162 125.768 116.054 115.433 109.869 114.653 107.024 95.998 149.602 108.521 155.205 94.8538 92.7055 78.5986 56.7434 49.3791 49.0739 43.5889 118.465 42.4053 42.2879 39.5093 38.0527 37.8587 37.3161 43.408 36.0089 57.6844 34.808 25.0667 22.7725 21.4151 20.4801 18.3927 18.6684 18.3638 18.2658 18.2275 17.2892 15.6887 13.9549 10.809 9.31825 8.95539 20.1467 8.52489 8.37184 7.67377 6.82269 6.66001 4.70482 4.17839 3.27646 6.77611 3.18419 2.86703 2.82679 2.38616 2.04418 1.6472 1.21385 1.06344
threshold=79.613822731568519 0.79999998606060652 1.0000000180025095e-35 0.99999999765530523 1.0000000180025095e-35 0.99999986607144675 1.0000000180025095e-35 110.63296812257764 0.83333332996633003 1.0000000180025095e-35 1.0000000180025095e-35 120.44428119396316 0.98457233236629393 107.68895300303744 0.9031466871300825 0.71641790599242616 1.0000000180025095e-35 0.99999999790975025 0.78134607148098467 1.0000000180025095e-35 1.0000000180025095e-35 1.0000000180025095e-35 1.0000000180025095e-35 0.83060514980230438 0.78408632654648691 1.0000000180025095e-35 1.5000000000000002 0 1.0000000180025095e-35 253.82412118915818 212.87920415677254 1.0000000180025095e-35 0.79401221615774664 0.89977445256057276 0.99999999911776294 0.64116498820108869 1.0000000180025095e-35 78.238406950984313 5.8558142740794432 1.0000000180025095e-35 0.66666666324462354 2.5000000000000004 0.99999999949367824 1.0000000180025095e-35 1.0000000180025095e-35 604.66811411848346 0.81060296299829748 0.94218029111095125 1.0000000180025095e-35 1.0000000180025095e-35 1.5000000000000002 1.0000000180025095e-35 2.5000000000000004 1 0.33333325000002317 1477.073551988716 0.78017908410509695 0.75372026711762607 2 1.0000000180025095e-35 3 0.78787876997245243 1.0000000180025095e-35 0.55999999253333355 0.78017908410509695 0.99999999584197796 2.5000000000000004 4 0.9620883483919177 1.0000000180025095e-35 1.0000000180025095e-35 0.99999999828178199 0.99999999524937955 1.0000000180025095e-35 0.99999999840890108 0.99999999911776294 1.0000000180025095e-35 5 45.965915949752358 1.0000000180025095e-35 0.80278459091898868 0.76526175186303014 0.99731514562637058 0.99999999800198014 178.79909364727249 0.82535530969751003 1.0000000180025095e-35 2.5000000000000004 22.500000000000004 599.01760382031318 1.0000000180025095e-35 1.0000000180025095e-35 0.86754631747565758 4.5000000000000009 0.33333325000002317 1.0000000180025095e-35 0.99999999934495609 0.99999999818509411 6.5000000000000009 1.0000000180025095e-35 0.99999999713876397 1.0000000180025095e-35 1.5000000000000002 0.99999999790975025 0.99999999827734587 36.500000000000007 0.90339699684945696 31.500000000000004 1.0000000180025095e-35 1.0000000180025095e-35 5.5000000000000009 3.5000000000000004 1.5000000000000002 0.99999999827734587 30.500000000000004 24.500000000000004 0.99999999713876397 2.5000000000000004 1.0000000180025095e-35 4.5000000000000009 6 20.500000000000004 7 2.5000000000000004 1.0000000180025095e-35 1.0000000180025095e-35 6.5000000000000009
decision_type=2 2 2 2 2 2 2 2 2 2 2 2 2 2 2 2 2 2 2 2 2 2 2 2 2 2 2 1 2 2 2 2 2 2 2 2 2 2 2 2 2 2 2 2 2 2 2 2 2 2 2 2 2 1 2 2 2 2 1 2 1 2 2 2 2 2 2 1 2 2 2 2 2 2 2 2 2 1 2 2 2 2 2 2 2 2 2 2 2 2 2 2 2 2 2 2 2 2 2 2 2 2 2 2 2 2 2 2 2 2 2 2 2 2 2 2 2 2 2 2 1 2 9 2 2 2 2
left_child=1 4 -2 5 -1 6 -3 33 24 69 26 12 13 14 32 28 -16 34 45 -12 50 22 61 55 58 29 -10 46 63 30 -20 35 -9 91 37 54 -26 62 43 -37 59 -29 -31 -7 68 56 -23 -25 -40 -46 60 66 -24 -42 -30 -15 57 -13 -8 -33 80 -22 -11 94 79 -53 -50 85 -45 -5 87 101 73 105 100 -76 88 86 -79 -47 -17 -62 83 106 -73 -52 -65 104 -27 90 -19 95 98 -69 125 102 -92 -89 99 -93 -74 -72 -4 116 -71 -14 114 121 109 -36 -100 -39 -96 -109 -35 -108 -84 118 -97 -75 -94 -105 -104 -78 -118 -6 -110
right_child=2 3 7 9 15 38 8 11 10 17 19 18 72 23 16 20 -18 89 25 -21 21 27 52 47 36 76 -28 41 31 42 -32 40 -34 82 108 39 -38 111 48 -41 53 -43 -44 44 49 64 -48 -49 51 -51 67 65 -54 -55 -56 -57 -58 -59 -60 -61 81 -63 -64 77 -66 -67 -68 93 -70 70 71 84 74 119 75 -77 123 78 -80 -81 -82 -83 103 -85 -86 -87 -88 97 -90 -91 96 92 120 -95 112 117 -98 -99 110 -101 -102 -103 122 107 -106 -107 115 113 126 -111 -112 -113 -114 -115 -116 -117 124 -119 -120 -121 -122 -123 -124 -125 -126 -127 -128
leaf_value=-1.3193454642560927 -1.3193454642560927 -1.3193454642560927 -1.3933104249130825 -1.3193454642560927 -1.518126296021753 -1.3193454642560927 -1.4880550904944967 -1.461458443332678 -1.4092996882499846 -1.3193454642560927 -1.3621223540868548 -1.4801492352197079 -1.4112063031781024 -1.4523492295395883 -1.5100641043295948 -1.4937218471612654 -1.3464397476681462 -1.3193454642560927 -1.5074229185498547 -1.3942030423427574 -1.392690173670676 -1.4843947928160335 -1.4173815034025741 -1.379130115423949 -1.4657906606956632 -1.3458495751581807 -1.4521786639485077 -1.4408384462734392 -1.514210097569848 -1.5134487766397486 -1.3609198725441831 -1.518126296021753 -1.3996573885956054 -1.3524756028837028 -1.3193454642560929 -1.3999030633487946 -1.4318798148258145 -1.3282794342230888 -1.3193454642560927 -1.4613583618564661 -1.4912292971471808 -1.4636822470093833 -1.3968190192006578 -1.418322327784348 -1.3331237246257779 -1.4349628868136706 -1.4571557047658992 -1.329405010829368 -1.3411340543186596 -1.3709729509509867 -1.5048502608684617 -1.3295826899447871 -1.4520982516962151 -1.4753569188930973 -1.4802324874938815 -1.3193454642560927 -1.518126296021753 -1.4067687197981511 -1.4669838211249531 -1.4967721248891526 -1.4752869984004189 -1.3550479148632084 -1.5167768855822081 -1.5095517114827313 -1.3193454642560927 -1.3413899364681019 -1.3616453393119055 -1.4846169362443993 -1.3784868687483554 -1.3680533501854266 -1.3234300018951131 -1.3986100949913094 -1.3222026836038538 -1.3386445741362538 -1.518126296021753 -1.3535570020673933 -1.3211860275131821 -1.4973387580593311 -1.456050878382652 -1.3777031396368371 -1.4711701940298647 -1.4559557825400011 -1.3193454642560927 -1.518126296021753 -1.3572084798305042 -1.4889428685393784 -1.5010227827723177 -1.4128893850869917 -1.4180946516493562 -1.3193454642560927 -1.390454054481207 -1.4426632024810857 -1.3566168702121539 -1.4958878911755948 -1.5061793672439179 -1.5015612267079481 -1.3490697007817989 -1.4793397922625999 -1.4762776998605613 -1.4008965747240558 -1.3333580307971875 -1.3450220302070035 -1.4394422167811791 -1.3496679640169562 -1.4187358801389229 -1.4581169883189122 -1.3556445726654742 -1.3404451056166935 -1.3365240546555943 -1.4045372492985186 -1.4334603861956385 -1.368026484280336 -1.5117799382976329 -1.3636888805730476 -1.3881542137134366 -1.3379505667366225 -1.3389781389983801 -1.4974199593794968 -1.4479683553985789 -1.3511503973385983 -1.3193454642560927 -1.3318402593956484 -1.4622191870876611 -1.3348194212198865 -1.3275059405075251 -1.5151841190483484 -1.3524756028837028
leaf_weight=1486.5618892014027 1829.9048636108637 2629.0262040495872 6.4895595163106945 77.723794206976891 557.34751845896244 221.85238346457481 1003.6179251968861 372.16869226098061 966.49160796403885 3.4711597412824622 2995.3090167492628 87.684513464570045 19.921438515186313 331.11845532059669 15248.955663442612 363.86809287965298 111.83171166479588 14.488318920135496 10093.076087728143 5944.889276906848 143.97766926884651 3267.568676456809 287.95533853769302 239.35910215973854 761.24042326211929 9.0551993250846845 1951.0936145782471 1159.8201135545969 222.15422344207764 97147.649519249797 293.69029811024666 403.56004992127419 510.26048196852207 11.771759122610094 3.7729997187852877 166.46474759280682 2478.7098952531815 13.43187899887562 1740.8620702475309 805.91273993253708 2148.1951198875904 2572.7330482453108 29.42939780652523 108.81331188976765 433.29128770530224 29.580317795276642 502.86540251970291 286.2952186614275 749.01590417325497 399.7870502024889 917.44261161983013 4668.2570920586586 947.3247693926096 1581.0378021597862 1159.8201135545969 12.224519088864325 38.333677142858505 119.07587112486362 875.78869472444057 6078.9062269181013 184.87698622047901 322.66693595051765 4023.9796600788832 1284.0272642970085 25.958238065242767 1024.7467236220837 419.85940870642662 725.17054595053196 164.35186775028706 22.788918301463131 44.06863671541214 48.445316389203072 220.49410356581211 46.634276524186134 5.4331195950508109 101.72007241845131 16.299358785152435 1177.6286722272635 43.01219679415226 32.900557547807693 115.00103142857552 327.64729557931423 64.895595163106918 3.7729997187852851 41.201156929135323 179.89662659168243 789.31154116988182 12.828199043869974 23.392598256468773 20.676038458943367 37.126317232847214 16.299358785152435 4.8294396400451651 373.67789214849472 298.82157772779465 3.6220797300338727 16.148438796401024 6.1877195388078681 8.6024393588304537 23.543518245220184 333.98593510687351 176.42546685039997 7.244159460067749 8.9042793363332731 7.2441594600677481 7.9987594038248053 17.355798706412315 27.014677986502647 12.224519088864328 7.3950794488191605 8.1496793925762159 7.3950794488191596 836.70041763782501 19.619598537683487 7.8478394150733939 61.273515433073044 12.224519088864325 7.2441594600677481 5.1312796175479889 30.183997750282288 3.0183997750282288 79.232994094491005 9.6588792800903338 25.20363812148571 143.37398931384087 163.14450784027576 5.4331195950508109
leaf_count=9850 12125 17420 43 515 3693 1470 6650 2466 6404 23 19847 581 132 2194 101040 2411 741 96 66877 39391 954 21651 1908 1586 5044 60 12928 7685 1472 643703 1946 2674 3381 78 25 1103 16424 89 11535 5340 14234 17047 195 721 2871 196 3332 1897 4963 2649 6079 30932 6277 10476 7685 81 254 789 5803 40279 1225 2138 26663 8508 172 6790 2782 4805 1089 151 292 321 1461 309 36 674 108 7803 285 218 762 2171 430 25 273 1192 5230 85 155 137 246 108 32 2476 1980 24 107 41 57 156 2213 1169 48 59 48 53 115 179 81 49 54 49 5544 130 52 406 81 48 34 200 20 525 64 167 950 1081 36
internal_value=-1.48131 -1.43353 -1.50579 -1.39471 -1.47548 -1.37893 -1.40138 -1.50849 -1.41408 -1.49604 -1.39687 -1.50918 -1.49168 -1.49854 -1.50436 -1.48319 -1.50887 -1.51118 -1.51208 -1.38345 -1.46766 -1.46024 -1.4228 -1.38981 -1.45394 -1.51233 -1.43797 -1.46873 -1.49405 -1.51243 -1.50328 -1.48904 -1.42572 -1.35372 -1.51457 -1.4713 -1.43985 -1.51571 -1.33461 -1.45084 -1.49313 -1.45658 -1.51341 -1.35481 -1.36192 -1.43169 -1.48076 -1.35205 -1.33149 -1.35129 -1.48907 -1.33457 -1.44401 -1.4845 -1.48569 -1.44761 -1.45044 -1.43789 -1.47824 -1.4981 -1.47519 -1.36666 -1.51661 -1.50628 -1.37973 -1.33171 -1.3485 -1.49534 -1.39436 -1.35169 -1.35868 -1.35194 -1.33849 -1.36517 -1.33426 -1.3619 -1.35951 -1.50244 -1.49588 -1.40481 -1.48831 -1.46293 -1.33588 -1.35316 -1.37958 -1.50224 -1.5063 -1.4013 -1.39793 -1.35462 -1.36539 -1.43232 -1.4185 -1.48845 -1.51308 -1.45491 -1.37791 -1.43451 -1.42907 -1.41798 -1.32892 -1.34071 -1.43605 -1.33091 -1.38028 -1.42465 -1.34683 -1.33938 -1.35473 -1.37576 -1.45545 -1.34239 -1.51031 -1.35022 -1.36675 -1.34186 -1.32574 -1.4825 -1.47014 -1.34356 -1.34228 -1.33364 -1.45246 -1.32947 -1.32841 -1.51746 -1.34143
internal_weight=0 65734.6 128241 34139.5 31595.1 29537 19606.2 126411 16977.1 4602.46 11857.8 125850 17878.6 17112.2 16243.2 30108.5 15360.8 4165.54 107971 8940.2 12392.5 9204.91 1701.92 868.997 5119.36 107638 2917.59 7502.99 17716 107564 10386.8 12566.1 882.429 561.121 4077.1 2354.35 3239.95 4048.28 9930.84 972.377 10211.7 3732.55 97177.1 1328.1 1106.24 333.533 3770.43 525.654 8602.74 833.078 3187.58 6861.88 1235.28 3729.23 1381.97 343.343 245.094 206.76 1879.41 6482.47 991.393 466.645 4027.45 5149.99 88.4391 5693 1168.88 2196.19 273.165 436.913 359.19 310.141 766.372 104.738 661.633 107.153 73.9508 3293.98 1220.64 62.4809 478.869 512.524 457.288 102.022 89.6465 1097.34 2073.34 49.049 32.4478 88.4391 67.7631 103.833 64.4428 1098.85 1856.01 39.3901 53.2748 19.0159 56.595 39.8429 554.48 220.494 23.3926 355.266 30.0331 27.9202 98.2489 134.772 28.8257 11.1681 16.7521 20.827 1135.52 46.6343 19.6196 78.6293 220.494 15.9975 8.75336 76.8183 7.84784 88.1373 16.903 41.503 155.599 720.492 17.6576
internal_count=1285287 435559 849728 226209 209350 195713 129911 837603 112491 30496 78570 833885 118464 113386 107628 199500 101781 27601 715421 59238 82113 60992 11277 5758 33921 713211 19332 49715 117387 712721 68823 83263 5847 3718 27015 15600 21468 26824 65802 6443 67663 24732 643898 8800 7330 2210 24983 3483 57002 5520 21121 45467 8185 24710 9157 2275 1624 1370 12453 42953 6569 3092 26686 34124 586 37722 7745 14552 1810 2895 2380 2055 5078 694 4384 710 490 21826 8088 414 3173 3396 3030 676 594 7271 13738 325 215 586 449 688 427 7281 12298 261 353 126 375 264 3674 1461 155 2354 199 185 651 893 191 74 111 138 7524 309 130 521 1461 106 58 509 52 584 112 275 1031 4774 117
cat_boundaries=0 1 2 3 4 5 6 7 8
cat_threshold=2 2 2 2 2 2 1 4
is_linear=0
shrinkage=1


Tree=1
num_leaves=128
num_cat=8
split_feature=21 13 23 13 23 14 22 23 17 13 21 14 21 14 23 13 24 14 18 13 13 24 16 17 19 13 13 24 22 24 15 16 22 22 16 23 13 14 14 13 17 13 21 13 13 23 13 14 23 24 22 23 13 23 15 13 13 22 13 21 15 13 23 14 20 13 15 23 23 24 14 21 24 13 16 13 14 15 14 24 17 14 14 23 22 14 13 24 21 23 2 22 23 13 17 13 14 2 23 23 21 13 13 13 2 2 21 13 23 24 23 23 3 13 2 23 6 13 24 23 23 3 1 2 23 13 2
split_gain=233535 102333 63070.4 51227.4 35850.9 25314.4 13496.3 11545.3 9978.44 8024.94 6965.46 18288.3 10954.6 6013.48 5720.29 5312.86 4767.98 3709.93 2961.32 2277.39 2227.12 2021.92 2883.58 1854.21 1741.88 1725.15 1690.29 1525.96 1186.22 1167.89 1118.87 1103.69 1063.18 6123.81 959.124 911.115 777.921 753.502 748.18 720.748 677.211 673.254 630.49 467.308 460.824 413.638 413.349 333.37 311.72 389.239 302.698 292.96 265.226 257.229 240.983 212.644 263.636 189.336 188.661 176.88 164.825 147.741 133.775 121.89 117.826 113.21 112.201 91.1879 79.883 87.6703 79.8369 74.9981 71.4189 70.1879 115.912 78.7515 128.376 63.6304 46.7376 46.2751 45.0824 44.7287 41.1464 33.2838 32.8641 31.5399 97.0844 31.0273 46.2464 31.0151 29.8262 27.2877 32.1844 25.1095 20.4852 17.8927 16.4133 16.1166 16.0537 15.4733 13.6742 12.9875 12.7021 12.4025 11.9395 9.45139 9.31664 7.98091 7.62426 6.68456 15.2809 6.11803 5.08737 4.56271 3.43103 3.09372 6.27928 2.83826 2.81962 2.62659 2.31899 2.11999 2.06919 1.61051 1.44657 1.22377 0.862309
threshold=79.613822731568519 0.79999998606060652 1.0000000180025095e-35 0.99999999765530523 1.0000000180025095e-35 0.86747163056767762 110.63296812257764 1.0000000180025095e-35 1.0000000180025095e-35 0.99999990454546384 120.44428119396316 0.98457233236629393 107.68895300303744 0.9031466871300825 1.0000000180025095e-35 0.71641790599242616 1.0000000180025095e-35 0.81477081226199377 1.0000000180025095e-35 0.78134607148098467 0.99999999790975025 1.0000000180025095e-35 1.0000000180025095e-35 1.0000000180025095e-35 1.0000000180025095e-35 0.99999995742753811 0.83060514980230438 1.0000000180025095e-35 4.6039733822277276 1.0000000180025095e-35 0 1.0000000180025095e-35 253.82412118915818 212.87920415677254 1.0000000180025095e-35 1.5000000000000002 0.79401221615774664 0.75920502495700981 0.99999999911776294 0.54999997937500089 1.0000000180025095e-35 0.89977445256057276 78.238406950984313 0.66666666324462354 0.99999990454546384 2.5000000000000004 0.99999999949367824 0.81060296299829748 1.0000000180025095e-35 1.0000000180025095e-35 604.66811411848346 1.5000000000000002 0.94218029111095125 3.5000000000000004 1 0.78017908410509695 0.75372026711762607 1477.073551988716 1.0000000180025095e-35 7.2762927318818518 2 0.55999999253333355 1.0000000180025095e-35 0.72072711505658837 1.0000000180025095e-35 0.78017908410509695 3 1.5000000000000002 1.0000000180025095e-35 1.0000000180025095e-35 0.99999999828178199 34.403368751348751 1.0000000180025095e-35 0.99999999524937955 1.0000000180025095e-35 0.99999999840890108 0.99999999911776294 4 0.80278459091898868 1.0000000180025095e-35 1.0000000180025095e-35 0.76526175186303014 0.82535530969751003 4.5000000000000009 178.79909364727249 0.99731514562637058 0.99999999800198014 1.0000000180025095e-35 80.225469408804869 2.5000000000000004 22.500000000000004 599.01760382031318 1.0000000180025095e-35 0.33333325000002317 1.0000000180025095e-35 0.99999999818509411 0.99999999934495609 38.500000000000007 6.5000000000000009 1.5000000000000002 63.201313270063274 0.99999999713876397 0.99999999827734587 0.99999999827734587 36.500000000000007 43.500000000000007 26.123588959458036 0.90339699684945696 1.5000000000000002 1.0000000180025095e-35 1.0000000180025095e-35 3.5000000000000004 5 0.99999999713876397 24.500000000000004 2.5000000000000004 1.0000000180025095e-35 0.79999998606060652 1.5000000000000002 4.5000000000000009 4.5000000000000009 6 7 20.500000000000004 2.5000000000000004 1.0000000180025095e-35 30.500000000000004
decision_type=2 2 2 2 2 2 2 2 2 2 2 2 2 2 2 2 2 2 2 2 2 2 2 2 2 2 2 2 2 2 1 2 2 2 2 2 2 2 2 2 2 2 2 2 2 2 2 2 2 2 2 2 2 2 1 2 2 2 2 2 1 2 2 2 2 2 1 2 2 2 2 2 2 2 2 2 2 1 2 2 2 2 2 2 2 2 2 2 2 2 2 2 2 2 2 2 2 2 2 2 2 2 2 2 2 2 2 2 2 2 2 2 9 2 2 2 2 2 2 2 2 9 1 2 2 2 2
left_child=1 4 -2 5 -1 7 41 -3 68 14 11 12 13 36 -7 29 35 25 -15 50 38 51 23 63 32 37 57 44 -18 61 47 -29 33 -21 39 -16 -8 -9 42 64 -41 87 62 58 -19 -32 -34 -24 -11 59 55 60 -28 -25 -45 56 -12 -14 -36 -50 78 93 -10 -23 -31 79 82 77 -5 89 100 -51 90 74 104 101 -77 -63 -17 -52 -69 -62 -53 -68 -72 86 107 94 122 103 -26 92 -22 125 99 -91 -94 98 -90 -4 -71 -75 113 -70 -13 118 -27 112 -95 110 -40 -44 -43 -87 -109 116 -96 -99 -104 -107 -76 -101 -89 -115 -74 -6 -111
right_child=2 3 6 8 15 9 10 17 20 48 19 73 26 18 16 21 28 27 -20 24 91 22 30 53 72 106 52 31 -30 34 45 -33 46 -35 43 -37 -38 -39 109 40 -42 85 111 54 -46 -47 -48 -49 49 71 65 66 -54 -55 -56 -57 -58 -59 -60 -61 81 67 -64 -65 -66 -67 83 80 69 70 84 -73 124 75 120 76 -78 -79 -80 -81 -82 -83 -84 -85 -86 102 -88 88 97 95 -92 -93 96 108 115 -97 -98 117 -100 121 -102 -103 105 -105 -106 119 -108 114 -110 126 -112 -113 -114 123 -116 -117 -118 -119 -120 -121 -122 -123 -124 -125 -126 -127 -128
leaf_value=0.14222916142354378 0.14222916142354378 0.14222916142354378 0.08078257826749792 0.14222916142354378 -0.036573660748126589 0.14222916142354378 0.019010606112696192 -0.0025507724278956236 0.14222916142354378 0.14222916142354378 0.0011213068498236343 0.065065696234074988 0.027576474074452264 -0.028416374528583643 0.073981925802859325 -0.012139544468949619 0.067512957019867356 0.025404866353317478 0.12035231136801344 -0.025762473127564009 0.14222916142354378 0.049876101958506183 -0.0030019793536402643 0.053511331910327593 0.12083638886017223 0.12262664881699267 0.092992918298444999 0.094017126871923581 0.10204319560054692 -0.016704731338856103 0.038260638632989757 0.058372029468525932 -0.031830611206423588 0.10836683053272543 -0.036573660748126589 0.033740422950244632 0.075248111334493384 0.026121034522638961 0.14222916142354369 0.066278630220203152 0.01264277975535363 0.08597383376097549 0.1350931876443211 -0.0096869215450195879 0.11057034438895881 0.016904388021978172 0.077728478896629385 0.023069007760479196 0.090707766112862659 0.12944636164929976 0.043654890019758523 -0.023186117124920053 0.13418877950254471 0.025261130361061757 0.0057488103735937376 -0.036573660748126589 0.068995430802042873 0.14222916142354378 -0.015151671032873107 0.11932835512891336 0.0058161158908829847 -0.019179237558441826 -0.035202398309478022 0.10763548510938931 0.047396850977289955 0.14222916142354378 -0.0032183415458490218 -0.027360884916383589 0.10238488068793639 0.11728145997470857 0.076164317563713488 0.13607174023972324 0.14076516995836674 0.1399551541557095 0.12671882039538926 -0.036573660748126589 0.11448730752003398 -0.0035724517505694533 0.0097684558431997675 0.094209962945010661 -0.018561168302128752 0.024196850237871308 -0.0074440041651281418 -0.014277281523582588 0.11145875708992461 0.14222916142354378 -0.036573660748126589 0.11195034957937197 0.070832730786290141 0.063569569143247837 0.058922641245440943 0.14222916142354378 0.08325923834409367 -0.024516064116424392 -0.019904778918155345 0.0019049025943814095 0.1181909230611619 0.015070849149644152 0.029855227026747189 0.039546103760684154 0.13164478154685647 0.13100289761640399 0.11941452832488536 0.058348108380209283 0.022164227711958098 0.10795836140986836 0.13991896214111099 0.1127575039520004 -0.030145328048613005 0.12946956050672956 0.070963380717526836 0.10240749891174813 0.11590860274171361 0.12327870645780038 0.12728276952769124 -0.015792925998663002 0.031661035450614362 0.041118821783397222 0.13242229046091983 0.078803239572395462 0.11647609948620277 0.018290755852036534 0.14222916142354375 0.13419116764983421 0.12982132403192773 -0.033586913838048162 0.11640860665766709
leaf_weight=1639.4037164747715 2018.0477220565081 1186.3624051809311 6.8510449975729015 85.715016648173332 544.466373950243 1895.3837079405785 376.82558298110962 1291.5120362788439 3.8280492871999732 1982.0973461419344 87.748380392789841 20.804608404636387 337.16698187589645 14973.509727716446 761.89146821200848 361.02672205865383 1046.6810657531023 1174.6916973441839 121.3981604129076 9927.4702467471361 15.977944850921629 35.383723765611649 3261.2165120244026 450.834144115448 9.8332169651985151 85.051727160811424 254.85104656219482 1056.0280153751373 6194.3188644051552 732.83286294341087 1189.450750425458 3010.4983933866024 95186.868790492415 316.10389417409897 394.23316651582718 1509.844273597002 536.62471783161163 2283.4241362959146 4.1609231382608431 251.0037616789341 1358.6699842661619 8.7366339862346649 14.736377701163294 2134.7853237986565 60.106594398617744 2601.3138651996851 31.003052070736885 510.52401822805405 233.46982936561108 3972.6170212477446 30.446064829826355 903.86930008232594 313.89464728534222 813.53824891149998 1586.9618142843246 37.447727859020233 124.69035190343857 13.481390967965124 6019.7897467762232 1159.5680407434702 185.57784557342529 616.47922386229038 3934.3771934211254 465.16963204741478 26.749573841691017 28.627151191234589 723.65942627191544 1424.9971948862076 24.424567818641666 110.43881477415562 50.980642274022102 2508.7844379544258 17.956059515476227 242.76265892386436 50.855229958891869 5.3075519800186148 109.96019583940506 380.06541776657104 115.73539566993713 35.059846580028534 828.68785896897316 332.88570219278336 179.03224766254425 370.25142794847488 44.442923069000244 71.567877978086472 3.6857999861240378 5.2112469673156721 29.691367819905281 13.383199796080591 24.327385798096657 22.801858797669411 39.261777073144913 294.15154874324799 3.5759657621383649 6.195380210876464 17.502763479948044 10.907922878861429 12.115580976009367 7.4356327056884766 129.72290045022964 365.34115736186504 27.656756013631821 7.5306951999664298 8.1157238781452161 7.622064605355261 41.833405002951622 18.738670125603676 820.68739593029022 11.833763241767885 7.7542421668767929 7.925980180501937 12.307557761669159 12.844881862401961 66.846596509218216 7.1707634925842276 5.2392247319221497 5.7491436302661887 32.766530945897102 4.3786328583955765 32.675424218177795 9.7751007080078143 3.3287385106086731 232.33561684191227 27.546321228146553 159.67440849542618 7.3907318264245978
leaf_count=9850 12125 7128 43 515 3693 11388 2466 8530 23 11909 581 132 2194 101040 4827 2411 6511 7618 741 66877 96 222 21651 2892 60 517 1586 6553 38624 4882 7685 19033 643703 1946 2674 9813 3381 14829 25 1606 8933 54 89 14234 371 17047 195 3332 1456 24067 196 6079 1897 5293 10476 254 789 81 40279 7086 1225 4151 26663 2870 179 172 4805 9580 151 673 321 15200 108 1461 309 36 674 2541 762 218 5554 2171 1192 2476 273 430 25 32 189 85 155 137 246 1980 24 41 107 70 79 48 788 2213 168 48 53 47 253 115 5544 72 49 49 76 78 406 48 34 37 199 27 200 64 20 1405 167 1081 45
internal_value=0 0.0449105 -0.024139 0.0795146 0.0056129 0.0931383 -0.026841 0.0542589 -0.0144516 0.111768 -0.0275334 -0.0101493 -0.0169132 -0.0226968 0.0946379 -0.00183444 0.0851555 0.0426669 -0.0272199 -0.0304499 -0.0295445 0.013117 0.0201534 0.0546817 -0.030701 0.0196211 0.0837898 0.0587594 0.0970519 -0.0124685 0.0120952 0.0676286 -0.030807 -0.0216234 -0.00754458 0.0472366 0.0520485 0.0157628 -0.0329704 0.00964 0.0210065 0.114327 -0.034122 -0.0115615 0.0295505 0.0236055 -0.0317949 0.00052686 0.131595 0.128919 0.0466124 -0.0075734 0.115729 0.0353342 -0.00310509 0.0293408 0.0409598 0.0319845 -0.0164684 0.114532 0.0059102 -0.0246152 -0.0350299 0.103553 -0.0144473 0.0924619 -0.013738 -0.0207838 0.116024 0.110222 0.115816 0.132011 0.109528 0.12684 0.10479 0.130267 0.107532 -0.0132271 -0.00682131 0.0707128 -0.0241252 0.0176177 -0.0205835 -0.00696141 0.0926025 0.12896 0.1148 0.0460545 0.0585408 0.0737898 0.0767447 0.113593 0.104617 -0.0314613 0.0251635 0.0440566 0.0940301 0.0490152 0.0589575 0.0426523 0.12504 0.134577 0.132973 0.092007 0.0530265 0.121639 0.128328 0.120033 -0.02866 0.113506 0.0958503 0.123662 0.103481 0.135565 0.124103 -0.0011602 0.0107429 0.0240612 0.126468 0.0973207 0.122712 0.0274738 0.123753 0.133619 0.13414 -0.0358964 0.124448
internal_weight=0 67727.7 126273 36014.6 31713.1 31454.2 124255 10189.5 4560.39 21264.7 123649 17763.6 16927.8 16008.4 11408.1 30073.7 9512.74 9003.15 15094.9 105885 4087.55 12499.5 9327.43 1764.93 105541 3701.82 919.394 5301.32 7241 17574.2 7562.51 4066.53 105461 10243.6 12505 2271.74 913.45 3574.94 3992.01 2369.26 1609.67 606.539 3960.87 10135.8 1234.8 3790.76 95217.9 3771.74 9856.54 7874.44 344.02 3172.04 568.746 1264.37 3721.75 249.886 212.439 350.648 6414.02 1393.04 995.226 5069.21 3938.21 500.553 759.582 94.1331 2176.81 3250.23 472.834 387.119 335.585 6481.4 79.663 835.823 112.451 723.372 115.268 996.545 476.762 65.5059 2253.69 518.464 1082.9 1093.91 95.4236 499.488 110.315 107.052 67.004 51.5338 34.1606 95.5443 72.7425 1818.98 40.0477 19.5786 56.7645 58.464 41.8069 24.0618 240.162 608.104 389.172 31.9553 28.9203 72.424 126.885 106.629 1114.84 31.1397 11.9152 22.6624 21.0442 316.748 85.5853 15.986 8.81519 16.6571 60.4233 12.0007 83.5307 17.2107 8.53999 245.18 45.5024 704.141 19.2245
internal_count=1285287 435559 849728 226209 209350 195713 837603 64832 30496 130881 833885 118464 113386 107628 71163 199500 59775 57704 101781 715421 27601 82113 60992 11277 713211 24129 5758 33575 45135 117387 49715 25586 712721 68823 83263 14640 5847 23359 27015 15600 10539 3718 26824 67663 7989 24732 643898 24983 59718 47809 2210 21121 3483 8185 24710 1624 1370 2275 42953 8542 6569 34124 26686 3092 5061 586 14552 21826 2895 2380 2055 39267 490 5078 694 4384 710 6692 3173 414 15134 3396 7271 7281 594 3030 676 688 427 325 215 586 449 12298 261 126 353 375 268 155 1461 3674 2354 199 185 441 770 651 7524 191 74 138 130 1913 521 106 58 107 367 74 509 112 52 1483 275 4774 117
cat_boundaries=0 1 2 3 4 5 6 7 8
cat_threshold=2 2 2 2 2 1 4 1
is_linear=0
shrinkage=0.03


Tree=2
num_leaves=128
num_cat=4
split_feature=21 13 23 13 23 14 22 23 17 21 14 21 13 14 13 23 24 14 22 15 13 13 19 13 13 13 24 16 24 21 22 22 17 14 23 14 14 13 24 16 21 24 13 13 24 20 16 13 13 16 23 24 23 22 21 13 13 13 13 22 23 22 13 22 13 17 13 24 13 16 13 14 14 23 23 3 21 17 13 23 24 23 24 13 24 2 14 13 14 23 17 22 2 23 23 13 13 17 2 2 13 2 23 22 23 24 23 13 2 24 23 2 3 2 2 23 6 23 13 2 13 2 24 1 13 2 23
split_gain=217073 89140.1 56418.7 43926.4 31034 20506.1 12279.5 9484.44 9014.32 6832.79 16254.3 10046.3 6303.25 5654.65 5023.09 4488.52 3851.99 3243.69 2882.29 2322.59 2163.53 2037.45 1595.92 1484.9 1391.28 1387.57 1330.63 2190.26 1252.4 1181.5 1055.49 5563.86 1055.33 972.072 803.212 700.963 686.397 670.052 624.289 665.564 575.931 564.664 537.731 527.413 502.835 409.564 407.792 386.109 342.589 348.999 269.823 354.403 264.656 257.905 220.482 210.219 196.182 196.118 231.826 158.767 121.081 97.072 89.8871 74.0169 71.1214 68.7718 62.4004 56.2088 54.0991 92.9815 60.4652 102.046 52.3421 45.4129 43.9835 42.7086 40.4384 39.5856 36.25 30.6297 65.1096 27.8854 26.9808 38.1104 26.1052 24.2404 24.1404 81.516 22.45 21.2868 18.4965 15.8564 13.9804 13.7086 13.295 13.2504 12.8917 10.8555 10.3165 10.0832 9.84973 8.13379 7.56051 11.0469 7.4723 14.2129 6.54932 6.20837 6.05783 5.21211 12.1159 4.79591 4.78734 4.24354 3.42313 2.92178 5.82701 2.8447 2.53999 2.15686 2.13545 2.07977 1.87373 1.59059 1.23538 1.21111 1.10003
threshold=79.613822731568519 0.79999998606060652 1.0000000180025095e-35 0.99999999765530523 1.0000000180025095e-35 0.86747163056767762 110.63296812257764 1.0000000180025095e-35 1.0000000180025095e-35 120.44428119396316 0.98457233236629393 107.68895300303744 0.99999986607144675 0.9031466871300825 0.66666666324462354 1.0000000180025095e-35 1.0000000180025095e-35 0.81477081226199377 836.53308408257817 0 0.78134607148098467 0.99999999790975025 1.0000000180025095e-35 0.99999992582418151 0.83060514980230438 0.99999992582418151 1.0000000180025095e-35 1.0000000180025095e-35 1.0000000180025095e-35 9.9768382870564256 253.82412118915818 212.87920415677254 1.0000000180025095e-35 0.81060296299829748 2.5000000000000004 0.75920502495700981 0.99999999911776294 0.79401221615774664 1.0000000180025095e-35 1.0000000180025095e-35 78.238406950984313 1.0000000180025095e-35 0.89977445256057276 0.74999999329501932 1.0000000180025095e-35 1.0000000180025095e-35 1.0000000180025095e-35 0.99999999949367824 1.0000000180025095e-35 1.0000000180025095e-35 1.0000000180025095e-35 1.0000000180025095e-35 1.5000000000000002 604.66811411848346 2.8726782337549222 0.95710970424219022 1.0000000180025095e-35 0.78017908410509695 0.75372026711762607 1477.073551988716 1.0000000180025095e-35 3.3932473172969067 0.78017908410509695 31.642726392012694 0.33333325000002317 1.0000000180025095e-35 0.99999999840890108 1.0000000180025095e-35 0.99999999524937955 1.0000000180025095e-35 0.99999999866664546 0.99999999911776294 0.75337898964556949 2.5000000000000004 1.5000000000000002 1 42.207888004005504 1.0000000180025095e-35 0.99999999569890508 1.0000000180025095e-35 1.0000000180025095e-35 1.0000000180025095e-35 1.0000000180025095e-35 0.86754631747565758 3.5000000000000004 22.500000000000004 0.99731514562637058 0.99999999800198014 0.75842802764572226 3.5000000000000004 1.0000000180025095e-35 81.366412235385056 38.500000000000007 6.5000000000000009 1.5000000000000002 0.99999999713876397 0.57142853741496824 1.0000000180025095e-35 36.500000000000007 30.500000000000004 0.99999999790975025 50.500000000000007 1.0000000180025095e-35 599.01760382031318 1.5000000000000002 2.5000000000000004 1.5000000000000002 0.90339699684945696 30.500000000000004 1.0000000180025095e-35 1.0000000180025095e-35 34.500000000000007 2 28.500000000000004 57.500000000000007 2.5000000000000004 1.0000000180025095e-35 5.5000000000000009 0.79999998606060652 22.500000000000004 0.99999999713876397 23.500000000000004 1.0000000180025095e-35 3 1.0000000180025095e-35 24.500000000000004 2.5000000000000004
decision_type=2 2 2 2 2 2 2 2 2 2 2 2 2 2 2 2 2 2 2 1 2 2 2 2 2 2 2 2 2 2 2 2 2 2 2 2 2 2 2 2 2 2 2 2 2 2 2 2 2 2 2 2 2 2 2 2 2 2 2 2 2 2 2 2 2 2 2 2 2 2 2 2 2 2 2 9 2 2 2 2 2 2 2 2 2 2 2 2 2 2 2 2 2 2 2 2 2 2 2 2 2 2 2 2 2 2 2 2 2 2 2 2 9 2 2 2 2 2 2 2 2 2 2 1 2 2 2
left_child=1 4 -2 5 -1 7 42 -3 66 10 11 13 15 37 41 -7 34 23 -15 33 53 36 30 35 59 28 52 32 -19 -18 31 -22 -28 38 -17 -9 40 -8 65 -40 60 64 82 -29 73 48 -46 -32 -43 -50 -14 54 72 57 -52 -26 -47 58 -11 -13 -10 -53 75 -25 124 -16 76 85 69 98 95 -72 -21 -35 96 -55 104 -54 -27 -78 -81 -68 90 92 106 -24 87 107 -58 102 94 99 93 -84 -4 -70 -66 -76 -12 -91 120 -93 -23 -104 -5 -106 -83 111 119 110 -38 -44 -42 -86 -110 116 -92 -109 -94 -102 -88 -96 -71 -85 -6 -122 -69
right_child=2 3 6 8 14 12 9 17 21 20 68 24 50 18 19 16 29 25 -20 26 22 89 67 63 55 78 27 43 -30 -31 47 -33 -34 44 -36 -37 109 -39 39 -41 112 45 86 -45 46 56 -48 -49 49 -51 51 61 77 62 -56 -57 88 -59 -60 -61 -62 -63 -64 -65 74 -67 81 126 70 122 71 -73 -74 -75 97 -77 79 -79 -80 80 -82 84 83 123 113 -87 100 -89 -90 91 115 101 118 -95 121 -97 -98 -99 -100 -101 108 -103 103 -105 105 -107 -108 117 114 -111 -112 -113 -114 -115 -116 -117 -118 -119 -120 -121 125 -123 -124 -125 -126 -127 -128
leaf_value=0.12735009788340479 0.12735009788340479 0.12735009788340479 0.074660749934525039 0.096107706868008125 -0.036337583421159607 0.12735009788340479 0.018220664654893345 -0.0030785656333076022 0.12735009788340479 0.0010868893595313877 0.060669872730440701 0.026291322800188616 0.12735009788340479 -0.027988920105262164 -0.025190104593418933 0.059873550228769341 0.07089249514920791 0.024457473024051865 0.13068951647471752 0.0025405537321272192 -0.02541224394635181 0.12735009788340479 0.10933447085124502 0.067297466918122273 0.087321770934187679 0.12246664189703516 0.10057056544937527 0.0095470449341872876 0.05942946333560814 0.096532473115280015 -0.031524855400238624 0.098680252223098494 0.041855614576058728 0.0036386112804166694 0.024024634541974847 0.024641382690948017 0.12735009788340479 0.069760653444187734 0.021232396376544997 -0.0057025170776722981 0.11857379478960049 -0.036380923986055663 0.10382198260844469 0.028443734303928166 0.062127892595220627 -0.036919781307760337 0.019709182356715992 0.071960223354198424 0.0013575067512535284 -0.014841734331958024 0.064167774981919834 0.09696081734157333 -0.011728462008585809 0.030684034692275361 0.10593332054588579 0.12262073085215681 0.087441744227706356 -0.036337583421159607 0.064190099153032296 0.12735009788340479 -0.034942994979750334 0.11897612606078958 0.12735009788340479 0.1182317889779463 -0.023920874476442009 -0.013437936834114907 0.12735009788340479 0.12612707940722878 0.12544979431107336 0.099610856800987094 -0.036337583421159607 0.10142749894124461 0.0197426131316445 -0.01680735313345413 -0.02905396072199453 0.081791246199966361 0.12735009788340479 -0.00087350097147425513 0.097341101137410291 0.074619658258430838 0.1121970187933148 0.072189141979065771 0.065813219191702979 0.10175435223698873 0.10811857739375884 0.055136572713607841 0.12735009788340479 -0.036337583421159607 0.13466902473158038 0.076436963954460646 -0.019558433317279186 0.10367739449003892 0.014482603050490869 0.028422825061179255 0.041862830979404721 0.11692382621734394 -0.016285407968324794 -0.024673122502274662 0.021201787063512022 0.0066304335359941942 0.11125083449833052 0.063619942003092331 0.095869842492715324 0.12735009788340479 0.0013674443564603922 0.072811138185243068 0.042406444921747277 0.11520139025173391 0.10379949460796316 0.11239893935524188 0.065947375726373117 0.073805336031111085 0.085779274382979914 0.081158281668627333 0.12711718872698002 -0.015476356264820312 0.03011036046599155 0.10309254000445141 0.038884408440864611 0.1211426851790071 0.11709436735125749 0.01936991887992329 0.11259252917876315 0.12735009788340476 -0.033303362482861802 0.12278406590033354 0.11693962010245067
leaf_weight=1773.7618401646614 2183.4377981722355 1283.5913093090057 7.184996813535693 4.0048363804817191 531.75565731525421 1990.394885212183 381.29763999581337 1272.8711650073528 4.1417789161205283 87.810290709137917 21.629381418228153 342.94775155186653 2204.8670021295547 14728.902061551809 1243.5581891238689 1247.3242715448141 2377.098914116621 1198.9074109792709 103.75111825764179 243.15856729447842 9764.8361028283834 21.96943598985672 10.530075430870054 32.091282919049263 303.10131810605526 240.34789563715458 419.8135434538126 3126.6601297557354 3984.5827917009592 5061.7045483291149 93256.043634653091 336.38491535186768 801.49799662828445 192.9769532084465 1024.5174545496702 2312.8132090121508 4.5019336044788352 561.07579220831394 978.51541750133038 5285.5364628583193 19.239321067929268 537.83557890355587 15.379867002367975 2312.416732609272 306.66572986543179 11.270082026720045 609.08670544624329 32.459983304142952 1497.6187238097191 5962.018923714757 123.59448790550232 185.00687518715858 1040.126985013485 21.456800818443298 1429.2681460082531 304.26736518740654 23.788511112332344 36.573500394821167 129.9197786450386 14.586264878511427 3846.0135382860899 7017.6360346078873 30.973303198814392 128.47673487663269 319.54983823001385 700.63078632950783 8.46363517642021 19.414356172084808 262.37877188622952 11.478131413459776 5.1836457252502433 72.796253025531769 461.04000253975391 198.17323106527328 1243.5461156070232 46.844071686267853 82.11526894569397 426.27488739788532 65.835717037320137 48.19903439283371 298.52488432824612 9.5218936353921908 30.976489350199699 5.5557351112365705 10.455450981855394 25.20390011370182 77.43325799703598 3.5997539758682242 14.630077183246611 4.1901525110006324 3.5308009386062604 20.464427456259731 11.008870139718058 12.340828552842138 5.3113384246826199 437.76574647426605 527.59241427481174 861.91310602426529 8.2278502732515317 3.3521220088005066 27.764874041080475 5.8709594607353202 31.294171899557114 14.76634222269058 3.8134316205978376 7.3100985884666443 21.996115952730179 68.343327164649963 54.266496896743774 20.623528182506561 8.0883254557847959 6.9578505605459204 5.059819087386134 10.562596246600149 6.3268534392118445 7.0990169048309317 5.3421490490436554 23.453317135572433 5.8948117345571509 69.491640701889992 44.37713460624218 12.192768096923826 78.0539860278368 3.6015468835830688 156.25467935204506 139.55352434515953 29.628603354096413
leaf_count=9850 12125 7128 43 23 3693 11053 2466 8429 23 581 132 2194 12244 101068 8473 7709 14070 7652 713 1612 66877 122 60 189 1777 1393 2455 20342 24146 29768 643703 1946 5107 1284 6529 14783 25 3381 6212 35273 109 3719 89 14866 1887 74 3944 195 9856 40279 743 1069 6986 131 8201 1706 150 254 789 81 26663 39495 172 728 2183 4759 47 108 1461 65 36 418 2990 1336 8530 283 456 2858 384 290 1698 57 189 32 62 155 430 25 91 25 24 119 70 79 34 2469 3575 5885 53 20 157 34 184 82 23 44 132 388 309 117 49 41 29 63 36 48 34 133 37 391 249 78 444 20 1081 782 167
internal_value=0 0.0423998 -0.023802 0.0736086 0.00541404 0.085554 -0.0265047 0.0509391 -0.0141879 -0.027199 -0.0099353 -0.0166039 0.101622 -0.0223517 -0.00178734 0.0863094 0.0778973 0.0403196 -0.026879 0.00800518 -0.0301316 -0.0292319 -0.0303847 0.018798 0.0773663 0.0550064 0.0190851 0.0257331 0.0513407 0.0883391 -0.0304914 -0.0212798 0.0620383 -0.00227811 0.043707 0.0148012 -0.0326854 0.0489068 -0.00610423 -0.00149498 -0.0338495 -0.0171585 0.103845 0.0175809 0.0217526 -0.0127233 0.0339143 -0.0314888 -0.0132568 -0.0115895 0.11797 0.115608 -0.00131371 0.0439515 0.102609 0.105005 0.0731402 0.027943 0.0387406 0.0304142 -0.0347684 0.118411 0.0849593 0.108052 -0.0269621 -0.020955 0.105265 0.0997251 0.114443 0.0956395 0.117328 0.0922697 0.0138028 -0.00672018 -0.024938 0.0657359 0.109175 -0.00857299 0.117064 0.110875 0.106973 0.0768146 0.0434294 0.0548018 0.0686733 0.0711076 0.116226 0.104223 0.105426 0.103193 0.0240251 0.0837637 0.0461314 0.0551609 0.0402995 0.120119 -0.0191656 -0.0272606 0.0497935 0.0454118 0.119597 0.0947474 0.112869 0.105962 0.0609694 0.0483184 0.0514041 0.108656 0.11368 0.103113 0.0879033 0.0944723 0.111745 0.0945697 0.106234 -0.00113135 0.0103457 0.112108 0.0229922 0.118319 0.123171 0.026195 0.110928 0.111821 -0.0356485 0.121411 0.120577
internal_weight=0 69503.1 124296 37695.5 31807.7 33180.9 122113 10519.5 4514.54 121466 17637.4 16739.9 22661.4 15775 30033.9 11701 9710.65 9235.93 14832.7 18346.1 103828 4009.58 103475 3746.25 964.903 5489.67 8830.99 6660.39 5183.49 7438.8 103390 10101.2 1221.31 9515.14 2271.84 3585.68 3907.67 942.373 8208.24 6264.05 3874.45 11687.8 646.987 5439.08 1306.9 8047.16 915.752 93288.5 7997.47 7459.64 10960.4 8755.51 2170.6 353.578 1552.86 607.369 49.6887 254.304 217.73 357.534 3850.16 7202.64 99.2742 160.568 3640.61 1944.19 504.967 84.7769 897.514 119.389 778.124 77.9799 704.199 391.15 2952.6 68.3009 443.968 1466.4 306.184 428.839 346.724 60.9997 110.039 69.3783 52.5361 35.734 536.948 117.734 38.4186 101.908 40.6611 33.8777 60.221 43.3173 24.6891 700.145 847.142 2105.46 29.8572 7.54227 419.214 26.3354 68.03 46.0605 15.1284 11.1235 31.518 114.134 157.85 33.2138 12.5903 22.3377 24.2991 21.018 60.5934 15.972 8.87295 91.7966 16.9037 97.2565 261.364 17.5041 89.5321 9.15728 688.01 183.931 49.043
internal_count=1285287 435559 849728 226209 209350 195713 837603 64832 30496 833885 118464 113386 130881 107628 199500 69129 58076 57704 101781 120384 715421 27601 713211 24129 5758 33575 57216 42770 31798 43838 712721 68823 7562 63168 14238 23212 27015 5847 54717 41485 26824 79116 3718 35208 8451 54169 5831 643898 53854 50135 61752 49508 14446 2210 8944 3483 315 1624 1370 2275 26686 40564 586 917 24947 13232 2895 490 5078 694 4384 454 4602 2620 20173 414 2534 9844 1777 2444 1988 361 688 427 314 215 3030 676 241 586 261 198 375 268 155 3930 5758 14415 185 45 2354 153 388 266 90 67 189 651 893 191 74 130 138 125 345 106 58 521 107 548 1461 112 509 52 4774 1031 275
cat_boundaries=0 1 2 3 4
cat_threshold=2 4 1 1
is_linear=0
shrinkage=0.03


Tree=3
num_leaves=128
num_cat=4
split_feature=21 13 23 13 23 14 22 17 23 21 14 21 14 13 13 23 24 14 18 15 13 13 19 13 24 16 13 13 24 22 14 20 14 17 23 14 14 13 24 16 24 21 23 24 13 16 13 16 17 23 22 23 24 13 13 21 13 13 13 13 22 23 2 21 13 13 17 22 13 14 24 13 16 13 14 23 23 23 24 21 13 23 24 24 13 23 13 24 14 22 23 24 17 13 23 6 23 17 15 15 2 13 13 24 2 2 13 23 23 24 23 23 2 2 2 2 13 23 6 2 24 23 23 23 1 23 13
split_gain=202362 78446.3 51095.3 38142.7 27274.3 17014.9 11267.9 8216.96 7984.21 6698.53 14606.7 9262.68 5327.91 5112.19 4760.08 3675.41 3232.8 2855.63 2732.17 2151.96 2059.11 1879.07 1473.45 1294.23 1218.96 1937.67 1169.47 1156.82 1090.38 1047.52 5121.64 1018.53 906.954 889.029 704.919 644.838 634.803 605.774 598.515 620.806 551.631 530.936 506.775 459.206 442.111 374.669 362.105 358.414 297.42 248.404 222.578 217.197 285.352 211.509 196.766 189.951 182.801 181.41 205.221 171.02 135.867 110.89 95.0561 79.148 73.9147 70.9984 67.297 59.9342 50.7147 48.1458 45.8248 43.4704 76.6975 49.9702 92.9342 43.3935 43.2877 37.867 36.544 32.9285 28.4894 24.72 53.0355 23.6561 32.113 22.9697 22.3992 21.7498 19.3058 17.9266 20.9216 22.2692 16.7548 12.6175 12.4155 14.2607 11.5442 10.7826 10.6587 59.4759 8.99137 8.40618 7.73021 7.49092 6.65043 6.40847 6.11081 5.59946 4.37364 4.20837 9.95105 4.12855 4.00203 3.40894 3.21774 2.84633 2.81357 2.75991 5.41418 2.03852 2.02734 1.90876 1.86589 1.80243 1.2844 1.25064 1.24861
threshold=79.613822731568519 0.79999998606060652 1.0000000180025095e-35 0.99999999765530523 1.0000000180025095e-35 0.86747163056767762 110.63296812257764 1.0000000180025095e-35 1.0000000180025095e-35 120.44428119396316 0.98457233236629393 107.68895300303744 0.9031466871300825 0.99999986607144675 0.66666666324462354 1.0000000180025095e-35 1.0000000180025095e-35 0.81477081226199377 1.0000000180025095e-35 0 0.78134607148098467 0.99999999790975025 1.0000000180025095e-35 0.99999992582418151 1.0000000180025095e-35 1.0000000180025095e-35 0.83060514980230438 0.99999992582418151 1.0000000180025095e-35 253.82412118915818 0.91757534458195023 1.0000000180025095e-35 0.81060296299829748 1.0000000180025095e-35 1.5000000000000002 0.75920502495700981 0.99999999911776294 0.87499991796875864 1.0000000180025095e-35 1.0000000180025095e-35 1.0000000180025095e-35 78.238406950984313 2.5000000000000004 1.0000000180025095e-35 0.89977445256057276 1.0000000180025095e-35 0.99999999949367824 1.0000000180025095e-35 1.0000000180025095e-35 1.5000000000000002 604.66811411848346 1.0000000180025095e-35 1.0000000180025095e-35 0.49999998979166699 0.33333325000002317 1.6970661703845964 1.0000000180025095e-35 0.78017908410509695 0.75372026711762607 0.94218029111095125 1477.073551988716 1.0000000180025095e-35 22.500000000000004 3.9069072526528532 0.78017908410509695 0.33333325000002317 1.0000000180025095e-35 31.642726392012694 0.99999999840890108 0.75337898964556949 1.0000000180025095e-35 0.99999999524937955 1.0000000180025095e-35 0.99999999840890108 0.99999999911776294 1.5000000000000002 2.5000000000000004 3.5000000000000004 1.0000000180025095e-35 42.207888004005504 0.99999999569890508 1.0000000180025095e-35 1.0000000180025095e-35 1.0000000180025095e-35 0.86754631747565758 1.0000000180025095e-35 0.93318449165708039 3.5000000000000004 0.99731514562637058 599.01760382031318 1.5000000000000002 1.0000000180025095e-35 1.0000000180025095e-35 0.57142853741496824 6.5000000000000009 1.0000000180025095e-35 1.5000000000000002 1.0000000180025095e-35 1 2 36.500000000000007 0.99999999827734587 0.99999999713876397 5.5000000000000009 43.500000000000007 24.500000000000004 0.90339699684945696 1.5000000000000002 3.5000000000000004 1.0000000180025095e-35 1.0000000180025095e-35 1.0000000180025095e-35 30.500000000000004 28.500000000000004 33.500000000000007 25.500000000000004 0.99999999741232715 2.5000000000000004 1.0000000180025095e-35 52.500000000000007 1.5000000000000002 5.5000000000000009 7.5000000000000009 4.5000000000000009 3 2.5000000000000004 1.0000000180025095e-35
decision_type=2 2 2 2 2 2 2 2 2 2 2 2 2 2 2 2 2 2 2 1 2 2 2 2 2 2 2 2 2 2 2 2 2 2 2 2 2 2 2 2 2 2 2 2 2 2 2 2 2 2 2 2 2 2 2 2 2 2 2 2 2 2 2 2 2 2 2 2 2 2 2 2 2 2 2 2 2 2 2 2 2 2 2 2 2 2 2 2 2 2 2 2 2 2 2 2 2 2 1 1 2 2 2 2 2 2 2 2 2 2 2 2 2 2 2 2 2 2 2 2 2 2 2 2 1 2 2
left_child=1 4 -2 5 -1 8 44 68 -3 10 11 12 37 15 40 -7 34 23 -14 32 50 36 29 35 49 33 60 28 -19 30 -22 -18 38 -26 -17 -10 41 -8 66 -40 65 61 -27 76 83 48 -31 -45 54 69 57 -15 55 -50 -42 -53 -47 58 -11 -28 -13 -9 -58 -54 78 126 -16 -25 79 -21 86 72 100 102 -75 93 -34 -51 -52 105 -29 -81 -83 92 94 -70 -24 107 98 90 111 -92 96 -67 95 -85 -4 -77 106 122 -12 116 -73 -96 120 -5 112 -87 -43 110 -38 -23 -46 -89 -107 -108 -90 118 -94 -106 -103 -98 -100 -74 -86 -118 -6
right_child=2 3 6 7 14 13 9 21 17 20 71 26 18 51 19 16 31 27 -20 24 22 89 70 67 25 42 59 80 -30 46 -32 -33 43 -35 -36 -37 109 -39 39 -41 45 108 -44 47 88 56 -48 -49 53 77 64 52 63 -55 -56 -57 62 -59 -60 -61 -62 -63 -64 -65 -66 75 -68 -69 85 -71 -72 73 123 74 -76 97 -78 -79 -80 81 -82 82 -84 84 124 87 -88 113 101 -91 91 -93 117 -95 103 -97 121 -99 99 -101 -102 104 -104 -105 119 114 115 -109 -110 -111 -112 -113 -114 -115 -116 -117 125 -119 -120 -121 -122 -123 -124 -125 -126 -127 -128
leaf_value=0.11570948763577832 0.11570948763577832 0.11570948763577832 0.069392612593102448 0.027137706496241368 -0.036111424474339363 0.11570948763577832 0.033081867812972232 0.11570948763577832 -0.0029920901782690282 0.001053552728630543 0.056794206487043489 0.02509188937150842 -0.027762765410960455 0.11570948763577832 -0.024841623897820981 0.064014666293003689 0.078963620615707705 0.02336876374367141 0.11146253927646911 0.0024603383890733597 0.085642782688091376 0.11570948763577832 0.040877360491583165 0.062853872393975024 0.092276713124442411 0.030398004400987961 0.078798439835843101 0.11114406652579456 0.055687630099768494 -0.031224970342787171 -0.025285118932779481 0.12688429576210483 0.0035212367050044234 0.039572007369644578 0.029317319374121159 0.023541390209876258 0.11570948763577832 0.089318707830576952 0.020328817908106426 -0.005551781337372841 -0.026568941759170423 0.11113361455494489 0.01073614610388731 0.058099960212444512 0.096940592365799716 -0.036111157392686805 0.066972872117531251 0.018883989048899423 -0.021606944259222868 -0.0038272822823871957 0.037916482435124375 0.034972204146771345 0.097138122113002726 0.0028189535118251815 0.042434158633737985 0.09590936158991295 -0.023307872126841409 -0.036111424474339363 0.059978954328368486 0.10999355117425244 0.11570948763577832 -0.034692067795483665 -0.012884704608273161 0.1087978303030641 0.11570948763577832 -0.023570910944974582 -0.01314968589775966 0.10773330390179214 0.11570948763577832 0.018915340331154554 0.10983223195439715 0.11406133171709203 0.10473297829124778 -0.036111424474339363 0.095029831797961997 -0.028727808353322264 -0.01648220773484655 -0.013515103864362912 0.081147442231164629 0.11570948763577832 0.089480493154069585 0.069346287027301806 0.10251517166157921 0.031240617335643941 0.093393505769960292 0.067189567652256338 0.087619279916935036 0.098710457606408383 0.11390341265246391 0.11626626902003706 0.045726907538174918 0.089198492773207128 -0.01921601607067009 -0.015965549416626951 0.0029737478353720013 0.065972918764739236 0.030799412850249685 -0.024324075719096554 0.1002890330860009 -0.036111424474339328 0.02029635833183947 0.098475093398109545 0.10761641276871389 0.042112056166404607 0.070819900908487443 0.081864748257288095 0.094340755151137518 0.0401376584422437 0.085146219321158068 0.10270812520002985 0.061564915872149309 0.094174999674090126 0.071590986261190329 0.075172884194788125 0.048459634135230453 0.10798937532261944 0.11177488718193557 -0.015164131428373143 0.028671870260632688 0.094389131365975293 0.10880721689756608 0.0083439539076326213 0.079726859016626975 0.096258017553396302 0.11570948763577829 0.10684420901876011 -0.033026872793597416
leaf_weight=1891.6833512485027 2328.5949882119894 1368.9257794618607 7.4935698062181499 4.5485116094350806 519.22279760241508 2122.7183838933706 745.06808969378471 4.4171286374330512 1270.4062880426645 87.870313674211502 22.399874389171604 348.4742012321949 14448.13359297812 2351.4488276839256 1223.478500187397 804.83335196971893 7387.9507956653833 1216.8380919247866 127.98061756789684 243.54764188826084 389.86208929121494 18.436710834503174 17.000818625092506 33.309662878513336 443.43329413235188 1714.345687225461 282.32005786895752 256.61822155117989 4122.541545689106 91355.931813582778 9570.0676166117191 421.98036102950573 193.42037859559059 821.99303840100765 1526.4063278138638 2347.7073423415422 4.801226779818534 224.28329868614674 991.15047951042652 5266.4678511470556 45.313165545463562 16.85030381381512 3783.7415142357349 317.90803603827953 14.286467403173448 375.94422698020935 33.809149861335754 616.51526123285294 474.91158390045166 775.7136565297842 32.428438201546669 47.408555209636688 565.77568864822388 972.2337729036808 207.5356025993824 1592.7907063663006 935.7084279358387 35.711505711078644 134.79202723503113 359.66804052889347 15.555974766612051 3758.9343852847815 4969.8697244971991 7091.2657534331083 33.03244024515152 314.64026801288128 694.60189145803452 136.63202045857906 9.0263063460588437 466.67946295440197 52.173565536737442 279.63275335729122 57.843463182449341 5.0614732503890982 124.27213037014008 1220.2876250743866 196.05257607996464 682.70211070775986 38.481113225221634 87.574376463890076 69.41216342151165 50.274835169315338 316.61895939707756 17.7910315990448 5.8664183616638166 9.9171321094036085 20.179049298167229 11.097834765911104 160.99994872510433 26.228264570236206 15.583900183439253 33.199813887476921 3.4865816831588727 522.10152840614319 8.9462345093488711 26.46734893321991 13.192270219326021 848.26087087392807 19.043321371078495 3.5149119794368771 8.3353676199913007 31.423774793744087 417.66753941774368 8.6632051765918714 7.6222043037414533 6.9647125601768476 18.343131899833679 22.533744186162949 8.9107966572046262 21.871779695153236 8.3991700410842878 14.171448260545729 9.2239075154066068 11.05354470014572 4.1365305781364441 54.9364053606987 71.668692544102669 7.0289018154144278 5.4403180480003357 5.8279083520174026 37.475186958909035 4.5929246544837943 5.0185205191373816 37.052577808499336 3.8409814238548279 130.78364995121956 152.88691511750221
leaf_count=9850 12125 7128 43 26 3693 11053 4548 23 8429 581 132 2194 101040 12244 8473 4716 41457 7652 741 1612 2389 96 99 189 2455 10831 1586 1393 24146 643703 66434 2381 1284 5107 9522 14783 25 1299 6212 35273 310 89 24377 1887 78 2674 195 3944 3222 5218 196 277 3055 6382 1302 8667 6382 254 789 1897 81 26663 33897 37509 172 2183 4759 728 47 2990 275 1461 309 36 674 8530 1336 4626 218 456 384 290 1698 108 32 57 116 62 843 137 88 186 24 3575 57 156 83 5885 102 25 53 168 2213 54 42 40 99 132 49 117 49 79 52 63 24 293 379 48 34 32 199 29 27 200 20 691 1081
internal_value=0 0.0401734 -0.0234751 0.0685954 0.00522752 0.0792058 -0.0261762 -0.0139376 0.0479951 -0.0268718 -0.00972859 -0.016302 -0.0220112 0.0933313 -0.00174121 0.0798125 0.0722987 0.0381896 -0.0265403 0.00772357 -0.0298194 -0.0289313 -0.0300744 0.0180252 0.0182949 0.0245704 0.0719186 0.051672 0.0483222 -0.0301818 -0.0209431 0.0815528 -0.0022163 0.0580409 0.0412962 0.0142249 -0.0324105 0.0460936 -0.00594645 -0.00145253 -0.0168337 -0.0335864 0.0168669 0.0208192 0.0953306 -0.0124461 -0.0311886 0.032226 4.82175e-05 -0.00127686 0.0415716 0.107564 0.105504 -0.00519693 0.0300681 0.094148 -0.0158274 0.0266578 0.0367249 0.0962752 0.0289642 -0.0345155 -0.0145362 0.107936 0.0786437 -0.0266229 -0.0206076 0.0989366 0.096513 0.0132727 0.0916961 0.104526 0.0880838 0.107024 0.0898976 -0.0245901 -0.00654808 -0.00836227 0.061377 0.0999151 0.106532 0.101388 0.0979701 0.0410666 0.0514939 0.0713769 0.0662461 0.0640482 0.106067 0.0946973 0.0877468 0.0753115 0.022967 -0.0188254 0.0435341 0.0520112 0.0381599 -0.0269219 0.0956153 0.0791616 0.046896 0.108983 0.110201 0.0222284 0.100328 0.057129 0.100303 0.0484048 0.102145 0.0946349 0.0812583 0.106351 0.0869951 0.0869652 0.0694174 0.104573 0.110944 -0.00110313 0.00996829 0.0810324 0.104095 0.0250004 0.0960004 0.101424 0.102223 0.10859 -0.0354098
internal_weight=0 71082.9 122317 39200.5 31882.4 34735 119988 4465.55 10822.4 119305 17503.7 16551.5 15545.5 23912.6 29990.7 12263.9 10141.2 9453.47 14576.1 18431.8 101801 3931.8 101439 3788.06 8932.16 6763.51 1006.02 5665.41 5339.38 101350 9959.93 7809.93 9499.59 1265.43 2331.24 3618.11 3824.18 969.351 8175.7 6257.62 11558.9 3789.11 5498.09 1323.9 682.978 7981.52 91389.7 934.423 1699.99 2168.64 362.316 11648.7 9297.24 1447.15 252.849 1640.2 6281.52 258.374 222.662 641.988 364.03 3763.35 5905.58 7657.04 103.942 3577.4 1918.08 169.942 533.746 710.227 89.3534 952.265 125.631 826.634 129.334 2905.29 389.473 1458.42 70.9096 470.118 326.03 454.468 366.894 112.81 71.5752 63.6286 37.1799 54.6023 570.168 107.62 81.3919 48.7837 41.2346 836.742 61.8678 44.2584 25.2788 2068.55 124.367 27.5768 30.7352 445.801 697.3 17.6094 82.3491 15.6498 96.7899 32.4509 25.7611 35.0722 13.2004 32.6082 23.5104 22.1514 11.1012 73.2795 363.452 15.9558 8.9269 13.4501 68.899 17.7852 24.0618 94.896 9.7074 202.452 672.11
internal_count=1285287 435559 849728 226209 209350 195713 837603 30496 64832 833885 118464 113386 107628 130881 199500 69129 58076 57704 101781 120384 715421 27601 713211 24129 57216 42770 5758 33575 31798 712721 68823 43838 63168 7562 14238 23212 27015 5847 54717 41485 79116 26824 35208 8451 3718 54169 643898 5831 11216 14446 2210 61752 49508 9604 1612 8944 42953 1624 1370 3483 2275 26686 40279 40564 586 24947 13232 917 2895 4602 490 5078 694 4384 710 20173 2620 9844 414 2534 1777 2444 1988 688 427 361 215 314 3030 586 449 274 261 5758 375 264 155 14415 676 154 185 2354 3674 111 441 90 522 189 138 191 74 175 130 125 64 392 1913 106 58 74 367 112 129 509 52 1070 4774
cat_boundaries=0 1 2 3 4
cat_threshold=2 4 1 1
is_linear=0
shrinkage=0.03


Tree=4
num_leaves=128
num_cat=9
split_feature=21 13 23 13 23 14 22 17 23 21 14 21 14 13 13 23 24 22 14 13 21 24 16 19 17 13 21 24 13 22 22 13 21 24 15 16 23 13 14 13 17 13 13 22 13 14 23 23 15 22 23 24 13 13 13 21 13 13 15 14 13 15 23 15 14 21 22 13 22 14 14 14 24 17 14 13 16 13 14 3 23 23 24 21 13 23 13 24 13 2 23 24 2 14 17 23 2 23 23 14 15 2 23 13 23 22 23 24 13 2 2 13 24 23 3 23 6 24 24 24 13 2 23 3 24 23 13
split_gain=189118 69633.2 46710.5 33464 24256.5 14405.9 10408.9 7544.09 6923.39 6561.17 13240.5 8578.12 5028.67 4539.71 4180.48 3033.46 2747.7 2631.35 2615.11 1962.78 1748.95 1622.28 2072.47 1368.39 1230.05 1140.97 1055.04 1052.94 1049.28 1040.46 4880.13 1000.4 972.312 966.659 879.116 813.412 632.684 597.788 593.946 542.738 507.945 393.208 372.19 356.665 340.726 287.052 260.104 219.086 197.285 194.354 180.232 236.852 180.008 168.244 182.732 165.085 144.921 143.178 127.438 121.038 110.933 103.555 102.462 87.8151 81.057 75.1197 69.4344 62.4546 49.9829 42.3862 40.2205 39.2341 38.5364 38.3364 37.0126 36.1178 64.7442 41.4059 81.0375 34.541 31.0317 29.3325 50.1996 25.6809 25.0646 23.8204 22.8238 20.8866 27.5674 19.3798 18.3058 26.2621 17.4498 15.9847 15.2217 11.9222 11.8356 10.458 10.1154 10.0568 8.68624 7.89632 7.64376 6.97672 6.74328 8.03438 6.61993 8.27988 6.50598 5.65507 5.53578 5.09684 4.03429 7.52714 3.64529 2.60743 5.03639 2.53087 2.48595 2.4682 2.42281 2.35366 1.9133 1.83861 1.65991 1.60427 1.26338
threshold=79.613822731568519 0.79999998606060652 1.0000000180025095e-35 0.99999999765530523 1.0000000180025095e-35 0.87014081456015624 110.63296812257764 1.0000000180025095e-35 1.0000000180025095e-35 120.44428119396316 0.98457233236629393 107.68895300303744 0.9031466871300825 0.71641790599242616 0.99999986607144675 1.0000000180025095e-35 1.0000000180025095e-35 836.53308408257817 0.81477081226199377 0.78134607148098467 63.101496674466041 1.0000000180025095e-35 1.0000000180025095e-35 1.0000000180025095e-35 1.0000000180025095e-35 0.99999992582418151 76.688179792413692 1.0000000180025095e-35 0.99999992582418151 253.82412118915818 212.87920415677254 0.83060514980230438 9.9768382870564256 1.0000000180025095e-35 0 1.0000000180025095e-35 2.5000000000000004 0.54999997937500089 0.75920502495700981 0.79401221615774664 1.0000000180025095e-35 0.66666666324462354 0.89977445256057276 684.08479631930084 0.99999999949367824 0.78272831775967078 1.5000000000000002 2.5000000000000004 1 604.66811411848346 1.0000000180025095e-35 1.0000000180025095e-35 1.0000000180025095e-35 0.78017908410509695 0.75372026711762607 6.0166116010522908 0.95710970424219022 0.55999999253333355 2 0.79426074414525039 1.0000000180025095e-35 3 1.0000000180025095e-35 4 0.78787876997245243 45.965915949752358 2.5950363673275398 0.78017908410509695 31.642726392012694 0.99999999911776294 0.80278459091898868 0.83712951242391853 1.0000000180025095e-35 1.0000000180025095e-35 0.71676706526067857 0.99999999524937955 1.0000000180025095e-35 0.99999999840890108 0.99999999911776294 5 4.5000000000000009 1.0000000180025095e-35 1.0000000180025095e-35 42.207888004005504 0.33333325000002317 3.5000000000000004 0.99999999569890508 1.0000000180025095e-35 0.86754631747565758 22.500000000000004 1.0000000180025095e-35 1.0000000180025095e-35 36.500000000000007 0.99731514562637058 1.0000000180025095e-35 2.5000000000000004 38.500000000000007 6.5000000000000009 1.5000000000000002 0.99999999911776294 6 36.500000000000007 1.5000000000000002 0.99999999827734587 3.5000000000000004 599.01760382031318 1.0000000180025095e-35 3.5000000000000004 0.99999999713876397 43.500000000000007 43.500000000000007 0.90339699684945696 2.5000000000000004 1.5000000000000002 7 2.5000000000000004 1.0000000180025095e-35 1.0000000180025095e-35 2.5000000000000004 1.5000000000000002 0.99999999713876397 27.500000000000004 4.5000000000000009 8 1.5000000000000002 1.5000000000000002 1.0000000180025095e-35
decision_type=2 2 2 2 2 2 2 2 2 2 2 2 2 2 2 2 2 2 2 2 2 2 2 2 2 2 2 2 2 2 2 2 2 2 1 2 2 2 2 2 2 2 2 2 2 2 2 2 1 2 2 2 2 2 2 2 2 2 1 2 2 1 2 1 2 2 2 2 2 2 2 2 2 2 2 2 2 2 2 9 2 2 2 2 2 2 2 2 2 2 2 2 2 2 2 2 2 2 2 2 1 2 2 2 2 2 2 2 2 2 2 2 2 2 9 2 2 2 2 2 2 2 2 9 2 2 2
left_child=1 4 -2 5 -1 8 42 69 -3 10 11 12 39 27 15 -7 36 -14 25 49 90 46 24 29 64 38 62 57 33 30 -21 59 -18 -20 45 37 -17 60 -10 -8 -39 52 87 -36 -31 -24 58 -26 -43 53 -16 55 -37 54 -11 -52 -33 84 70 -13 -29 71 -22 73 -23 -65 -53 79 -27 81 -15 -48 89 -59 -60 76 101 108 -79 -51 -63 -5 85 -84 126 -83 -30 94 96 -25 -9 95 106 100 98 -92 97 -89 -4 -93 111 -12 -86 120 -28 -106 -71 -108 -77 119 124 114 113 -94 -44 116 -96 -64 -98 -102 -95 -113 -112 -100 -105 -78 -6
right_child=2 3 6 7 13 14 9 20 18 19 75 31 17 21 50 16 32 -19 28 23 26 22 34 72 47 68 104 35 86 44 -32 56 -34 -35 43 41 -38 40 -40 -41 -42 48 93 -45 -46 -47 61 -49 -50 67 51 66 -54 -55 -56 -57 -58 63 74 -61 -62 80 117 65 -66 -67 -68 -69 -70 92 -72 -73 -74 -75 -76 77 125 78 -80 -81 -82 82 83 -85 102 -87 -88 88 -90 -91 91 99 112 103 115 -97 118 -99 123 -101 109 -103 -104 110 105 -107 107 -109 -110 -111 122 121 -114 -115 -116 -117 -118 -119 -120 -121 -122 -123 -124 -125 -126 -127 -128
leaf_value=0.10634436054044867 0.10634436054044867 0.10634436054044867 0.064805403801860575 0.10651357135593306 -0.035894671187412262 0.10634436054044867 0.016144246352574446 0.10634436054044867 -0.0029078948391635566 0.001021258804780915 0.05334831406651909 -0.0037685427718319631 -0.027343674922727178 -0.010885626086474615 0.10634436054044867 0.053015749986344791 0.060716177854020233 0.11947875184893006 0.022793446006932113 -0.024748761434320483 0.10634436054044867 0.065242392436568861 -0.0044825454990230886 0.094477840312244918 0.051674108924607776 0.058936786862417226 0.10313268851051988 -0.036146431612859575 0.1016217399701483 -0.030930525559226475 0.087385563052473331 0.074905120418744531 0.083144712433730963 0.052496247043443807 0.019904726213970245 -0.035894414741964802 0.021670632457810243 0.05570308182831659 0.022509893537077087 0.061462507504933192 0.01113267392904742 -0.0092369112459953651 0.066858543841172249 0.10103307518004688 0.06261261107765867 0.01404327741153666 -0.021916524034596572 0.023323778080534811 0.0046861602587356275 0.026652712799680206 0.066592414033788655 0.076166025844143878 -0.014235160409841782 -0.035894671187412262 0.056254377277334643 0.091365261127108771 0.10275151214622345 -0.027006077970462138 -0.011036866816625194 0.036995870801121905 -0.0078204084899811087 -0.0027248209604890886 -0.035213088560018126 -0.014777915255359755 0.089796994792965115 0.02574845029111068 0.09976728263028134 0.10634436054044867 0.099172220267529768 0.10634436054044867 0.0094901717880113354 -0.0049680601311812922 0.10109680718159396 -0.018370278744835954 0.018033423504438369 0.10487255586044715 0.10030995916107635 -0.035894671187412262 0.087881678698165655 0.071277670413207594 -0.013506194893805269 0.072900416101433024 0.050483016183117707 0.093842729231255834 -0.023474571772800955 0.027130227540841302 0.082866156148674694 0.05807653029308351 0.094323876827939926 0.048041966349857496 0.070636355760539463 0.067551177783404026 0.051349668185192078 0.10648236833726209 -0.018877437715604233 0.034904503618130571 0.0084607597037149387 0.026077395256970521 0.034794516042038731 0.095846714309506406 0.068825627018820071 0.019443151566201231 -0.029250067663460624 0.091015003562472788 0.064728819479882918 0.10867201229155002 0.054108735923562037 0.087149573931653845 0.099111794653601801 0.044777227770650976 0.08372715715266954 0.089448429287340078 0.053501080760814501 -0.005429667163426099 0.090340163627217959 -0.014856208967641057 0.027333724347895452 -0.033637071127946033 0.0310560493601689 0.08839301129092382 0.10078761188599845 0.10034172074503629 0.060654613708560526 0.01548304533101239 0.10013563107139699 0.091432710471438333 -0.03275696752156982
leaf_weight=1994.8282912373543 2455.5627442896366 1476.7804974317551 7.7786913514137295 97.923830062150955 506.87406823039055 2214.765704870224 393.41178068518639 24.504997283220291 1268.0117485821247 87.928501233458519 23.119830429553989 85.134387731552124 14211.690035060048 348.40398328006268 2470.1442302763462 1308.053103402257 2549.4212851822376 110.71506071090698 1272.7169283628464 9459.5440093427896 4.6579746901988974 172.59000834822655 2721.5680330991745 11.552146106958388 322.6085392087698 34.439696565270424 40.004719004034996 157.89769402146339 297.56035549938679 89487.166394144297 362.69108524918556 331.77347265183926 5476.3592342585325 4378.7508591264486 3886.45116096735 367.00301015377045 1040.5972124040127 275.67197741568089 2381.1065972447395 601.45818807184696 1392.873274192214 2109.4525149464607 10.108071088790894 49.390352785587311 35.058594793081284 1040.5470278710127 901.10160487890244 1024.0636955499649 1618.8508869111538 22.542950108647346 291.72298127412796 113.80050660669804 5850.4562220424414 34.862175285816193 139.3323870152235 1423.3033803552389 341.17280420660973 1202.5250364243984 42.858555734157562 285.02896332740784 587.09166970849037 715.65735784173012 1889.9729619920254 1131.457258567214 404.73860538005829 42.718498006463051 7918.0489615947008 34.833549857139587 143.85563290119171 4.8604953289031974 116.2907749414444 142.3451212644577 54.935938209295273 751.93671987950802 491.00139002501965 294.76109732687473 24.193990007042885 4.9410957098007193 130.25141832232475 50.764280378818512 361.70671153068542 40.582200467586517 12.744386225938795 347.58677458763123 280.75105011463165 13.68427826464176 72.651395499706268 33.132386758923531 10.196715474128721 26.980588898062706 21.508575037121773 14.859138593077658 3.9344360530376417 87.015301585197449 3.4433033466339094 13.793624073266981 8.4097121357917803 12.721455380320547 7.8530601859092712 47.262890338897705 10.176830545067792 8.4384923130273801 777.08168837428093 32.954488649964333 10.581774085760118 5.7955758422613135 15.784831047058107 12.026843935251234 439.54320532083511 4.9688527435064307 8.9483577907085401 28.088292166590691 5.8117462992668143 4.5100791305303574 14.464254781603813 6.960399627685546 5.5339809954166412 1781.4155821502209 9.1506196260452253 13.49531430006027 295.81919831037521 48.979785919189453 5.0659895986318579 10.200742244720461 39.466211840510368 75.484613656997681 149.57243666052818
leaf_count=9850 12125 7292 43 484 3693 10936 2466 121 8429 581 132 528 101068 2411 12197 7587 13855 713 7883 66877 23 954 18232 60 1908 189 199 1119 1527 643703 1946 1777 29320 24830 24422 2674 6422 1606 14783 3381 8933 14234 54 310 195 6751 6306 6277 10476 131 1588 597 40279 254 789 7336 1706 8508 281 1747 3942 4805 13719 7803 2138 285 39830 172 728 24 762 965 275 5230 3115 1461 123 36 674 283 2476 223 72 1781 1980 79 384 189 52 155 118 82 21 430 24 78 51 79 48 245 55 53 5544 168 56 29 89 64 2213 28 47 144 32 26 76 48 34 12931 56 71 1483 248 27 64 199 386 1081
internal_value=0 0.0381821 -0.0231576 0.0642791 0.00505185 0.0738048 -0.0258551 -0.0136997 0.0457705 -0.0265515 -0.00952991 -0.0160095 -0.0216784 -0.00169623 0.0866045 0.0744724 0.0676682 -0.0262087 0.036688 -0.0295123 -0.0286421 0.0118765 0.0179716 -0.029769 0.0458212 0.0172982 -0.0322947 -0.0117493 0.0490123 -0.0298769 -0.0206081 0.0672332 0.0760202 0.0458071 0.011011 -0.00710321 0.0391279 0.00852006 0.0136776 0.0435418 0.0184965 -0.0108945 0.0882672 0.0209228 -0.0308939 0.000641431 -0.00692419 0.0301154 -0.00319143 0.0394314 0.0991062 0.0972719 -0.0155137 0.0254708 0.0348844 0.0871514 0.0890228 -0.0236063 0.00570067 0.0276204 -0.013824 -0.0128684 -0.03427 -0.019788 0.0824565 -0.0133035 0.0994329 0.0732706 0.0914003 0.0892473 -0.00578654 -0.0196044 0.084964 -0.0236836 0.0156996 0.096401 0.0817311 0.0986152 0.0833578 0.0575549 -0.00634448 0.091746 0.0882581 0.0923092 -0.0305748 0.0613586 0.0979411 0.0389252 0.0485402 0.0619635 0.0831668 0.0773369 0.0619581 0.0977629 0.0219808 0.0566749 0.0411784 0.0491989 0.0362057 0.0890786 0.0884661 0.0442823 -0.0277172 0.100344 0.0964945 0.0802793 0.0740422 0.0683969 0.101424 0.0738735 0.0926456 0.0925782 0.0342641 0.0210247 0.0806808 -0.00107554 0.00960909 -0.0344484 0.0202351 0.0799808 0.102082 0.0963715 0.0753868 0.0238832 0.0959854 0.0935874 -0.0351797
internal_weight=0 72484.3 120340 40545.9 31938.4 36132.1 117884 4413.81 11325.9 117169 17361.1 16360.4 15317.3 29943.5 24806.2 12589.2 10374.4 14322.4 9849.09 99808.2 3854.36 12741.3 9621.96 99437.9 1924 3827.41 3732.43 17202.2 6021.68 99344.5 9822.24 1043.11 8025.78 5651.47 7697.96 12359.3 2348.65 2413.53 3649.12 994.87 1668.55 9945.76 714.932 3935.84 89522.2 3762.12 3119.37 1346.67 3728.3 370.264 12217 9746.88 6217.46 262.123 227.261 1715.03 672.946 4842.92 998.555 370.163 744.989 2120.81 3676.05 3128.64 577.329 1174.18 8031.85 108.141 178.295 559.45 464.695 1043.45 93.4687 1954.46 533.86 1000.73 131.237 869.497 135.193 73.3072 1077.36 512.521 414.598 360.331 1714.28 54.2665 370.212 115.381 73.6109 38.5327 121.929 97.4242 46.9284 599.551 41.7702 35.3022 63.4142 45.8538 25.8325 62.122 130.281 31.5583 1057.83 469.27 56.3821 16.3773 32.6722 27.8117 734.304 28.641 86.435 101.64 14.2563 8.44452 24.5723 15.9377 8.97728 3671.39 17.5603 23.6721 382.834 77.0681 14.0143 18.0538 72.4207 99.6786 656.447
internal_count=1285287 435559 849728 226209 209350 195713 837603 30496 66045 833885 118464 113386 107628 199500 129668 68120 57184 101781 58753 715421 27601 82113 60992 713211 11277 24129 26957 117387 34624 712721 68823 5758 43175 32713 49715 83263 14009 15600 23212 5847 10539 67663 3718 24732 643898 24983 21121 8185 24710 2210 61548 49351 42953 1624 1370 8924 3483 34124 6569 2275 5061 14552 26673 21826 3092 8088 40427 586 917 2895 3173 7271 490 13738 3396 5078 694 4384 710 414 7281 2639 2155 1853 12298 302 1911 688 427 215 644 523 256 3030 261 196 375 268 155 327 676 185 7524 2354 284 85 177 153 3674 154 441 522 79 47 130 106 58 26650 107 126 1913 392 74 112 367 509 4774
cat_boundaries=0 1 2 3 4 5 6 7 8 9
cat_threshold=2 2 2 2 2 4 4 1 4
is_linear=0
shrinkage=0.03


Tree=5
num_leaves=128
num_cat=5
split_feature=21 13 23 13 23 14 22 17 21 14 21 23 14 13 13 23 18 24 14 13 15 21 19 24 16 22 14 24 16 13 21 16 13 14 17 15 24 16 24 13 23 23 24 24 20 13 13 13 16 16 23 22 23 24 13 13 13 13 21 22 23 13 22 17 13 23 14 23 17 13 24 23 13 16 13 14 24 21 22 24 21 13 23 24 23 24 14 23 24 17 14 13 17 2 23 23 23 14 15 2 24 13 23 22 23 24 24 2 13 23 13 2 2 2 24 2 23 3 13 2 2 24 21 13 13 1 24
split_gain=177120 62269.3 43016.4 29613.6 21780.1 12400.5 9666.29 6966.56 6423.63 12085.6 7971.79 5987 4753.66 4290.79 3665.01 2682.69 2535.89 2383.41 2272.55 1873.45 1869.37 1634.98 1277.12 1067.92 1037.8 1032.27 4535.85 1031.09 1588.96 1008.26 984.225 877.247 869.195 806.662 654.273 567.757 546.511 529.502 526.042 482.006 455.407 414.348 390.624 362.805 353.047 323.43 321.512 319.417 297.863 282.106 222.066 171.282 159.193 309.147 156.402 163.543 151.337 125.609 121.312 115.528 95.3324 70.6444 68.3803 66.1727 54.0435 43.1353 41.4611 40.3614 38.0892 37.4213 33.125 32.5134 30.8498 55.716 35.3058 71.4488 30.073 24.1479 19.7715 18.553 24.0229 18.158 17.7718 37.6271 17.5843 16.4036 15.8694 15.8254 22.4299 13.8662 13.7453 12.3676 10.7447 10.4868 10.3371 9.17629 8.93377 8.56412 7.3833 6.98153 6.21213 6.01471 5.7425 6.84548 5.52982 11.8094 5.17763 7.28754 5.14271 4.47858 4.37663 4.19542 5.02229 3.25852 2.55624 2.52873 2.47396 3.09762 2.26874 2.0525 1.76936 1.48369 1.37555 1.30435 1.27964 1.07821 0.983447
threshold=79.613822731568519 0.79999998606060652 1.0000000180025095e-35 0.99999999765530523 1.0000000180025095e-35 0.86747163056767762 110.63296812257764 1.0000000180025095e-35 120.44428119396316 0.98457233236629393 107.68895300303744 1.0000000180025095e-35 0.9031466871300825 0.66666666324462354 0.99999986607144675 1.0000000180025095e-35 1.0000000180025095e-35 1.0000000180025095e-35 0.7999999871794875 0.78134607148098467 0 63.101496674466041 1.0000000180025095e-35 1.0000000180025095e-35 1.0000000180025095e-35 253.82412118915818 0.91757534458195023 1.0000000180025095e-35 1.0000000180025095e-35 0.99999995742753811 76.688179792413692 1.0000000180025095e-35 0.83060514980230438 0.81060296299829748 1.0000000180025095e-35 1 1.0000000180025095e-35 1.0000000180025095e-35 1.0000000180025095e-35 0.87499991796875864 2.5000000000000004 1.5000000000000002 1.0000000180025095e-35 1.0000000180025095e-35 1.0000000180025095e-35 1.0000000180025095e-35 0.99999999949367824 0.89977445256057276 1.0000000180025095e-35 1.0000000180025095e-35 1.5000000000000002 604.66811411848346 1.5000000000000002 1.0000000180025095e-35 0.78017908410509695 0.75372026711762607 1.0000000180025095e-35 0.94218029111095125 2.2270761292210897 1477.073551988716 1.0000000180025095e-35 0.33333325000002317 3.9926549588801272 1.0000000180025095e-35 0.78017908410509695 1.5000000000000002 0.75337898964556949 2.5000000000000004 1.0000000180025095e-35 0.99999999840890108 1.0000000180025095e-35 1.0000000180025095e-35 0.99999999524937955 1.0000000180025095e-35 0.99999999840890108 0.99999999911776294 1.0000000180025095e-35 42.207888004005504 30.485436692713865 1.0000000180025095e-35 80.225469408804869 0.93318449165708039 1.0000000180025095e-35 1.0000000180025095e-35 1.0000000180025095e-35 3.5000000000000004 0.75842802764572226 1.0000000180025095e-35 1.0000000180025095e-35 1.0000000180025095e-35 0.99731514562637058 0.57142853741496824 1.0000000180025095e-35 38.500000000000007 2.5000000000000004 6.5000000000000009 1.5000000000000002 0.99999999911776294 2 36.500000000000007 1.0000000180025095e-35 0.99999999790975025 3.5000000000000004 599.01760382031318 1.5000000000000002 2.5000000000000004 1.0000000180025095e-35 43.500000000000007 0.99999999610134982 1.5000000000000002 0.90339699684945696 48.500000000000007 57.500000000000007 34.500000000000007 1.0000000180025095e-35 48.500000000000007 4.5000000000000009 3 0.79999998606060652 25.500000000000004 23.500000000000004 1.0000000180025095e-35 92.908027999526425 0.99999999713876397 1.0000000180025095e-35 4 1.0000000180025095e-35
decision_type=2 2 2 2 2 2 2 2 2 2 2 2 2 2 2 2 2 2 2 2 1 2 2 2 2 2 2 2 2 2 2 2 2 2 2 1 2 2 2 2 2 2 2 2 2 2 2 2 2 2 2 2 2 2 2 2 2 2 2 2 2 2 2 2 2 2 2 2 2 2 2 2 2 2 2 2 2 2 2 2 2 2 2 2 2 2 2 2 2 2 2 2 2 2 2 2 2 2 1 2 2 2 2 2 2 2 2 2 2 2 2 2 2 2 2 2 2 9 2 2 2 2 2 2 2 1 2
left_child=1 4 -2 5 -1 11 47 69 9 10 12 -3 39 38 15 -7 -14 35 29 51 33 87 25 41 -25 26 -21 50 34 43 60 -19 59 36 -29 -17 63 -38 61 -8 -30 -20 67 -13 45 -40 -27 79 -47 -44 66 54 71 58 55 -10 -46 -34 -54 -12 -23 124 -55 -15 76 91 -22 -35 -52 77 81 -16 73 99 100 -76 -53 104 -73 89 125 -24 -79 -84 -71 109 -58 -9 94 96 98 -63 -67 95 -89 -82 -4 -90 110 -11 -74 123 -32 -104 -5 -106 -100 -108 -31 -86 113 122 -113 -49 -62 -87 117 -91 -95 -112 -98 -75 -103 -92 -6 -81 -125
right_child=2 3 6 7 13 14 8 21 19 72 32 18 16 20 52 17 -18 31 23 22 27 30 70 24 -26 46 -28 28 40 108 102 -33 57 42 -36 -37 37 -39 44 -41 -42 -43 49 -45 56 48 -48 90 -50 -51 68 64 53 62 -56 -57 86 -59 -60 -61 114 65 -64 -65 -66 92 -68 -69 -70 84 -72 78 74 121 75 -77 -78 82 -80 80 93 -83 83 -85 85 115 -88 88 97 116 101 -93 -94 118 -96 -97 120 -99 106 -101 -102 111 103 -105 105 -107 107 -109 -110 -111 119 112 -114 -115 -116 -117 -118 -119 -120 -121 -122 -123 -124 126 -126 -127 -128
leaf_value=0.098642354044209235 0.098642354044209235 0.098642354044209235 0.060770377583700005 0.078701801155318218 -0.035686834483566417 0.098642354044209235 0.02968817284823538 0.098642354044209235 0.00098997445944992279 0.05026178082271774 0.022775761091050672 -0.010244911635345471 -0.02712683945260538 -0.024202042521006578 0.098642354044209235 0.060681908021828587 0.10403397846012417 0.083759335592592021 0.043121581097302089 0.076621388266834706 0.0023873671873341023 0.098642354044209235 0.035848285209560564 0.072136384634893899 0.042172812659374205 -0.030641104018556849 -0.024632934422807611 0.079875072654466236 0.028176172955083244 0.094181851070638242 0.095718491177122694 0.063582980636166228 0.068435250474018203 0.0035152183926326179 0.036171650161405756 0.028223385533514726 0.018348933942717784 -0.0052851090685753048 -0.035748667666201293 0.078114946438495619 0.0097623794574865728 0.010583299850957491 0.05170775552727018 0.014485898350104248 -0.036263560722534963 0.0010335953546445537 0.058763855824032207 0.082390863151809268 -0.013938319611477075 0.017674474120758652 -0.011087388469585711 0.033307449067960938 0.034457714692966476 0.075538577471778334 -0.035686834483566417 0.052933479840974726 0.075967919705442213 0.094053267581612851 0.076931755365190202 0.10357154222207318 -0.034990822591354651 -0.022883076098448411 0.092274400399608034 -0.012468122998834402 0.098642354044209235 -0.02813064267708101 0.017600213064152059 -0.015894718176850696 -0.00037010802081896235 0.099205522896242931 0.093849706254676937 0.08936181523719712 0.088070810417551479 0.077641882594592301 -0.035686834483566417 0.08182116517777073 0.071338295942541943 0.098630734292458694 0.095592605812856529 0.079940784014636973 0.054581172384538995 0.07659260267593028 0.060958552861165208 0.087911930679740666 0.058855906292464233 0.079737638090536953 0.1136292190256557 0.066081122862486935 0.063275705015722147 -0.0069863253352593331 0.098756951535051693 -0.015247161333462649 -0.02366249607299523 0.011512993270092909 0.03322571432859267 0.024901671883839356 0.036857274166450051 0.088912753588715074 0.039571986730650925 0.018637921689351512 0.095347331422939274 0.08808764422567382 0.0608306165451791 0.1005714449615992 -0.001953059953085064 0.060780334989953305 0.08168809138447275 0.038376797725579913 0.064164012297800554 0.035421508641752322 0.081189766875631425 0.070683977428160655 0.099446521969284413 0.059153229235613308 -0.033388437102835192 0.0552503472664728 -0.02139131165407554 0.024115565028120775 0.033975836596335532 0.092275174548279243 0.016633820846049894 0.088377098313700608 0.093734553791725364 0.087511285465882188 -0.032493197041687572 0.099472449348978476 0.095062621830948019
leaf_weight=2084.6002832055092 2566.0688765347004 1508.5310475826263 8.0421017259359378 4.5080787539482143 494.71502722799778 2339.1966426670551 775.52413460612297 25.607780128717422 87.984922647476196 23.792685806751251 359.49432680010796 735.72615665197372 13940.617005810142 1187.0096745342016 2591.2533875703812 667.84687009453773 133.94222965836525 3012.421860024333 535.50787042081356 416.04954321682453 243.87940208613873 4.8675945699214926 17.929266527295113 1397.261337146163 4072.4851112514734 87650.294115900993 9268.1490337103605 482.5046773403883 1762.839181214571 125.59255813062191 41.781330063939095 5445.1180673390627 305.27185863256454 193.41801583766937 853.89961895346642 1771.5438576638699 1019.3646683096886 5232.8496159017086 501.77287109196186 242.9221059679985 3846.2004004567862 1029.1007275879383 336.85872668027878 1945.9193434417248 10.573857158422468 1506.8033864051104 36.215596944093704 17.700817406177524 5796.6248850226402 627.59987342357635 1021.4271696805954 34.15397022664547 64.437005117535591 227.07773168385029 34.02589139342308 143.56394876539707 25.916389256715775 395.32128620147705 995.54718710482121 16.666148588061333 1845.5899884849787 305.12661023437977 6785.9744675308466 680.53824011981487 36.401142001152039 1177.9046287834644 475.80725486576557 192.25985857844353 421.65760731697083 9.9145528525114042 57.363195836544037 667.70207437872887 126.44337777793407 13.284880071878431 4.8225672841072074 135.61527195572853 41.392325878143311 96.511754035949707 1461.8405617624521 6.4206566810607892 34.179808244109154 21.829959094524384 53.848373085260391 346.96822316944599 10.630986437201498 19.417171299457554 16.468256860971451 22.288962259888649 15.378916174173353 6.9952603727579117 90.943354964256287 509.93781530857086 822.67671366035938 11.535571038722994 14.051783263683317 12.919324681162832 5.6163555383682278 49.385731369256973 4.5159987807273891 8.5374281108379346 640.35471877455711 80.541252344846725 10.916724145412447 6.0700202137231818 4.058908447623252 8.0706993788480741 20.950212001800541 4.1968071162700644 5.3556354343891135 23.707031086087227 20.011377587914467 20.808839410543445 7.4091417342424384 7.8349044173955908 1741.445764541626 4.7175868302583686 4.0212022662162772 4.9013589173555356 6.233328551054 60.414233401417732 12.693237066268919 90.649204239249229 74.9540164321661 16.839307129383087 146.31238766014576 4.2126777768135071 198.4083713889122
leaf_count=9850 12125 7128 43 23 3693 11053 4548 121 581 132 2194 4727 101040 8473 12244 3886 741 15453 3217 2389 1612 23 99 7560 22884 643703 66434 2455 10831 612 199 28385 1586 1284 5107 10352 6212 35273 3719 1299 24377 6283 1887 12395 74 9856 195 89 40279 3944 6986 196 352 1134 254 789 150 1897 4969 81 13719 2183 32678 4759 172 8530 2990 1336 2858 47 275 3282 606 65 36 674 218 456 7093 32 189 116 290 1698 57 100 91 118 82 46 430 3575 5885 70 78 79 34 245 25 53 3068 391 56 29 23 44 106 23 26 132 99 103 36 41 12931 25 28 32 37 293 78 444 363 81 1081 20 950
internal_value=0 0.0363877 -0.0228489 0.0605188 0.00488572 0.0691474 -0.0255411 -0.0134732 -0.0262377 -0.00933758 -0.0157234 0.0429883 -0.0213497 -0.00165245 0.0805593 0.069492 -0.0258786 0.0632344 0.0344622 -0.0292108 0.00721765 -0.0283633 -0.0294692 0.0435754 0.0498271 -0.0295777 -0.0202829 0.0169211 0.0225537 0.0116701 -0.0320404 0.0707694 0.0631403 -0.00211516 0.0519506 0.0371098 -0.00568551 -0.0014318 -0.0162165 0.041239 0.0155496 0.02172 0.0193571 0.00770085 -0.0119263 -0.0124501 -0.0306042 0.0822967 -0.0108494 0.0295614 -0.00116724 0.03749 0.0920092 0.0894502 0.0243704 0.0331958 0.0652708 0.0828906 0.0743497 0.0263555 -0.0340329 -0.0259695 0.0917325 -0.0199262 0.0686138 -0.0239232 0.0124451 -0.00616061 -0.00795589 0.0831103 0.0792635 0.0963853 0.0896156 0.0763059 0.0916147 0.077786 0.0541448 0.0858843 0.093639 0.0369732 0.0458826 0.0582191 0.0870736 0.0842908 0.0622621 0.0559981 0.090601 0.077576 0.0722404 0.0210594 0.0908299 -0.0181057 -0.0262933 0.0390312 0.053377 0.0464401 0.0344138 0.082825 0.0823779 0.0419109 0.0941474 0.0931698 0.089739 0.0750316 0.0503319 0.039788 0.0691484 0.0744598 0.0929542 0.0426768 0.0860814 0.0888784 0.0782361 0.0752611 -0.0342129 0.0749511 -0.00104857 0.00582753 0.019393 0.0895169 0.0228372 0.0870049 0.0908096 0.0957446 -0.0349579 0.0876788 0.0944719
internal_weight=0 73722.7 118368 41745.2 31977.5 37385.4 115802 4359.74 115059 17213.3 16169.8 11355.5 15093 29892.9 26030 13236.1 14074.6 10896.9 9846.95 97845.4 18578.1 3777.38 97467.8 7034.36 5469.75 97370.7 9684.2 9108.22 6945.44 2812.59 3650.67 8457.54 1076.75 9469.9 1336.4 2439.39 8119.76 6252.21 11314.8 1018.45 5609.04 1564.61 1350.14 2681.65 7858.16 7805.2 87686.5 743.3 7303.43 964.459 2162.77 377.522 12793.8 8073.04 265.575 231.549 52.9585 700.593 1059.98 376.16 3591.9 3456.67 7013.05 1867.55 111.947 2815.65 719.687 385.678 1443.08 582.353 97.1224 4720.8 1043.5 136.264 907.236 140.438 75.5463 513.966 2129.54 117.771 75.5014 39.7592 497.328 400.817 68.3873 58.4728 42.3846 126.713 101.105 42.2695 625.529 815.064 2000.58 64.868 36.3407 47.0991 26.3517 64.7646 135.624 32.3301 766.798 489.904 58.7681 16.9867 16.6377 12.1296 29.663 25.147 130.948 34.338 105.961 183.713 28.218 25.5357 3587.04 24.1348 15.9178 11.8966 17.7689 80.4256 18.3096 103.934 155.495 306.191 641.027 10.6333 215.248
internal_count=1285287 435559 849728 226209 209350 195713 837603 30496 833885 118464 113386 64832 107628 199500 130881 69129 101781 58076 57704 715421 120384 27601 713211 39944 30444 712721 68823 57216 42770 17760 26957 43838 5758 63168 7562 14238 54717 41485 79116 5847 35208 9500 8451 17122 54169 53854 643898 3718 50135 5831 14446 2210 61752 39133 1624 1370 315 3483 5321 2275 26673 24947 33812 13232 586 20173 4602 2620 9844 2895 490 22619 5078 694 4384 710 414 2534 10375 688 427 215 2444 1988 361 314 241 644 523 261 3030 5758 14415 375 196 268 155 327 676 185 3674 2354 284 85 90 67 154 129 638 189 522 893 139 130 26650 125 106 78 107 392 112 509 754 1461 4774 52 1031
cat_boundaries=0 1 2 3 4 5
cat_threshold=2 4 4 4 1
is_linear=0
shrinkage=0.03


end of trees

feature_importances:
i_repurchase_ratio=188
purchase_cnt=141
purchase_cnt_cat=89
p_repurchase_ratio=78
age=50
i_pop=47
p_pop=47
index_group_no_2=33
index_group_no_1=30
season_type=24
user_gender=9
fashion_news_frequency_3=7
index_group_no_4=6
Active=5
index_group_no_3=4
index_group_no_5=4

parameters:
[boosting: gbdt]
[objective: binary]
[metric: auc]
[tree_learner: serial]
[device_type: cpu]
[data: ]
[valid: ]
[num_iterations: 200]
[learning_rate: 0.03]
[num_leaves: 128]
[num_threads: 0]
[deterministic: 0]
[force_col_wise: 0]
[force_row_wise: 0]
[histogram_pool_size: -1]
[max_depth: 8]
[min_data_in_leaf: 20]
[min_sum_hessian_in_leaf: 0.001]
[bagging_fraction: 1]
[pos_bagging_fraction: 1]
[neg_bagging_fraction: 1]
[bagging_freq: 0]
[bagging_seed: 3]
[feature_fraction: 1]
[feature_fraction_bynode: 1]
[feature_fraction_seed: 2]
[extra_trees: 0]
[extra_seed: 6]
[early_stopping_round: 30]
[first_metric_only: 0]
[max_delta_step: 0]
[lambda_l1: 0]
[lambda_l2: 0]
[linear_lambda: 0]
[min_gain_to_split: 0]
[drop_rate: 0.1]
[max_drop: 50]
[skip_drop: 0.5]
[xgboost_dart_mode: 0]
[uniform_drop: 0]
[drop_seed: 4]
[top_rate: 0.2]
[other_rate: 0.1]
[min_data_per_group: 100]
[max_cat_threshold: 32]
[cat_l2: 10]
[cat_smooth: 10]
[max_cat_to_onehot: 4]
[top_k: 20]
[monotone_constraints: ]
[monotone_constraints_method: basic]
[monotone_penalty: 0]
[feature_contri: ]
[forcedsplits_filename: ]
[refit_decay_rate: 0.9]
[cegb_tradeoff: 1]
[cegb_penalty_split: 0]
[cegb_penalty_feature_lazy: ]
[cegb_penalty_feature_coupled: ]
[path_smooth: 0]
[interaction_constraints: ]
[verbosity: -1]
[saved_feature_importance_type: 0]
[linear_tree: 0]
[max_bin: 255]
[max_bin_by_feature: ]
[min_data_in_bin: 3]
[bin_construct_sample_cnt: 200000]
[data_random_seed: 1]
[is_enable_sparse: 1]
[enable_bundle: 1]
[use_missing: 1]
[zero_as_missing: 0]
[feature_pre_filter: 1]
[pre_partition: 0]
[two_round: 0]
[header: 0]
[label_column: ]
[weight_column: ]
[group_column: ]
[ignore_column: ]
[categorical_feature: 0,1,3,15]
[forcedbins_filename: ]
[precise_float_parser: 0]
[objective_seed: 5]
[num_class: 1]
[is_unbalance: 0]
[scale_pos_weight: 1]
[sigmoid: 1]
[boost_from_average: 1]
[reg_sqrt: 0]
[alpha: 0.9]
[fair_c: 1]
[poisson_max_delta_step: 0.7]
[tweedie_variance_power: 1.5]
[lambdarank_truncation_level: 30]
[lambdarank_norm: 1]
[label_gain: ]
[eval_at: 12]
[multi_error_top_k: 1]
[auc_mu_weights: ]
[num_machines: 1]
[local_listen_port: 12400]
[time_out: 120]
[machine_list_filename: ]
[machines: ]
[gpu_platform_id: -1]
[gpu_device_id: -1]
[gpu_use_dp: 0]
[num_gpu: 1]

end of parameters

pandas_categorical:[[1, 2], [1, 2], [0.0, 1.0, 2.0], [0, 1, 2]]
