tree
version=v3
num_class=1
num_tree_per_iteration=1
label_index=0
max_feature_idx=24
objective=binary sigmoid:1
feature_names=FN Active age user_gender fashion_news_frequency_1 fashion_news_frequency_2 fashion_news_frequency_3 fashion_news_frequency_4 fashion_news_frequency_5 club_member_status_1 club_member_status_2 club_member_status_3 club_member_status_4 i_repurchase_ratio p_repurchase_ratio season_type index_group_no_1 index_group_no_2 index_group_no_3 index_group_no_4 index_group_no_5 i_pop p_pop purchase_cnt purchase_cnt_cat
feature_infos=-1:0:1 -1:0:1 [0:95] -1:0:2 [0:1] [0:1] [0:1] none [0:1] [0:1] [0:1] [0:1] [0:1] [0:0.99999999957044683] [0:0.99999999943534723] -1:0:2:1 [0:1] [0:1] [0:1] [0:1] [0:1] [0.0064935064935064939:379.57121273832161] [0.007874015748031496:1476.816409131573] [0:156] [0:109]
tree_sizes=13816 14300 14075 14273 14238 14197 14181 14266 14224 14213 14232 14223 14207 14210 14224 14269 14239 14214 14289 14240 13862 14232 14289 14226 14276 14246 14247 14252 14224 14168 14204 14204 14238 14299 14163 14219 14211 14222 14251 14235 14210 14177 14259 14187 14208 14228 14230 14267 14159 14207 14187 13964 14248 14215 14144 14226 14185 14226 14237 14210 14203 14148 14212 14160 14194 14238 14159 14170 14184 14196 14238 14157 14261 14176 14184 14276 14234 14200 14222 13867 14199 14202 14202 14171 14230 14222 14223 14223 14219 14163 14165 14193 14246 14225 14236 14241 14173 14181 14084 14221 14248 14042 14219 14153 14098 14143 14125 14169 13892 14116 14199 14042 14147 14091 14105 14061 14159 14012 14087 14143 12251 14033 14130 13181 12708 12734 12780 12711 12681 12908 12976 13227 12722 13968 14056 13661 13989 12810 12777 13262 13528 13570 13097 12822 13208 12515 12256 13209 13126 11807 13353 11948 12162 12690 11834 12598 12940 12425 14021 12593 12687 13169 12576 12571 13672 12505 12763 14006 13731 14019 11868 13138 12449 12627 11920 13231 11889 12377 12768 13056 12636 11798 11501 12435 13983 11838 13871 11842 12175 14178 10627 10869 11001 12139 11835 12588 13915 11353 10866 11383

Tree=0
num_leaves=128
num_cat=6
split_feature=23 13 13 23 23 13 23 13 23 13 13 24 23 23 23 13 13 13 13 13 14 13 13 21 14 21 24 24 13 21 23 23 13 13 23 24 23 13 16 13 13 24 13 21 17 23 13 21 21 23 14 14 21 14 15 13 24 13 21 23 21 14 23 16 13 21 13 14 14 14 16 13 15 13 16 21 23 15 23 23 15 14 21 13 22 13 19 24 24 20 24 22 15 13 20 13 13 20 21 21 13 23 14 14 14 24 21 23 21 13 23 8 21 15 23 14 23 14 14 24 22 17 21 14 14 13 22
split_gain=156185 92696.4 60630.4 58468.8 25185.4 9211.76 9283.83 7284.65 6570.48 7174.93 4145.74 3873.37 3274.66 2629.07 2494.32 2336.91 2296.04 1908.84 1646.84 1583.37 1384.92 1309.61 1232.06 2503.62 1113.68 1071.46 1058.58 1057 1024.56 1702.13 992.949 945.475 919.516 893.314 889.064 830.317 808.077 802.65 749.04 745.562 726.035 699.741 692.57 2038.67 630.296 622.952 539.093 494.629 494.381 645.747 569.367 461.256 459.672 448.175 447.009 433.171 408.088 422.562 622.293 402.192 397.889 389.068 388.962 373.052 359.415 338.431 336.623 323.947 322.319 286.285 283.263 281.672 272.969 265.802 256.653 252.545 245.793 237.447 236.455 236.293 235.809 542.421 608.38 347.855 253.416 230.254 221.742 212.406 200.487 200.461 193.823 192.753 188.164 179.58 172.94 172.614 168.811 164.898 163.959 162.296 149.355 286.998 168.812 148.336 144.801 138.241 130.405 124.433 124.314 123.687 122.266 119.806 119.423 113.883 111.224 107.838 107.726 105.557 102.275 96.4342 95.591 94.0568 93.6672 91.0511 88.9576 88.8472 88.6602
threshold=3.5000000000000004 0.8465155565344592 0.91947948817867442 1.0000000180025095e-35 9.5000000000000018 0.92862041635540804 1.0000000180025095e-35 0.69230768848429691 8.5000000000000018 0.82926827751338539 0.99999977500005133 1.0000000180025095e-35 15.500000000000002 1.5000000000000002 5.5000000000000009 1.0000000180025095e-35 0.99999992582418151 0.9981512134111219 0.79999999134502942 1.0000000180025095e-35 0.79215652612617915 0.9981512134111219 0.99999999737876355 62.279762196791488 0.83504329475331074 42.617419264451847 1.0000000180025095e-35 1.0000000180025095e-35 0.99999999737876355 46.599126071205283 5.5000000000000009 13.500000000000002 0.99999999033793896 0.80327867864821312 5.5000000000000009 1.0000000180025095e-35 1.5000000000000002 0.83478655728251516 1.0000000180025095e-35 0.9999999937885804 0.7728265157964298 1.0000000180025095e-35 0.99999999737876355 55.802371259242683 1.0000000180025095e-35 1.5000000000000002 0.99999999706734799 81.560494903703116 3.9976381101665877 1.0000000180025095e-35 0.83388122484379623 0.87818069391486098 29.179914276998907 0.7198900935126924 0 0.89999997975000057 1.0000000180025095e-35 0.99999999737876355 46.599126071205283 1.5000000000000002 75.16103584445689 0.80363855140031959 5.5000000000000009 1.0000000180025095e-35 1.0000000180025095e-35 81.560494903703116 0.99999999848599475 0.87818069391486098 0.8714487463008479 0.88996173830034786 1.0000000180025095e-35 0.99999999616852631 1 0.75431161964018967 1.0000000180025095e-35 129.87596334737404 1.5000000000000002 2 1.5000000000000002 2.5000000000000004 3 0.78340207337090628 35.882604335600142 0.84538571998121137 73.100408090323143 0.99999999839739895 1.0000000180025095e-35 1.0000000180025095e-35 1.0000000180025095e-35 1.0000000180025095e-35 6.5000000000000009 63.238583681076754 4 0.99999999794871586 1.0000000180025095e-35 0.87603716421238487 0.89695110288520496 1.0000000180025095e-35 37.930979661464256 107.73664848278383 0.99089988683057129 1.0000000180025095e-35 0.7873433152467727 0.71661021941776892 0.74999999688358532 1.5000000000000002 14.870093868102243 11.500000000000002 10.374122436646049 0.62238672486892122 16.500000000000004 1.0000000180025095e-35 4.3210550753095456 5 10.500000000000002 0.78474428097868631 25.500000000000004 0.79673463720508575 0.79673463720508575 1.5000000000000002 43.892503927846327 1.0000000180025095e-35 1.4638265436056341 0.93640669455258752 0.79415183464528949 1.0000000180025095e-35 7.852559809981563
decision_type=2 2 2 2 2 2 2 2 2 2 2 2 2 2 2 2 2 2 2 2 2 2 2 2 2 2 2 2 2 2 2 2 2 2 2 2 2 2 2 2 2 2 2 2 2 2 2 2 2 2 2 2 2 2 1 2 2 2 2 2 2 2 2 2 2 2 2 2 2 2 2 2 1 2 2 2 2 1 2 2 1 2 2 2 2 2 2 2 2 2 2 2 1 2 2 2 2 2 2 2 2 2 2 2 2 2 2 2 2 2 2 2 2 1 2 2 2 2 2 2 2 2 2 2 2 2 2
left_child=1 3 8 -1 10 6 -3 15 9 19 30 33 17 48 56 -5 24 88 38 -2 95 105 23 32 115 41 73 55 29 39 61 37 -23 59 51 122 70 64 44 -16 54 -17 43 -37 -13 74 -25 93 49 -7 -51 104 -40 -27 -28 76 112 58 -58 103 -44 126 -42 -43 -10 -59 -49 -36 -38 117 -29 -31 123 -21 -20 -24 -22 90 118 -18 81 82 84 125 -33 -77 -47 113 -6 -52 -66 -83 -63 -30 -79 -8 -53 -89 -57 -61 101 -50 -103 -9 -11 -14 -74 -39 -97 -55 -85 -94 -12 -71 -90 -15 -107 -32 -35 -81 -84 -69 -19 -26 -80 -82 -4
right_child=2 5 4 7 12 13 20 11 31 34 14 18 21 16 28 25 79 35 45 26 27 22 75 46 72 53 40 36 47 71 69 80 -34 78 67 42 68 107 52 -41 62 63 60 -45 -46 86 -48 66 100 50 89 96 -54 109 -56 98 57 65 -60 99 -62 92 -64 -65 77 -67 -68 121 -70 87 -72 -73 106 -75 -76 85 -78 94 124 119 83 91 120 110 -86 -87 -88 97 114 -91 -92 -93 111 -95 -96 108 -98 -99 -100 -101 -102 102 -104 -105 -106 116 -108 -109 -110 -111 -112 -113 -114 -115 -116 -117 -118 -119 -120 -121 -122 -123 -124 -125 -126 -127 -128
leaf_value=0.32461570075203788 0.20238651676477476 0.32461570075203788 0.27360127942402052 0.20238651676477476 0.28293917305826755 0.32461570075203788 0.24588349345589433 0.23488045125734788 0.20238651676477476 0.24100351701881517 0.29852725831997379 0.28724308267233101 0.26184529468961332 0.24784521019213651 0.28938588938974463 0.22996579217553942 0.31958707746791043 0.28375914900142069 0.3008159513348847 0.22552563016778551 0.28090814313467211 0.2620331998216831 0.23467772353100166 0.3077163141697703 0.29973505658071753 0.31264548686862798 0.24637883633178376 0.31258036754671858 0.27205911148546752 0.31686639308939274 0.24087744907567168 0.23751444194504229 0.24385759024609568 0.25042735902801994 0.25224852367071982 0.26789173914721054 0.28139047103688236 0.24904591326827574 0.25545003497945618 0.27131770795025234 0.2550621636303384 0.25517104966075882 0.24325094834988403 0.30280829127413411 0.26475034134371295 0.27016211211731883 0.25691351666517603 0.29088627021857139 0.32461570075203788 0.25740160936178164 0.29775277324968247 0.27120490615575354 0.26621762627928641 0.32461570075203788 0.23838171376810174 0.28172369137114156 0.29964875194190832 0.2785868613314969 0.31641403186810324 0.23542301728557607 0.26451952050008953 0.29113486337425837 0.24548118424507148 0.24101498228925236 0.23660401820295537 0.29823686293293417 0.27316903903183126 0.26408945621442204 0.29243718433204136 0.30535610739462155 0.29820487372643867 0.29994640375170661 0.29159342121166809 0.23819744767552026 0.28223102118545701 0.27859363812117466 0.26645746214194249 0.23392168402561478 0.23502296898405428 0.3172250082295151 0.20238651676477476 0.23614870461775528 0.22986439533555483 0.2415103991316159 0.25680069608871348 0.2447790133093575 0.29157904564905263 0.26959734592829532 0.25825243203721271 0.31904919753945299 0.24570633420470506 0.22534247491854442 0.2858125966721245 0.25314670492725572 0.25948447733314234 0.25658247570252352 0.28250041989377922 0.29025938957723957 0.30030147007462538 0.2580347753891129 0.32404870738614655 0.2508019727597296 0.31448795522346729 0.25112601659856582 0.26391886029193734 0.23933139098463557 0.30081980917444545 0.24188215011118092 0.28872300386688921 0.25728315420481029 0.23335109408504923 0.27611545769023815 0.32132931560201189 0.2777465944021088 0.2489980914286879 0.27306464742184489 0.23096216019781984 0.26124929206209085 0.26969439863062916 0.31064887883522835 0.28437491066486059 0.25472867928563625 0.31836291138198169 0.31017635204347016 0.25465958728631177 0.22820189176397501 0.2369857831315397
leaf_weight=13213.293220549822 871.55947294831276 8531.2688595354557 87.622284382581711 1523.2041929364204 182.11690479516983 1775.2716608941555 671.77084693312645 577.0307859480381 274.15711948275566 258.69436341524124 248.38585937023163 1679.304397046566 199.29774487018585 318.09098196029663 8329.0258277952671 4545.8048432767391 10523.755427092314 88.113165527582169 910.09364283084869 3204.9629957079887 2131.8968127369881 5385.2116012275219 2928.3514705002308 1029.6232016384602 993.54343748092651 225.55988612771034 11073.296868920326 1807.1789353191853 918.43862229585648 1858.2305743992329 293.05604356527328 4801.3084792494774 4683.987885594368 289.12899440526962 6399.8629279434681 9654.6503598690033 3549.3161189258099 6867.4272185564041 10847.000661075115 2728.8082850575447 7360.5173287093639 2182.4575706720352 1071.1026583909988 1782.8803186416626 3374.0715501606464 6589.0976093411446 229.97781643271446 1874.9205333292484 4854.0782023370266 250.84026509523392 1047.5403634309769 3635.22031930089 5317.4700032174587 26.016700685024261 14564.443572163582 805.04507780075073 7495.5096435844898 1127.5539900660515 2714.081850707531 4601.2744126617908 3034.1363572478294 2921.9700156152248 7913.7403791248798 7211.7803417742252 4497.6984910666943 2625.9686851799488 1989.0503995418549 4487.1445464491844 7198.2811102867126 238.32279589772224 3887.0423466861248 1691.5764256715775 2117.6612595319748 2783.786973297596 2521.9018824398518 221.63283696770668 2105.6346714794636 12701.058745741844 238.07735532522202 3076.8430168628693 121.00220224261284 2503.9847206473351 31.661833852529526 2390.1002950072289 702.94179964065552 994.2797591984272 465.84620660543442 8080.3945278525352 1500.3782196938992 641.33621594309807 3958.4655532836914 3652.6465999484062 2525.8289315998554 889.47663474082947 242.74072620272636 260.16700685024261 1770.8537305891514 363.25204730033875 911.8117268383503 304.59175047278404 29206.691805809736 37.797848165035248 4179.6075091063976 4100.5756447613239 6104.1070380806923 4030.8705221712589 3951.1023361086845 3198.5815408229828 185.55307281017303 436.63877847790718 5358.7040193974972 2099.9895383119583 1232.3571145236492 308.5187996327877 5289.2443373799324 293.30148413777351 2108.0890772044659 1045.8222794234753 1741.4008618891239 5771.5350623428822 338.46254947781563 1231.1299116611481 350.24369695782661 3087.3969614803791 1623.5893870890141 14282.186913788319 185.55307281017303
leaf_count=53835 3551 34759 357 6206 742 7233 2737 2351 1117 1054 1012 6842 812 1296 33935 18521 42877 359 3708 13058 8686 21941 11931 4195 4048 919 45116 7363 3742 7571 1194 19562 19084 1178 26075 39336 14461 27980 44194 11118 29989 8892 4364 7264 13747 26846 937 7639 19777 1022 4268 14811 21665 106 59340 3280 30539 4594 11058 18747 12362 11905 32243 29383 18325 10699 8104 18282 29328 971 15837 6892 8628 11342 10275 903 8579 51748 970 12536 493 10202 129 9738 2864 4051 1898 32922 6113 2613 16128 14882 10291 3624 989 1060 7215 1480 3715 1241 118997 154 17029 16707 24870 16423 16098 13032 756 1779 21833 8556 5021 1257 21550 1195 8589 4261 7095 23515 1379 5016 1427 12579 6615 58190 756
internal_value=0.271754 0.292915 0.255745 0.267374 0.273695 0.311192 0.297808 0.255042 0.242876 0.249164 0.287513 0.261224 0.257065 0.317138 0.293445 0.23775 0.310377 0.264975 0.266951 0.242452 0.288082 0.248741 0.253446 0.258566 0.299266 0.241432 0.243196 0.289708 0.286528 0.290729 0.275838 0.236041 0.253578 0.24775 0.262589 0.270689 0.29363 0.239769 0.262144 0.284927 0.24492 0.239628 0.269541 0.273335 0.272225 0.276676 0.298441 0.275706 0.32199 0.311542 0.299576 0.268462 0.258992 0.277973 0.241836 0.278878 0.302529 0.300941 0.304106 0.242828 0.25897 0.283902 0.250098 0.244304 0.236518 0.292334 0.281766 0.256885 0.288789 0.269732 0.302767 0.308804 0.301635 0.231416 0.287159 0.23945 0.273728 0.236955 0.259871 0.316549 0.232579 0.23596 0.242481 0.230742 0.239977 0.250943 0.271576 0.27166 0.251876 0.30584 0.240865 0.229738 0.285175 0.262754 0.234401 0.255488 0.274905 0.270486 0.29159 0.236827 0.323004 0.319642 0.313917 0.249122 0.262987 0.237256 0.2976 0.24677 0.269963 0.261069 0.235868 0.28141 0.317504 0.289779 0.251043 0.259944 0.236457 0.25679 0.266951 0.312936 0.279712 0.262074 0.311407 0.307634 0.252148 0.227985 0.24873
internal_weight=0 178717 236220 74545.2 98637.9 104171 32045 61331.9 137582 71659.3 53873.7 45180.5 44764.2 72126.4 35723.4 16151.5 30133.2 22952.9 31704.8 47772.3 23513.7 21811.3 15473.1 11328.8 10761.1 14628.3 46900.7 22396.2 20279.5 14607.6 18150.3 65923.1 10069.2 13475.7 23887 15981.1 16441.8 31740.1 21217.8 11057.8 40912 13940 15542.8 11437.5 5053.38 10486.9 1259.6 5671.89 41993.2 3714.99 1939.72 11768.9 16164.5 688.215 25637.7 5954.39 15443.9 13963.1 10209.6 9583.47 4105.24 7820.96 15274.3 9394.24 21674.1 3753.52 3863.97 12118.1 10747.6 10329.4 5694.22 3549.81 10149.7 5988.75 3432 4144.26 4237.53 21400 3892.2 19372.1 34183 12031 5874.37 22152 5504.25 1215.91 7054.94 8990.49 6971.74 1688.88 8456.16 6156.63 7547.79 1807.92 12943.8 1117.49 5406.07 8443.65 1716.86 4905.87 38278.2 9071.48 4217.41 4677.61 6362.8 6338.26 6068.76 10066 445.72 462.655 7748.8 4625.82 1480.74 546.842 6789.62 611.392 6138.96 1338.88 2030.53 8848.38 370.124 5718.27 438.357 4080.94 1861.67 14403.2 273.175
internal_count=1690580 728146 962434 303720 401881 424426 130561 249885 560553 291962 219498 184079 182383 293865 145548 65806 122772 93517 129175 194639 95802 88866 63042 46157 43844 59600 191088 91249 82625 59516 73950 268591 41025 54904 97323 65112 66989 129319 86448 45053 166688 56796 63326 46600 20589 42727 5132 23109 171093 15136 7903 47950 65859 2804 104456 24260 62923 56890 41597 39046 16726 31865 62232 38275 88307 15293 15743 49373 43789 42085 23200 14463 41353 24400 13983 16885 17265 87190 15858 78928 139272 49018 23934 90254 22426 4954 28744 36630 28405 6881 34453 25084 30752 7366 52737 4553 22026 34402 6995 19988 155957 36960 17183 19058 25924 25824 24726 41012 1816 1885 31571 18847 6033 2228 27663 2491 25012 5455 8273 36051 1508 23298 1786 16627 7585 58683 1113
cat_boundaries=0 1 2 3 4 5 6
cat_threshold=2 4 2 2 4 4
is_linear=0
shrinkage=1


Tree=1
num_leaves=128
num_cat=5
split_feature=23 13 13 23 23 13 23 13 23 13 13 24 23 23 23 13 13 13 13 13 14 23 13 13 13 21 14 24 21 13 21 23 13 13 13 24 23 13 16 13 21 24 24 17 23 14 13 21 23 14 21 13 21 14 13 23 24 13 21 21 14 16 23 23 21 13 14 21 14 15 16 23 24 13 14 15 16 21 23 23 15 14 21 13 22 24 23 19 24 20 20 24 23 22 15 19 21 13 13 13 21 20 14 21 19 14 13 23 14 14 14 24 21 13 21 23 8 13 15 23 14 23 14 14 14 17 24
split_gain=147112 87937 56731 55287.1 23709.6 8812.88 8862.51 6800.91 6143.91 6267.43 3924.46 3625.74 3063.42 2525.63 2370.14 2197.72 2164.45 1789.47 1547.57 1505.83 1306.39 1226.77 1220.29 1213.35 1149.77 2354.7 1036.7 1001.26 1000.81 969.253 1618.13 936.163 858.929 835.741 825.343 785.538 768.239 704.525 702.716 650.485 1934.29 650.169 629.202 593.812 587.833 585.437 510.762 475.205 618.819 539.431 465.73 449.029 430.52 423.978 409.277 391.331 390.236 402.462 594.969 372.013 366.213 347.668 341.044 339.136 320.928 318.113 305.346 303.218 487.911 276.173 270.523 269.714 269.578 269.533 268.749 251.661 243.435 239.735 234.8 231.457 218.694 503.63 568.499 322.533 235.999 216.289 215.316 209.181 200.349 191.737 190.628 187.908 182.067 178.663 178.124 177.687 169.849 168.353 161.48 159.133 155.59 155.49 155.086 154.57 153.193 152.459 143.892 276.143 160.321 135.406 129.201 128.758 116.976 116.887 114.493 113.563 113.175 109.787 108.063 103.877 100.636 100.017 98.597 95.3521 94.7482 91.7581 90.9702
threshold=3.5000000000000004 0.8465155565344592 0.91947948817867442 1.0000000180025095e-35 9.5000000000000018 0.92862041635540804 1.0000000180025095e-35 0.69230768848429691 7.5000000000000009 0.82926827751338539 0.99999977500005133 1.0000000180025095e-35 15.500000000000002 1.5000000000000002 5.5000000000000009 0.99999990454546384 1.0000000180025095e-35 0.9981512134111219 0.79999999134502942 0.68965515457788407 0.79215652612617915 13.500000000000002 0.9981512134111219 0.83478655728251516 0.99999999737876355 62.279762196791488 0.83504329475331074 1.0000000180025095e-35 42.617419264451847 0.99999999737876355 46.599126071205283 5.5000000000000009 0.99999999033793896 0.79999999134502942 1.0000000180025095e-35 1.0000000180025095e-35 1.5000000000000002 0.9999999937885804 1.0000000180025095e-35 0.99999999737876355 62.279762196791488 1.0000000180025095e-35 1.0000000180025095e-35 1.0000000180025095e-35 1.5000000000000002 0.87818069391486098 0.99999999706734799 3.9976381101665877 1.0000000180025095e-35 0.83388122484379623 81.560494903703116 1.0000000180025095e-35 29.179914276998907 0.7198900935126924 0.89999997975000057 5.5000000000000009 1.0000000180025095e-35 0.99999999737876355 46.599126071205283 75.16103584445689 0.80363855140031959 1.0000000180025095e-35 5.5000000000000009 1.5000000000000002 81.560494903703116 0.99999999848599475 0.8714487463008479 44.006332572918339 0.7198900935126924 0 1.0000000180025095e-35 1.5000000000000002 1.0000000180025095e-35 0.99999999616852631 0.88996173830034786 1 1.0000000180025095e-35 83.062435412874308 2.5000000000000004 1.5000000000000002 2 0.78340207337090628 35.882604335600142 0.84538571998121137 73.100408090323143 6.5000000000000009 5.5000000000000009 1.0000000180025095e-35 1.0000000180025095e-35 1.0000000180025095e-35 1.0000000180025095e-35 1.0000000180025095e-35 11.500000000000002 63.238583681076754 3 1.0000000180025095e-35 14.870093868102243 0.99999999794871586 0.87603716421238487 0.89695110288520496 37.930979661464256 1.0000000180025095e-35 0.89124801683844612 123.09776480615662 1.0000000180025095e-35 0.89999998794642888 0.99089988683057129 1.0000000180025095e-35 0.7873433152467727 0.74999999688358532 0.71661021941776892 1.5000000000000002 10.374122436646049 0.62238672486892122 4.3210550753095456 16.500000000000004 1.0000000180025095e-35 0.7728265157964298 4 10.500000000000002 0.78474428097868631 25.500000000000004 0.79673463720508575 0.79415183464528949 0.79673463720508575 1.0000000180025095e-35 1.0000000180025095e-35
decision_type=2 2 2 2 2 2 2 2 2 2 2 2 2 2 2 2 2 2 2 2 2 2 2 2 2 2 2 2 2 2 2 2 2 2 2 2 2 2 2 2 2 2 2 2 2 2 2 2 2 2 2 2 2 2 2 2 2 2 2 2 2 2 2 2 2 2 2 2 2 1 2 2 2 2 2 1 2 2 2 2 1 2 2 2 2 2 2 2 2 2 2 2 2 2 1 2 2 2 2 2 2 2 2 2 2 2 2 2 2 2 2 2 2 2 2 2 2 2 1 2 2 2 2 2 2 2 2
left_child=1 3 8 -1 10 6 -3 16 9 19 31 33 17 47 56 26 -5 91 38 34 98 23 111 51 25 32 120 54 41 30 37 60 -24 63 -2 -19 70 -16 43 40 -37 -18 117 -13 76 86 -27 48 -7 -50 97 -10 -40 -30 79 95 114 58 -58 -41 -4 -43 99 110 -59 -52 -38 72 -69 -28 -29 124 -36 -32 122 85 -20 -26 -17 -22 81 82 84 -82 -23 -53 109 -46 118 -51 -77 -6 102 -83 -62 -44 -71 -31 -8 -47 -56 -90 -25 -65 -57 -79 107 -49 -109 -11 -9 -14 -100 -55 -12 -85 -96 -21 -76 -93 -15 -113 -33 -73 -35 -64 -80
right_child=2 5 4 7 12 13 20 11 21 45 14 18 22 15 29 78 28 35 44 42 27 80 24 92 77 46 69 36 53 50 73 74 -34 71 67 39 66 -39 52 59 -42 61 55 -45 87 62 -48 106 49 89 65 75 -54 113 100 104 57 64 -60 -61 94 -63 125 103 -66 -67 -68 68 -70 96 -72 123 -74 -75 88 90 -78 105 126 -81 83 93 -84 115 -86 -87 -88 -89 101 -91 -92 119 -94 -95 116 -97 -98 -99 112 -101 -102 -103 -104 -105 -106 -107 -108 108 -110 -111 -112 121 -114 -115 -116 -117 -118 -119 -120 -121 -122 -123 -124 -125 -126 -127 -128
leaf_value=0.05168415154041317 -0.066729635273531915 0.05168415154041317 -0.022266880182488034 -0.066729635273531915 0.010866160391761451 0.05168415154041317 -0.025010115615061078 -0.035669115251254081 -0.066729635273531915 -0.029709865159132449 0.026069762915656675 0.015056802723579683 -0.0095990727166268865 -0.023707267230509161 0.017145210452789165 0.046588449604841813 -0.04032085848913286 0.038690182771782822 0.028308134764356573 -0.040303477096420938 0.0088904108768679147 -0.033066855886038235 -0.0094172800933101652 -0.023402643860815756 -0.040094847425925978 0.035066673899057016 0.035051591244061958 0.039839889596946051 0.039903846767810447 0.00029552459182393949 0.044052292536467016 -0.029831202996910069 -0.026961843881161709 -0.020079259563735654 -0.047806998597447511 -0.0031304892885568075 0.009359505592803451 -0.00042362373019558394 -0.015781012518829581 -0.027546096146035124 0.034176667840168623 -0.016050460243437058 -0.020076751858348087 -0.0067875539844543288 -0.0015442419910149305 -0.00053302846675853683 -0.014367229640745917 0.05168415154041317 -0.013895599371758481 0.025312670884895475 0.018608296421345354 -0.033271498143522656 -0.0053666915552541064 0.05168415154041317 0.0096836223319069839 -0.02744666054858496 0.02716639616984132 0.0066337187422968961 0.04360741397939176 -0.0070110224977741773 0.01885077378802423 -0.029698828279819477 -0.0060462619536777711 -0.034977643045203358 0.02578586778866435 0.0013724084190723732 0.020121356610463631 0.053524758351603509 -0.02653664735690613 0.017456692574622259 0.025754594007559691 -0.036595166276777981 -0.033848610738603103 0.027457515766665504 0.032753284627034175 -0.035910929679974488 0.010177153054924913 0.03546237235894318 0.047571411066617976 -0.0051343941163601485 -0.042222418534962371 -0.0343801727171077 0.0077281301575205744 -0.02922195030840959 -0.014476238908240433 -0.024790674839223207 -0.017008810264324808 0.019284075012761505 -0.0020917843541025292 0.04619995560972992 -0.012213994130094139 -0.013073330898064266 -0.028864074780704914 -0.044757940665008107 0.013663376299114238 -0.0046764371381587946 0.028311907060566004 -0.018005067855943531 -0.014687073584778533 0.010439250701948941 0.027804823793779909 0.017996917153980319 -0.015583754488567378 -0.0060941557935883317 -0.010813731140430676 -0.026270376347590392 0.05112505650134657 -0.020267805197864776 0.041713961356103599 -0.0075924833629628817 -0.020471067562039653 -0.031319018658574116 0.016499010536388938 -0.014010063030828891 0.048445076142452866 -0.037069167225546276 0.00423271839684616 -0.030280550793069762 0.0058172002213767284 -0.022007726290977574 0.00096411811982483997 -0.039364061422332813 -0.010175621856322687 -0.017532602160077185 -0.0024147405481310148 -0.016912862879229853 0.038795508226045418
leaf_weight=13110.330335497856 790.8737074136734 8464.7900460958481 273.97133356332779 1535.7203467488289 181.83645257353783 1761.4380851984024 674.01109753549099 577.25174444913864 364.25722694396973 259.71054592728615 247.44592452049255 1675.6968657374382 199.55981320142746 311.19649267196655 8308.5835757851601 10650.628539726138 4569.5687565803528 435.82826463878155 906.34115624427795 2009.2065132558346 2129.2192635834217 4822.1711763441563 5392.1608464866877 6496.3724444061518 1648.6956814527512 1024.3102576583624 3875.835764080286 1796.5089327692986 224.22585514187813 918.40081691741943 1846.0238083899021 294.21165087819099 4700.7684968113899 319.46730956435204 1469.4855354130268 10005.171469032764 3544.6196082681417 2728.9689860343933 10870.200434297323 1075.0189448595047 1429.4805452227592 2187.2029659748077 14309.309220612049 3377.2237244546413 6590.5105385184288 3635.4897953420877 230.42673513293266 4816.253423333168 251.31422162055969 1043.6959185004234 1869.9146327227354 6398.2544979602098 5321.4072825014591 25.813968896865845 803.94234180450439 11031.648237481713 7465.9025580137968 1126.5011377930641 2696.444445848465 3037.0632406175137 2914.0639045089483 7240.0990102887154 3268.4303652793169 4544.863036736846 2616.1441234648228 1988.6694048643112 7177.450492143631 86.711110681295395 326.32456035912037 1935.3192578852177 3872.5181252360344 271.72886899113655 8160.5639407038689 1684.8200768232346 237.17815113067627 16865.826120883226 2518.2684425264597 36.53646419942379 1232.3315209150314 2107.1269135028124 14481.73408472538 2515.2698955535889 369.70068630576134 2399.342772603035 704.32410526275635 4690.546687617898 4605.3518092632294 464.55590677261353 8082.7394812703133 636.90404748916626 311.16053888201714 1503.0491840839386 3210.8068939447403 3673.6658126711845 2520.9159731864929 707.62154847383499 3934.8090420663357 891.63875913619995 260.68588018417358 1768.2356013357639 908.12185175716877 362.31496274471283 3520.2720745801926 173.10259914398193 521.93965688347816 2475.9798220843077 28981.742707923055 37.900863081216812 4153.6976665109396 6110.4775124788284 3936.1161475479603 4047.5128261595964 185.11528158187866 437.47042402625084 1223.3976463824511 5384.6151635944843 2098.743281185627 1926.7899785041809 308.26651503145695 5304.8491649329662 285.15136769413948 2118.8671684116125 1047.2786378115416 1804.2607353031635 1890.2816230505705 889.73874488472939 7739.3346941620111
leaf_count=53835 3196 34759 1113 6206 742 7233 2737 2341 1472 1054 1012 6842 812 1264 33935 43697 18521 1786 3708 8143 8686 19562 21941 26396 6686 4195 15873 7363 919 3742 7571 1194 19084 1298 5953 40750 14461 11118 44194 4364 5850 8892 58124 13747 26846 14811 937 19777 1022 4268 7639 25960 21665 106 3280 44784 30539 4594 11058 12362 11905 29383 13303 18434 10699 8104 29328 352 1324 7907 15837 1102 33123 6892 971 68405 10275 149 5054 8579 58683 10202 1508 9738 2864 19047 18716 1898 32922 2613 1265 6113 13032 14882 10291 2875 16098 3624 1060 7215 3715 1480 14308 704 2119 10050 118997 154 17029 24870 15994 16423 756 1779 5021 21833 8556 7817 1257 21550 1162 8589 4261 7333 7698 3617 31717
internal_value=0 0.0205949 -0.015497 -0.0042453 0.00188435 0.0384799 0.02537 -0.0161756 -0.027908 -0.0208853 0.0153217 -0.0102003 -0.0142213 0.0443213 0.021107 0.0376781 -0.0328421 -0.00657013 -0.00465659 -0.0276148 0.0158751 -0.0336101 -0.0222563 -0.030162 -0.0177167 -0.0127702 0.0264871 0.0174601 -0.0292981 0.0143609 0.0184563 0.00396374 -0.0175886 -0.0232111 -0.0372226 -0.00103296 0.0212862 0.0128014 -0.00931033 -0.00214654 0.00153339 -0.0310339 -0.0242028 0.000456676 0.00477752 -0.00733927 0.0259884 0.049097 0.0388238 0.0270983 0.0038356 -0.0336338 -0.0123583 0.00604014 0.00691715 -0.0225445 0.0299859 0.0284314 0.0315288 -0.0123795 0.0118037 -0.0265323 -0.00191265 -0.0282939 0.0200213 0.00972512 0.0165636 -0.034899 -0.00972887 0.0288366 0.0302182 -0.0122631 -0.0359786 0.0361337 -0.00196076 -0.0332073 0.0149756 -0.0312057 0.0435765 0.00191458 -0.0378117 -0.0345626 -0.0282882 -0.0395753 -0.0306976 -0.0296841 -0.0120669 -0.000172757 -9.1784e-05 0.0332284 -0.0354817 -0.0192313 -0.0226475 -0.0405403 0.0130427 -0.0193511 0.0247331 -0.00871948 -0.0157451 0.00305738 0.0192956 -0.00122993 -0.0206548 -0.0339179 -0.0266953 -0.0253727 0.0500957 0.046784 0.0411535 -0.0084942 -0.0224149 -0.0333159 -0.00173731 -0.0103496 0.0446808 -0.0346503 0.00937896 -0.0353969 0.0175299 -0.0200352 -0.0119103 -0.0340834 -0.0144864 -0.0200277 -0.00496853 -0.00837143 0.040001
internal_weight=0 178143 236686 74571.7 98599.7 103572 31924.1 61461.4 138086 61877.9 53752.5 45241.3 44847.1 71647.6 35612.9 29964.6 16220.1 22972.3 31724.2 41340.5 23459.3 76208.3 21874.8 41857.5 15508.9 11347.7 10342.3 22339.5 14684.4 20237 14568.4 18139.7 10092.9 13517.1 10834 15982.6 16391.1 11037.6 21244.5 15546.7 11434.7 13996.9 30506.5 5052.92 10479.7 20537.4 1254.74 41682.9 3693.35 1931.91 5668.62 28630 16191.6 687.51 5948.41 26570.5 15375.8 13905 10162.3 4112.08 7807.69 9427.3 9561.89 9231.33 3742.65 3858.58 10722.1 10043.1 413.036 9745.96 5669.03 4285.74 9630.05 3530.84 10332 28265.8 3424.61 4161.21 19622.3 4236.35 34350.8 12085.1 5896.2 22265.7 5526.5 11088.8 10975.5 7055.07 8990.5 1680.6 17177 6989.73 13227.5 6188.94 7533.72 15016.9 5870.13 1810.04 1119.81 5403.73 1712.06 8445.05 10016.6 4717.97 11553.6 2512.52 37989.6 9007.85 4191.6 6370.19 4513.37 6365.94 445.801 463.284 1470.84 7783.96 4619.66 3936 545.445 6807.9 596.348 6166.38 1341.49 2075.99 2209.75 4158.17 8971.67
internal_count=1690580 728146 962434 303720 401881 424426 130561 249885 560553 251396 219498 184079 182383 293865 145548 122772 65806 93517 129175 167810 95802 309157 88866 169885 63042 46157 42304 91249 59600 82625 59516 73950 41025 54904 43948 65112 66989 45053 86448 63326 46600 56796 123862 20589 42727 83586 5132 171093 15136 7903 23109 116149 65859 2804 24260 107902 62923 56890 41597 16726 31865 38275 38946 37473 15293 15743 43789 40752 1676 39878 23200 17431 39076 14463 42085 114677 13983 16885 80468 17265 139272 49018 23934 90254 22426 45007 44640 28744 36630 6881 69670 28405 53736 25084 30752 60999 24005 7366 4553 22026 6995 34402 40704 19138 46903 10199 155957 36960 17183 25924 18335 25824 1816 1885 6033 31571 18847 15960 2228 27663 2426 25012 5455 8435 8996 16920 36771
cat_boundaries=0 1 2 3 4 5
cat_threshold=4 2 2 4 4
is_linear=0
shrinkage=0.03


Tree=2
num_leaves=126
num_cat=2
split_feature=23 13 23 23 13 23 23 13 13 13 13 24 23 23 13 14 24 13 13 24 23 13 21 14 13 21 13 23 13 13 21 21 23 23 14 16 21 14 14 23 13 23 21 14 18 21 15 14 21 13 21 13 24 19 24 23 13 22 14 23 21 13 24 13 23 24 14 14 13 14 13 24 22 14 23 21 24 20 14 21 21 22 23 13 17 24 14 14 20 23 23 24 12 21 13 22 13 14 17 22 23 13 2 24 18 14 23 22 21 15 16 24 13 24 23 22 24 21 22 14 14 23 13 21 2
split_gain=138649 120691 69576.2 18727.6 16936.1 8631.69 8011.96 4647.41 4347.68 3861.83 3504.33 3289.25 2380.27 1878.79 2036.16 1866.03 1857.55 1783.58 1711.38 1264.92 1250.38 1170.87 2972.71 1054.68 1040.31 2962.54 895.469 775.393 748.397 717.762 833.904 673.867 637.959 637.826 632.289 580.235 577.894 556.976 546.399 512.556 502.907 446.496 435.363 365.028 325.508 309.066 301.673 515.222 643.275 296.166 287.874 281.555 271.388 282.306 269.68 327.914 256.38 249.457 248.899 246.762 241.929 237.025 229.637 226.735 225.972 220.111 210.243 202.671 199.542 196.725 187.729 182.933 162.84 155.299 151.932 149.367 143.237 133.225 124.895 122.982 121.845 121.394 118.285 112.537 108.785 107.172 104.292 99.6867 99.0084 94.7955 91.7746 91.044 85.9436 85.1113 82.3559 78.6526 77.4236 74.5816 65.018 63.7443 61.8285 59.854 59.206 57.0138 54.6939 54.4504 51.5551 48.7083 46.726 105.845 42.8021 41.8392 38.0098 36.2784 40.7325 31.5991 24.7638 19.3119 18.3932 15.7061 7.06018 0.0237995 0.00513078 0.000880981 4.54747e-13
threshold=1.0000000180025095e-35 0.89695110288520496 6.5000000000000009 5.5000000000000009 0.80327867864821312 3.5000000000000004 14.500000000000002 0.99999992582418151 0.4070935249439544 0.9981512134111219 0.99999984523811947 1.0000000180025095e-35 2.5000000000000004 11.500000000000002 0.8253770883025987 0.83504329475331074 1.0000000180025095e-35 0.68965515457788407 0.9981512134111219 1.0000000180025095e-35 2.5000000000000004 0.99999999706734799 62.279762196791488 0.87019038730146658 0.99999999737876355 51.694679741368731 0.99999999033793896 1.5000000000000002 1.0000000180025095e-35 0.99999999737876355 37.466590563065573 42.617419264451847 8.5000000000000018 1.5000000000000002 0.84478947619483014 1.0000000180025095e-35 81.560494903703116 0.87019038730146658 0.79673463720508575 2.5000000000000004 0.99999999503719039 4.5000000000000009 81.560494903703116 0.90240683509164876 1.0000000180025095e-35 9.3669977297364913 0 0.78340207337090628 35.882604335600142 1.0000000180025095e-35 3.4221549034331016 0.71428570454545481 1.0000000180025095e-35 1.0000000180025095e-35 1.0000000180025095e-35 3.5000000000000004 0.83090010860689345 134.84544116797318 0.73469386755518562 1.5000000000000002 73.867528008627104 0.71428570454545481 1.0000000180025095e-35 0.99999998742088636 8.5000000000000018 1.5000000000000002 0.88996173830034786 0.93391824715601912 0.99999999794871586 0.99999999870962386 0.99999999463803124 1.5000000000000002 60.785227449802342 0.88702419879340677 25.500000000000004 12.353212375058909 1.0000000180025095e-35 1.0000000180025095e-35 0.87818069391486098 33.337422750144363 40.092015706806755 465.0637196578412 15.500000000000002 1.0000000180025095e-35 1.0000000180025095e-35 3.5000000000000004 0.91757534458195023 0.93640669455258752 1.0000000180025095e-35 1.5000000000000002 19.500000000000004 1.5000000000000002 1.0000000180025095e-35 35.882604335600142 0.99999999848599475 138.38281321641247 0.8253770883025987 0.84177381415925701 1.0000000180025095e-35 6.1238601972299209 21.500000000000004 0.95352989493372864 21.500000000000004 6.5000000000000009 1.0000000180025095e-35 0.88996173830034786 59.500000000000007 163.14434512380026 12.535203435782732 1 1.0000000180025095e-35 1.5000000000000002 0.83478655728251516 1.0000000180025095e-35 17.500000000000004 277.91909237553392 1.0000000180025095e-35 3.9976381101665877 12.545215375850328 0.68421049930748057 0.97755656646381406 13.500000000000002 0.99089988683057129 3.9976381101665877 61.500000000000007
decision_type=2 2 2 2 2 2 2 2 2 2 2 2 2 2 2 2 2 2 2 2 2 2 2 2 2 2 2 2 2 2 2 2 2 2 2 2 2 2 2 2 2 2 2 2 2 2 1 2 2 2 2 2 2 2 2 2 2 2 2 2 2 2 2 2 2 2 2 2 2 2 2 2 2 2 2 2 2 2 2 2 2 2 2 2 2 2 2 2 2 2 2 2 2 2 2 2 2 2 2 2 2 2 2 2 2 2 2 2 2 1 2 2 2 2 2 2 2 2 2 2 2 2 2 2 2
left_child=122 3 5 4 8 7 9 15 49 32 37 33 16 14 28 45 38 31 71 50 -19 22 26 35 25 -21 -20 67 124 30 40 -13 66 51 58 -18 -26 80 110 89 -12 86 68 -29 -25 76 47 48 57 -2 87 -10 98 -54 96 -56 83 -15 115 -40 79 -35 101 -24 78 -44 107 -17 -31 -62 -32 113 106 -64 104 -60 -3 -43 102 -23 88 -50 111 121 -80 -68 -39 -11 -7 119 -85 116 -76 -47 -93 105 -36 -82 -30 -91 -74 -34 -16 -84 -73 -66 -49 -4 118 -110 -6 -58 -97 114 -8 -14 -41 -115 -51 -9 -52 -48 -1 -124 -5
right_child=1 2 6 13 12 10 18 39 11 19 29 17 34 46 64 27 23 20 21 24 -22 60 63 44 36 -27 -28 43 52 42 70 -33 62 61 54 -37 -38 41 59 91 -42 77 65 -45 -46 93 56 72 81 108 120 -53 53 -55 55 -57 82 -59 75 -61 69 -63 73 -65 95 -67 85 -69 -70 -71 -72 74 100 -75 92 -77 -78 -79 84 -81 97 -83 103 90 -86 -87 -88 -89 -90 99 -92 94 -94 -95 -96 112 -98 -99 -100 -101 -102 -103 -104 -105 -106 -107 -108 -109 109 -111 -112 -113 -114 117 -116 -117 -118 -119 -120 -121 -122 -123 123 -125 -126
leaf_value=0.05059189406062356 -0.064358664967292423 -0.027622951189662525 -0.021515047658585636 -0.064358664967292423 -0.021785216294091015 -0.01459217486762973 0.023804917860284758 0.026024385266581934 -0.031939453315958911 -0.011265578077499212 0.027304296304513698 -0.027131836292574311 -0.030761277140188573 -0.030404635669482857 -0.02686410861597836 0.032062639321144386 0.02341991273774641 -0.0064897783780856599 -0.0080806244226024563 0.0022557893351371678 -0.018019094935092517 0.054305533496939139 -0.033413961312562267 0.02226913377452357 -0.0173267260539227 0.031622615089398898 -0.025083793492731977 0.015658593612878254 -0.042509270776714576 0.014943761287040083 0.048310029403052984 0.0029913820986684271 -0.0013564562989372665 -0.041733755697072064 -0.025188170729922899 0.0044109473565508445 0.00047823982321936083 0.0099871673727682693 0.0035614837915762657 0.046833034308495981 0.0050006188463724392 0.0048431537743279249 0.038371116688441273 0.028075175365090625 0.043920551432257364 0.0056242066457854404 -0.064358664967292423 -0.033086430620464923 0.0017085862524202754 -0.042454925579164665 0.042140916180538925 -0.019546307697813948 -0.030494043668695642 -0.017242229610739367 0.0076347258078081088 -0.0031227728513501347 -0.018911747340789615 -0.0010311393252679746 -0.01608049279845683 -0.0090565727603611253 -0.018776469105540684 -0.032601444802485467 -0.026093527684336142 0.037193401079997052 -0.022142028992587263 0.019946754194068196 0.0039650836251118784 0.040953056669499041 -0.0053251627139407299 -0.033838279305274492 0.036050361785550405 -0.029663003686780164 -0.039340499729800513 -0.016112112406682075 -0.038934647463131036 -0.0073803101898382226 -0.0044753988464431562 0.021660177568807726 -0.008745817984248519 -0.038866045469295493 0.027013500198835378 0.052786289813864386 -0.030870760092811061 -0.038083976990102089 -0.020547220423799497 -0.005313543338449917 0.019963764302614373 0.024187406142173903 0.014729362383849105 0.031146020793937263 -0.042654277232848994 0.038333969774639196 0.031666472355846083 0.030722692635529358 0.027145413480156155 -0.038327070001045169 -0.0086009482114747914 -0.0011432184881885316 -0.033666596936077049 0.046077447561808725 -0.046961348725306239 0.025543246948754955 -0.017360218661976647 -0.038279513514561575 -0.044730776342112907 -0.013112142246448385 -0.0067506643952786865 -0.0084018823070541142 0.054295149626457796 -0.036746849389141065 -0.036668059991705061 -0.030613534508643219 -0.026028524265732166 -0.045801175668692302 -0.010788872855523639 -0.054963111080725595 0.041278949475327877 -0.014851508014266853 -0.052656526586990632 0.049645565990856892 0.048438611347472744 -0.065211106365416355 0.05059189406062356 0.050615093777792476 -0.064358664967292423
leaf_weight=26276.040392413735 2031.6386738419533 402.43092624843121 692.9426027238369 591.77324429154396 348.92809993028641 1259.4236993640661 49.493053272366524 25.386940479278564 2795.2996102273464 101.4461245983839 8896.2295593619347 13179.757008463144 372.54914858937263 6701.153395280242 661.77852654457092 4207.9886010736227 1832.2725004851818 15330.645953729749 6045.4248729795218 16502.996492475271 18906.893022149801 12.855159297585486 42.493390947580338 5162.6234976947308 2438.4591158181429 3804.3750786036253 5172.9098657220602 2601.4769455492496 1939.3053581863642 917.3484551012516 1598.355597063899 704.07020783424377 230.21356445550919 4380.1715966612101 295.62748736143112 6841.1858215630054 5014.286924213171 1292.9993670284748 3765.912347137928 1185.8580754548311 1013.5234026759863 7851.6478457599878 709.76413270831108 11780.467658355832 710.99656024575233 342.76675997674465 38.821121156215668 2778.503643527627 433.64449672400951 309.41732402145863 224.11499117314816 4026.1896768659353 32360.294705465436 1514.5261953473091 4041.3486683368683 6911.8399997353554 299.4402901828289 270.72385896742344 2733.8553389012814 2215.4819467812777 2283.5832518190145 6148.0981554090977 1668.4213200211525 1113.8277914375067 3059.9400321692228 3282.4948495030403 1689.5048251599073 5110.4062425643206 835.0569830685854 1185.6800087541342 3788.7942998558283 6205.4534696936607 3274.7456921637058 8815.1115791499615 2802.1617456227541 5068.8648923635483 598.28458397090435 448.16378264129162 2988.8008808791637 1561.0837232023478 111.19732727110386 46.353634238243103 1201.3830248862505 10373.500466808677 919.17918473482132 3325.7430327683687 3484.2481669038534 240.83854101598263 112.93733263015747 264.04941880702972 6390.332708388567 5031.8198937177658 15.604320287704466 188.45782646536827 671.05483159422874 253.92149536311626 1767.222791865468 354.8536366969347 1218.6032249033451 10103.759125322104 1354.4051812887192 110.02570252120495 5434.2455242574215 4213.3494041860104 224.66158796846867 747.90214639902115 68.549955368041992 403.3166850656271 12.112878814339638 224.54855506122112 346.73686321079731 3368.220875620842 2069.2433074861765 20.210538119077682 80.386720180511475 55.829710513353348 1849.0368901789188 177.53514762222767 327.33135738968849 12204.366283372045 561.88011188805103 122.46294975280762 1625.5236297100782 15714.266900420189 11.944960355758665
leaf_count=108869 8164 1635 2812 2378 1413 5121 201 105 11294 415 36522 53329 1510 27099 2683 17320 7504 62315 24575 67336 76701 52 175 21166 9896 15643 20950 10662 7833 3746 6589 2868 937 17681 1197 27937 20441 5285 15360 4903 4155 32042 2918 48396 2922 1400 156 11230 1767 1251 920 16317 130868 6128 16523 28117 1211 1098 11111 9002 9249 24845 6761 4587 12390 13456 6882 21089 3403 4799 15616 25093 13220 35759 11313 20604 2434 1834 12149 6309 453 189 4852 41873 3728 13537 14251 988 460 1092 25783 20748 63 772 2767 1026 7189 1443 4921 41785 5462 450 22031 17015 908 3032 277 1637 49 908 1405 13622 8385 82 326 226 7633 720 1323 50545 2307 493 6735 65095 48
internal_value=0 -0.00594545 0.0131357 -0.0212937 -0.0129237 0.0304 -0.00880107 0.0377054 -0.0221656 -0.00116346 0.018907 -0.0205721 0.00195517 -0.0310902 -0.0274035 0.0281229 0.00906111 -0.0165345 -0.0217666 0.00550472 -0.0128566 -0.0161658 -0.0112003 0.015074 0.00423914 0.00775736 -0.015921 0.030197 -0.0312258 0.0267922 0.0301876 -0.0256042 -0.0125381 -0.0317708 -0.00514308 0.0084266 -0.00534736 0.0077832 -0.00403892 0.0454216 0.0250232 0.00995684 0.0177506 0.0258292 0.02489 -0.00396632 -0.035933 -0.0325337 -0.0269513 -0.0580781 0.036643 -0.0246248 -0.0306857 -0.0299016 -0.00102763 0.000846373 -0.0378841 -0.029264 -0.011651 -0.00111219 -0.0283499 -0.0364008 -0.0169134 0.0345987 -0.0184874 0.0232223 -0.00478929 0.0369383 0.00528521 -0.0239241 0.0396878 -0.0319545 -0.038098 -0.0177006 -0.0327349 -0.0104286 -0.013784 0.00575122 -0.0157081 -0.0381051 -0.00767841 0.00664118 -0.033818 -0.0400661 -0.0115216 -0.00218782 0.0172635 0.0136799 -0.0121792 0.0478075 -0.0398262 0.0392514 -0.0385437 0.0145282 0.0370174 -0.0230225 -0.0109781 0.00557483 -0.039097 0.0456972 -0.0415702 0.0073423 -0.018392 -0.0366357 -0.0301895 -0.0203685 -0.0324523 -0.0166907 -0.0434689 -0.0320871 -0.0292032 -0.0296582 -0.0273728 -0.00992424 0.00239372 -0.0339155 0.0434492 -0.0180147 -0.0476992 0.0495965 0.0466429 -0.0650059 0.0506003 0.0506129 -0.0643587
internal_weight=0 370896 165342 205554 110847 92524.6 72817 56567.6 68376.2 45823.7 35957 65471.1 42471.3 94707 53771.5 25232.3 21224.1 48121.4 26993.4 28888.4 34237.5 17417.9 12374.7 14547.1 27760.1 20307.4 11218.3 23700.3 37636.4 21041.6 15296.9 13883.8 16935.3 17349.8 21247.1 8673.46 7452.75 14915.5 6677.06 31335.3 9909.75 13077.1 5744.66 14381.9 5873.62 1531.94 40935.6 14928.1 7451.88 2905.05 1128.28 6821.49 37032.7 33874.8 13016 10953.2 26007.5 6971.88 8231.1 5981.39 5043.2 10528.3 10823.8 1156.32 16135 3992.26 6111.51 9318.39 1752.41 3469.26 5387.15 9575.51 7476.2 10483.5 9247.88 7802.72 1000.72 8299.81 10004 1573.94 1838.41 479.998 9082.39 16925.1 3907.98 5015.25 4777.25 342.285 1372.36 22597.6 16763.8 8737.77 2817.77 531.225 5702.87 6131.01 2062.85 466.051 3157.91 10367.8 4629.15 340.239 6096.02 5414.73 6430.12 3807.84 2847.05 1096.26 873.41 236.661 695.665 3667.66 2323.16 327.625 129.88 428.379 3034.89 197.746 636.749 12229.8 785.995 161.284 43615.8 17339.8 603.718
internal_count=1690580 1509881 676703 833178 450231 380580 296123 233286 277045 186721 147294 265350 173186 382947 217600 103708 86709 195213 109402 117946 139016 70696 50287 59529 113316 82979 45525 97467 152176 86405 62882 56197 68775 70137 86477 35441 30337 60889 27180 129578 40677 53412 23523 59058 24088 6241 165347 60342 30153 11695 4630 27611 149750 136996 53026 44640 105005 28197 33451 24362 20409 42526 43907 4762 65424 16374 24868 38409 7149 14048 22205 38706 30189 42520 37377 31715 4069 33876 40591 6361 7477 1956 36700 68305 15877 20419 19536 1403 5581 93527 67656 36051 11376 2172 23515 24833 8386 1896 12754 42877 18682 1387 24714 21867 26001 15422 11507 4449 3531 957 2818 14833 9411 1329 527 1736 12536 802 2574 50650 3227 649 180699 71830 2426
cat_boundaries=0 1 2
cat_threshold=2 4
is_linear=0
shrinkage=0.03


Tree=3
num_leaves=128
num_cat=2
split_feature=23 13 23 23 13 23 23 13 13 13 13 24 23 23 13 24 14 13 13 23 24 13 21 14 13 21 13 23 21 13 13 21 14 23 23 16 21 14 23 14 21 23 13 14 18 21 15 14 21 13 21 14 13 14 24 19 23 13 22 21 23 21 13 13 13 23 14 24 24 24 13 24 24 22 24 23 20 14 23 22 21 21 13 18 14 21 14 23 24 20 22 12 13 14 22 14 2 22 2 22 17 23 22 22 18 22 23 2 23 21 21 13 2 24 23 24 24 21 22 14 14 23 13 21 1 2 13
split_gain=131660 113470 65109.3 17957.3 16430.6 8115.5 7447.98 4416.03 4069.27 3493.19 3213 3076.95 2312.53 1811.2 1956.93 1787.48 1730.5 1672.75 1529.33 1209.49 1199.88 1095.46 2802.8 1075.38 979.966 2808.05 838.333 741.524 735.639 701.243 684.751 801.899 666.413 609.968 595.885 547.95 542.319 500.516 497.059 479.23 412.84 408.742 398.007 369.371 310.545 284.841 281.361 485.514 601.422 278.544 275.473 274.477 263.368 261.493 253.518 263.684 242.235 236.608 232.918 228.669 225.613 224.966 214.812 213.529 210.836 210.5 193.245 192.485 186.227 173.951 173.582 160.592 154.047 152.378 141.96 133.592 123.669 121.198 120.028 115.299 110.115 105.627 105.248 104.783 97.0552 96.5451 94.361 92.2531 87.9033 86.0316 84.7279 79.9081 79.0088 76.7608 128.291 73.0503 73.9718 67.6063 65.0604 61.4838 60.567 60.0542 55.888 52.8949 50.5057 49.0334 48.2185 47.9228 43.7006 43.4888 102.083 41.8823 41.031 35.12 35.8106 24.5321 23.9901 18.5107 17.1112 15.1654 6.81265 0.0195467 0.00440503 0.000756356 1.45519e-11 7.27596e-12 7.27596e-12
threshold=1.0000000180025095e-35 0.8994951654392237 6.5000000000000009 5.5000000000000009 0.80327867864821312 3.5000000000000004 14.500000000000002 0.99999992582418151 0.4070935249439544 0.9981512134111219 0.99999984523811947 1.0000000180025095e-35 2.5000000000000004 11.500000000000002 0.8253770883025987 1.0000000180025095e-35 0.83504329475331074 0.69230768848429691 0.9981512134111219 2.5000000000000004 1.0000000180025095e-35 0.99999999706734799 62.279762196791488 0.87019038730146658 0.99999999737876355 51.694679741368731 0.99999999033793896 1.5000000000000002 42.617419264451847 1.0000000180025095e-35 0.99999999737876355 46.599126071205283 0.86424808186109991 9.5000000000000018 1.5000000000000002 1.0000000180025095e-35 81.560494903703116 0.79673463720508575 2.5000000000000004 0.87019038730146658 81.560494903703116 4.5000000000000009 0.99999999503719039 0.90240683509164876 1.0000000180025095e-35 9.3669977297364913 0 0.78340207337090628 35.882604335600142 1.0000000180025095e-35 3.4221549034331016 0.88996173830034786 0.71428570454545481 0.74999985937502944 1.0000000180025095e-35 1.0000000180025095e-35 1.5000000000000002 0.83090010860689345 134.84544116797318 83.062435412874308 3.5000000000000004 107.73664848278383 0.99999998742088636 0.99999999848599475 0.99999999848599475 7.5000000000000009 0.93391824715601912 1.0000000180025095e-35 1.0000000180025095e-35 1.5000000000000002 0.83090010860689345 1.0000000180025095e-35 3.5000000000000004 60.785227449802342 1.0000000180025095e-35 25.500000000000004 1.0000000180025095e-35 0.78474428097868631 16.500000000000004 465.0637196578412 33.337422750144363 94.447381982836376 1.0000000180025095e-35 1.0000000180025095e-35 0.91757534458195023 0.50661737223858927 0.99999925000062506 1.5000000000000002 1.5000000000000002 1.0000000180025095e-35 505.45308660182548 1.0000000180025095e-35 0.99999999848599475 0.86424808186109991 95.878963201962549 0.8060569422579037 21.500000000000004 56.622786045693587 45.500000000000007 5.7853115160181465 1.0000000180025095e-35 14.500000000000002 163.14434512380026 221.38543997912828 1.0000000180025095e-35 704.33115207533126 59.500000000000007 28.500000000000004 1.5000000000000002 12.535203435782732 16.403574628277671 0.89207387851918518 62.500000000000007 1.0000000180025095e-35 17.500000000000004 6.5000000000000009 1.0000000180025095e-35 3.9976381101665877 12.545215375850328 0.68421049930748057 0.97755656646381406 13.500000000000002 0.99089988683057129 3.9976381101665877 1 65.500000000000014 0.49999995416667098
decision_type=2 2 2 2 2 2 2 2 2 2 2 2 2 2 2 2 2 2 2 2 2 2 2 2 2 2 2 2 2 2 2 2 2 2 2 2 2 2 2 2 2 2 2 2 2 2 1 2 2 2 2 2 2 2 2 2 2 2 2 2 2 2 2 2 2 2 2 2 2 2 2 2 2 2 2 2 2 2 2 2 2 2 2 2 2 2 2 2 2 2 2 2 2 2 2 2 2 2 2 2 2 2 2 2 2 2 2 2 2 2 2 2 2 2 2 2 2 2 2 2 2 2 2 2 1 2 2
left_child=122 3 5 4 8 7 9 16 49 33 39 34 15 14 29 37 45 28 69 -19 50 22 26 35 25 -22 -20 66 -13 -5 31 42 53 51 52 -17 -26 108 87 77 67 84 -12 -29 -25 74 47 48 58 -2 86 102 -10 111 100 -56 -39 82 -15 80 68 -36 -24 -42 -61 95 -18 -32 -34 113 -55 105 -53 106 -3 104 -43 85 103 -50 -23 -33 121 -73 -41 -7 -11 119 116 -84 -62 -77 -90 112 -95 115 -97 -79 -47 -89 -31 -75 -4 -59 -71 -35 -49 -80 -6 118 -111 -14 -67 114 -8 -16 -40 -115 -51 -9 -52 -48 124 -124 126 -125 -1
right_child=1 2 6 13 12 10 18 38 11 20 30 17 32 46 65 23 27 19 21 -21 24 59 62 44 36 -27 -28 43 -30 54 40 81 60 71 61 -37 -38 56 88 41 63 76 -44 -45 -46 98 57 73 79 109 120 72 -54 70 55 -57 -58 78 -60 64 90 -63 -64 -65 -66 93 -68 -69 -70 75 -72 83 -74 101 -76 91 -78 97 107 -81 -82 -83 89 -85 -86 -87 -88 99 92 -91 -92 -93 -94 94 -96 96 -98 -99 -100 -101 -102 -103 -104 -105 -106 -107 -108 -109 -110 110 -112 -113 -114 117 -116 -117 -118 -119 -120 -121 -122 -123 123 125 -126 -127 -128
leaf_value=0.049576023584185849 -0.0622170430223647 -0.027155728657388731 -0.022909309029395253 -0.0622170430223647 -0.02170805150106132 0.017952659076675412 0.023162004862486704 0.02536849319675881 -0.030889515744874228 -0.0028697941588489576 0.027736215310197619 -0.026092038282711377 -0.028995517664902725 -0.02937974484440346 -0.025779290019881714 0.022751827412961417 0.031205813157856976 -0.0059987216562200109 -0.0078302060879947115 -0.017440929992204795 0.0021888180173494504 0.053021101633317642 -0.0322345385583526 0.022115141442733782 -0.016772942545864509 0.030843869789463279 -0.024266552722601639 0.014544018279264621 0.0040865059282627746 -0.041078237857879979 0.043431578469551563 0.037871192205832425 -0.0064544248840966304 0.0017320380625496985 -0.036125752381703097 0.0042789443663717001 0.00046392332558779412 0.0037212680368698446 0.04584394207329609 0.0095598338574803716 0.029563953322818321 0.0048434411363488849 0.011973215724266194 0.02737166448908734 0.043090334838319685 0.021118302383050663 -0.0622170430223647 -0.032001171168944138 0.0016577167401286784 -0.041017473092489563 0.041173716734049279 0.0026747807105897154 -0.018918884125290105 -0.012672114782826465 -0.029490684243993443 -0.016695034149740214 -0.0087113703994267811 -0.027049643943889961 -0.0010000830674545122 -0.013195773702044772 -0.00078955036619681742 -0.014639941805278054 0.036321498154647032 0.01566131770687516 -0.029431572765173501 -0.023242039792459496 0.040030954392214095 0.0025478985467619602 0.010267044037410815 -0.02854870427934798 -0.0051766282844048191 -0.01776035756491879 -0.0068856155886817859 -0.035268097633445614 -0.0039420603344817546 -0.037373956730457805 0.021082167010111844 -0.010388896960451319 -0.039827846107983705 0.051615211672410545 -0.035325067365611425 0.048592743153692414 -0.038780296270781049 -0.033920572067986883 0.019420790662654282 -0.02677277479173739 0.028679456572462146 0.029363773796928411 0.03744859542221405 -0.022078540240727099 -0.0099308866466886296 0.030819321143956076 0.026461657919537512 -0.012015856886054539 -0.022073458452113049 -0.022140146371153933 -0.012064457123319725 0.0030296099242185476 -0.003134009274830893 0.045073623169649343 -0.032557560043052873 -0.042510800837833859 -0.010633437719650017 -0.034257311474631562 -0.043365834451708517 0.046171903577642302 -0.0065437095664361306 -0.033732458022466973 -0.037075023386145378 0.02092595126007293 -0.038479897871136814 0.031131187941307311 -0.040938286915953553 -0.044206266003595722 -0.0094134759413289516 -0.003418437836471958 0.040354102383429222 -0.013946012738670851 -0.050836108275303757 0.048636111976819274 0.047383166455485556 -0.062988215209131337 0.049576023584185849 0.049597627812600437 0.049576023584185849 0.049597627812600437 0.049576023584185849
leaf_weight=114.21687451004982 2038.4084244370461 397.80377851426601 886.00618748366833 605.72989192605019 434.22614276409149 49.54226903617382 49.343115344643593 25.263886213302612 2803.472281396389 166.46135973930359 9572.2834553718567 13798.060091599822 638.154257401824 6722.8347065895796 560.19210921227932 1830.6380144804716 3989.7517447918653 15021.141985446215 6051.5081789940596 18621.406635984778 16497.774156168103 12.772796541452406 42.723099648952484 5405.6770504415035 2443.3230853378773 3783.7281858623028 5186.4929593801498 2445.8968421518803 767.39044722914696 1946.5417335629463 110.63322225213051 2768.2788575589657 750.85724267363548 215.93265025317669 10103.846910685301 6862.949716180563 5013.9590940624475 3809.12538613379 1175.2594233751297 1212.1497650593519 1988.6635915637016 7671.2767607867718 1697.2493821978569 11609.995911419392 719.86301331222057 363.39398969709873 38.950479447841644 2810.9219463318586 433.54461593925953 310.63339693844318 222.52221111953259 2233.2071058303118 4034.7869266718626 4911.6695645451546 32455.927747696638 1517.1992681473494 2239.764688372612 3095.9087733626366 270.75649397075176 1341.381405621767 4783.3640818148851 458.48947592079639 1106.4597601592541 1988.4199620336294 1553.5587837696075 4266.8704778403044 5071.8612046688795 1640.3647786974907 2972.1962588876486 6054.1998965740204 6408.9996863007545 7521.0760641098022 4728.7299411743879 1525.8024163842201 586.8753178268671 2732.8333088457584 446.66048961877823 579.1701493114233 1840.2565977722406 45.988620594143867 2149.4940287172794 1179.295847684145 16537.829311460257 379.32315202057362 3469.4611555635929 352.50174842774868 175.0387699007988 229.32956063747406 4996.7897762060165 282.31075598299503 1127.6627959609032 15.553020358085631 667.79230566322803 1840.3254824876785 3005.5842603743076 735.8991274535656 6023.4941858947277 811.27994522452354 137.11596767604351 10047.857609793544 1222.2518105357885 3173.0672149658203 535.51800487935543 1301.6316345185041 214.3713866174221 24.924751713871956 68.595722436904907 3144.4119617491961 270.18706592917442 29.766727656126022 207.59825597703457 10.599687144160269 121.27290177345276 20.309920996427536 78.995806515216827 47.935583472251892 1834.8848343193531 174.60836657881737 328.85650435090065 12085.723845154047 557.23366425931454 122.97261209785938 1609.3109828978777 15154.927221611142 10620.257749944925 402.95868560671806 15279.493808671832
leaf_count=478 8164 1611 3586 2426 1755 201 201 105 11294 682 39485 55684 2579 27107 2267 7525 16517 61011 24575 75390 67336 52 175 22244 9896 15643 20950 10050 3128 7833 457 11517 3049 881 40674 28044 20441 15545 4903 4962 8197 31328 6979 47924 2981 1489 156 11326 1767 1251 920 9096 16317 19925 130868 6128 9091 12483 1098 5422 19460 1852 4587 8177 6274 17239 21089 6692 12178 24412 26065 30423 19224 6145 2386 10996 1834 2355 7407 189 8661 4901 66519 1534 14234 1427 721 954 20748 1137 4586 63 2767 7447 12156 2980 24410 3301 562 41923 4921 12753 2170 5249 863 102 277 12656 1090 120 837 43 490 82 320 194 7633 707 1323 50545 2307 493 6735 63409 44446 1686 63945
internal_value=0 -0.00576647 0.012934 -0.0204925 -0.0123202 0.0297811 -0.00835628 0.0369314 -0.0214534 -0.000952531 0.0185809 -0.0199123 0.00217494 -0.0300247 -0.0264232 0.00912289 0.0274369 -0.0160091 -0.0209014 -0.0123321 0.00534537 -0.015656 -0.0108525 0.0149525 0.00411553 0.00753472 -0.0154158 0.0294536 -0.0245021 -0.0301984 0.0261102 0.0294382 -0.00476302 -0.0119517 -0.0307261 0.00816884 -0.00518361 -0.00366932 0.0444514 0.00777358 0.017269 0.00980813 0.0253622 0.0251395 0.0245801 -0.00395344 -0.0347509 -0.0314784 -0.0260525 -0.056135 0.0357705 -0.00627176 -0.0238265 -0.00949017 -0.0296762 -0.0289192 -0.000882252 -0.0366193 -0.028281 -0.0274219 0.00111001 -0.0351931 0.0337728 0.0226131 -0.0219087 -0.0178393 0.0361453 0.00513105 0.00689469 -0.0306981 -0.00842868 -0.0178006 -0.00381889 -0.0368289 -0.0133202 -0.0314733 0.00573692 -0.00675434 -0.0327957 0.00644878 -0.0348032 0.0410741 -0.0387317 -0.0185363 0.0168676 -0.0212614 0.013301 0.0468136 0.0383548 -0.0385 -0.00253347 -0.0369881 0.0361534 -0.0208567 -0.0182539 -0.0140574 -0.0131614 -0.00255966 0.0144743 0.0447231 -0.0377917 -0.040159 -0.0182847 -0.029183 -0.0290554 0.00633083 -0.0313947 -0.0359828 -0.0276023 -0.0419963 -0.0310301 -0.0280131 -0.0237311 -0.0090753 0.00311098 -0.0240167 0.0424975 -0.017099 -0.0460667 0.0485876 0.0456111 -0.0628027 0.0495838 0.0495956 0.049576 0.0495976 0.049576
internal_weight=0 370837 163372 207465 111700 91202.8 72169.4 55665.6 68523.9 45384.8 35537.2 65608.6 43175.9 95765 54349.2 21572.4 24602.7 48208 26784.6 33642.5 28860 17444.4 12387.2 14819.1 27738.8 20281.5 11238 23117.5 14565.5 37747.7 20945.2 15217.1 21603.5 16524.7 17400.6 8693.59 7457.28 6753.3 31062.9 14592 5728.08 12799.5 11269.5 14055.9 6125.54 1485.19 41415.8 15051.5 7473.12 2915.26 1121.26 8383.46 6838.26 11969.4 37141.9 33973.1 6048.89 26364.3 6993.59 5057.21 9634.08 10562.3 1149.18 3977.08 2894.94 16601.6 9061.61 1751 3723.05 9340.21 11320.7 8141.26 6961.94 7578.39 984.679 9016.96 8117.94 1792.49 9382.21 479.533 2162.27 3947.57 16982.1 7900.4 4681.61 402.044 341.5 22388.2 8674.73 16820.1 5911.03 2748.39 5664.58 9234.05 4845.91 7367.52 6759.39 1390.45 500.51 10277.2 3168.79 4698.87 1421.52 4397.54 6268.57 240.857 2879.52 4984.67 704.413 876.855 237.365 648.754 4388.14 323.257 128.339 608.128 3010.14 194.918 639.49 12111 779.756 161.923 43181.2 17167.2 26014 15557.9 15393.7
internal_count=1690580 1509881 670555 839326 453205 377253 293302 231206 277045 184962 146047 265350 176160 386121 219359 88275 101628 195213 108340 136401 117946 70696 50287 60794 113316 82979 45525 95580 58812 152176 86405 62882 87885 67016 70137 35569 30337 27481 129578 59642 23523 52358 46464 57974 25225 6048 166762 60662 30161 11695 4630 34076 27611 48612 149750 136996 24636 106100 28205 20409 39273 42526 4762 16374 11696 67183 37606 7149 15227 37644 45990 32940 28320 30501 3997 36334 33162 7284 37795 1956 8713 16418 68305 31957 19196 1628 1403 93527 36051 67656 24046 11059 23515 37332 19603 29851 27390 5656 2051 42877 12754 18898 5756 17732 25275 983 11603 20063 2845 3531 957 2622 17729 1310 521 2461 12536 789 2574 50650 3227 649 180699 71830 108869 65095 64423
cat_boundaries=0 1 2
cat_threshold=2 1
is_linear=0
shrinkage=0.03


Tree=4
num_leaves=128
num_cat=5
split_feature=23 13 23 23 13 23 13 13 24 13 13 23 23 23 23 13 24 13 23 14 23 24 14 13 21 13 21 14 21 13 14 21 23 24 16 23 24 13 23 14 21 23 14 14 13 23 18 14 13 15 14 21 13 14 24 15 23 24 13 13 22 23 23 21 24 15 24 20 13 15 22 21 24 14 23 22 6 13 21 21 17 18 23 24 14 22 23 22 14 22 21 23 13 13 24 21 14 13 23 2 14 2 21 2 21 13 13 23 21 15 13 24 24 21 13 13 13 22 24 13 14 23 13 21 2 14 14
split_gain=125145 106717 61853.4 16811.8 15416.2 10068.5 6327.3 3822.05 2882.81 2819.84 2551.59 2491.35 2256.52 2178.77 1697.5 1832.91 1687.69 1567.5 1444.18 1250.45 1133.85 1086.57 1020.77 956.89 1845.76 844.661 1883.94 770.315 689.226 660.35 626.048 561.44 558.079 556.706 518.741 507.832 499.442 489.996 474.8 469.552 455.487 429.511 408.943 386.154 382.645 303.382 297.772 269.286 263.848 263.432 454.71 563.483 246.795 245.017 237.547 255.982 227.761 222.733 221.968 219.328 218.095 212.48 198.274 178.215 175.517 172.742 167.478 156.449 151.403 147.794 142.901 125.293 122.124 116.811 113.14 109.657 105.011 99.0561 96.8981 96.3133 94.4179 91.378 85.9119 85.6486 84.0584 81.4444 80.6155 79.5848 78.5699 76.9754 72.6745 72.196 74.5501 70.4216 65.4266 64.616 62.3363 57.385 57.0016 55.6858 54.7657 55.0519 52.6496 50.3078 47.421 46.8624 42.7524 40.8583 40.6576 99.24 39.3155 39.0146 36.6286 43.0798 35.0262 27.9234 26.3036 23.2007 16.3835 13.2284 10.607 0.0161633 0.00378971 0.000650694 1.45519e-11 1.45519e-11 9.09495e-13
threshold=1.0000000180025095e-35 0.8994951654392237 5.5000000000000009 5.5000000000000009 0.80327867864821312 10.500000000000002 0.99999990454546384 0.4070935249439544 1.0000000180025095e-35 0.99999977500005133 0.9981512134111219 2.5000000000000004 2.5000000000000004 2.5000000000000004 11.500000000000002 0.8253770883025987 1.0000000180025095e-35 0.69230768848429691 16.500000000000004 0.79415183464528949 2.5000000000000004 1.0000000180025095e-35 0.87019038730146658 0.99999999737876355 45.959925894968471 0.99999999737876355 51.694679741368731 0.89473680678670531 42.617419264451847 1.0000000180025095e-35 0.86424808186109991 40.092015706806755 1.5000000000000002 1.0000000180025095e-35 1.0000000180025095e-35 16.500000000000004 1.0000000180025095e-35 0.99999999706734799 3.5000000000000004 0.79673463720508575 81.560494903703116 4.5000000000000009 0.88537071827966229 0.90060236977085784 0.99999999737876355 7.5000000000000009 1.0000000180025095e-35 0.79215652612617915 1.0000000180025095e-35 0 0.78340207337090628 35.882604335600142 0.71428570454545481 0.74999985937502944 1.0000000180025095e-35 1 1.5000000000000002 1.0000000180025095e-35 0.83090010860689345 0.71428570454545481 134.84544116797318 3.5000000000000004 8.5000000000000018 89.776439258475051 1.0000000180025095e-35 2 1.0000000180025095e-35 1.0000000180025095e-35 0.92617563997091101 3 60.785227449802342 3.4221549034331016 1.5000000000000002 0.87818069391486098 15.500000000000002 465.0637196578412 1.0000000180025095e-35 1.0000000180025095e-35 5.4157520470856957 1.6098429757663182 1.0000000180025095e-35 1.0000000180025095e-35 21.500000000000004 1.0000000180025095e-35 0.88888881481482185 138.38281321641247 25.500000000000004 505.45308660182548 0.79415183464528949 6.4260719767194523 39.003208044178031 1.5000000000000002 0.99999999807114281 0.99999999848599475 3.5000000000000004 11.535704494757967 0.88996173830034786 0.71428570454545481 21.500000000000004 28.500000000000004 0.76907433985706908 73.500000000000014 0.50661737223858927 21.500000000000004 0.50661737223858927 0.61111108564814953 0.999999969223486 1.5000000000000002 12.535203435782732 4 0.89207387851918518 1.5000000000000002 1.0000000180025095e-35 2.4362029437127464 0.83478655728251516 0.98254319681468505 0.99999997332859258 704.33115207533126 1.0000000180025095e-35 0.99999984523811947 0.68421049930748057 13.500000000000002 0.99089988683057129 3.9976381101665877 75.500000000000014 0.87363881268980526 0.99999999528291406
decision_type=2 2 2 2 2 2 2 2 2 2 2 2 2 2 2 2 2 2 2 2 2 2 2 2 2 2 2 2 2 2 2 2 2 2 2 2 2 2 2 2 2 2 2 2 2 2 2 2 2 1 2 2 2 2 2 1 2 2 2 2 2 2 2 2 2 1 2 2 2 1 2 2 2 2 2 2 2 2 2 2 2 2 2 2 2 2 2 2 2 2 2 2 2 2 2 2 2 2 2 2 2 2 2 2 2 2 2 2 2 1 2 2 2 2 2 2 2 2 2 2 2 2 2 2 2 2 2
left_child=122 3 6 4 7 9 12 48 32 42 35 78 19 16 15 29 39 28 33 83 -19 71 34 24 -23 26 -20 47 -10 -5 53 43 52 79 -18 57 100 -35 93 107 -25 65 88 -21 -40 69 -24 102 -2 50 51 60 -9 110 97 -56 -41 117 77 -34 -16 64 73 -27 -32 -29 -55 -47 -33 -44 105 84 115 103 111 -53 -43 121 112 -12 -75 -59 -79 95 -11 96 -74 -63 104 -85 -49 120 -93 -38 -90 -3 -64 -31 -72 -76 106 -102 -14 -17 -4 -52 -13 -6 118 -110 -15 -60 113 -8 -87 -37 -114 -7 -50 -73 -80 -51 124 126 -1 -125 -124
right_child=1 2 5 14 13 10 11 8 17 21 18 36 27 30 49 62 22 20 25 31 -22 23 46 40 -26 63 -28 41 -30 54 61 68 59 37 -36 72 38 -39 44 56 -42 76 45 -45 -46 67 -48 90 108 58 70 75 -54 66 55 -57 -58 81 74 -61 -62 87 85 -65 -66 -67 -68 -69 -70 -71 98 119 86 80 99 -77 -78 82 91 -81 -82 -83 -84 89 -86 114 -88 -89 94 -91 -92 92 -94 -95 -96 -97 -98 -99 -100 -101 101 -103 -104 -105 -106 -107 -108 -109 109 -111 -112 -113 116 -115 -116 -117 -118 -119 -120 -121 -122 -123 123 125 -126 -127 -128
leaf_value=0.048629190523710682 -0.060273676794300721 -0.033576793573930633 -0.0012990546364464815 -0.060273676794300721 -0.021012424551102898 0.0081250646328536111 0.016864883716174135 -0.029891623584999059 -0.025250763553510091 -0.025406447899980245 0.0051653157747061501 -0.052174480234959859 0.0086557765550137732 -0.028048672036864758 -0.028428937057547551 -0.025069401620162905 0.022155425923241753 -0.0058144587230813515 -0.018129030722264503 0.014475494943246965 -0.016886312885117383 0.0084641970493561907 0.021534752234275142 -0.010913098316158323 0.031866631710580955 -0.036044953807731192 0.017498698048857123 0.02531614205262267 0.0039661265989205151 -0.041919562517613071 -0.006255851040733857 0.029811433887864697 -0.039165585191022076 -0.00071029785871823631 0.0041532075739960624 -0.013416698890934182 0.037164504063293025 -0.013282282149486275 0.029951558026124207 0.003611561650859363 0.0061598295373919238 0.0039368268339493896 0.0077526501677613411 0.029197250109277786 0.018572673031346059 -0.0080405702242491231 0.042154770865363345 0.0015540351840254948 -0.050936587821590794 -0.060273676794300721 -0.054724460488169903 0.0016083536454335648 -0.018316220587911557 -0.017054310880884826 -0.024727277808170699 -0.030061316496027439 -0.0084412002900562891 -0.02028112873828811 -0.017367919900908961 -0.030406093590059895 -0.00096996434134079843 -0.00076578449720669502 -0.020735644975645388 -0.022907361943516558 0.0099752769600226221 0.017240871809174538 -0.00667074913649922 0.014043029984743161 0.038677834568463021 -0.0015041568477685522 -0.036730420053754501 0.0011978550077023857 -0.029251030587153445 -0.0083055949928185352 -0.038305717077339818 0.050528333789922046 0.013544393456217279 -0.035827447646376048 0.027580176386386972 0.043673105565498971 -0.019088740288032154 -0.035819458467333642 -0.040472777767030385 0.019772056390552285 0.027710995524117193 -0.036292362076935307 -0.035787953052383352 -0.0096207798044183127 -0.0065087624926722185 -0.013619440294380265 0.011530423269643077 0.045531034217728895 0.03855626353953253 0.027811004624068349 -0.017253519807994229 0.013903688942037282 -0.011475501437890249 -0.033527463310054385 -0.043981278956281615 -0.032132923455222104 0.04494690910848697 -0.026145364589898919 -0.020957545461180675 -0.01636728081168197 -0.030580144979865734 -0.029777700829568005 0.049373469859715732 -0.035851380137994132 0.053748299706651431 -0.034506479119928282 0.030315674825259604 -0.02860995836924177 0.043153306391806 0.036908585455510109 -0.024540228497178899 0.017457981089407947 0.025191900966918014 0.044346601760028311 -0.040948870835535001 0.045738113427153296 0.047894709131702948 -0.06097443792024184 0.048629190523710682 0.048649339558273337 0.048629190523710682 0.048649339558273337 0.048629190523710682
leaf_weight=25670.062886163592 2040.9579080343246 218.87019498646259 57.014292895793915 606.48749202489853 435.12911774218082 179.11512176692486 130.35808457434177 2810.0454326868057 13829.534884229302 32.193845734000206 75.629371285438538 9.3762352615594846 60.618593022227287 639.87825411558151 6738.9925739467144 670.84810629487038 1823.6263398379087 15032.084805205464 8577.1725203543901 2214.5794450193644 18655.484842047095 12056.83333286643 5385.1391298025846 2071.2319744080305 4052.7132717967033 1807.0729881078005 1582.1721632629633 4047.4291531443596 766.96808180212975 1148.5548722594976 751.44113446772099 2413.5881360918283 4405.9416726529598 9697.089118257165 6858.6677488684654 191.31352508068085 6769.3154096156359 3917.2620894908905 9397.3345156908035 3807.1179587095976 4381.3222473114729 1938.0888876765966 2580.7324637174606 5811.88035158813 3709.6982269734144 6154.7588945031166 713.85474893450737 1893.5709592998028 231.00681084394455 38.999195694923401 69.440793439745903 433.44713738560677 4042.3982069641352 1633.4517289996147 13262.209657117724 20791.777566224337 2242.0712612867355 7504.3656086474657 302.03171284496784 6182.7649993896484 270.78799855709076 4783.8515581637621 3099.1080849021673 1913.1477760523558 2967.4295229911804 5801.3904503136873 9698.5528802573681 302.93019258975983 6149.9614551961422 3895.3359284251928 3330.5915729254484 6.0410232990980139 4424.5366346240044 3171.4243965446949 2091.307024076581 45.574714526534081 2170.6222847551107 11696.565146282315 23.179484039545059 257.43962283432484 949.64608046412468 356.82011339068413 5165.5502108186483 86.131879463791847 160.432049497962 255.24847488105297 2755.2196854054928 1129.068504601717 835.78145283460617 222.99626864492893 1006.4687340259552 8037.1598289310932 1664.9187144041061 811.25460204482079 1308.648108586669 29.242496982216835 829.3398796916008 2028.4738266915083 1380.1144205033779 3544.6419023275375 2499.7669517546892 9.8418481796979886 497.40766085684299 5498.3084633648396 392.20945675671101 2817.0763253420591 6.1976939141750327 271.01326136291027 12.0804233700037 225.85344292223454 10.558897152543066 3467.2776952087879 894.14077360928059 371.64541417360306 2157.5160962194204 30.577352270483971 79.940369158983231 17.467168360948563 410.44518354535103 912.35409413278103 11398.901014208794 123.21852122247219 1584.8372910320759 721.46517419815063 59.082809835672379 14666.403605103493 6.853605940937995
leaf_count=108619 8164 883 231 2426 1755 731 543 11294 55684 132 311 39 246 2579 27107 2706 7525 61011 34685 9146 75390 49397 22244 8393 16858 7261 6502 16753 3128 4609 3049 10011 17681 39555 28044 774 28334 15886 39092 15545 17922 7939 10521 24196 15293 24984 2981 7751 926 156 279 1767 16317 6614 53373 83623 9091 30269 1216 24845 1098 19460 12495 7710 12178 23946 39376 1238 25676 15871 13366 25 17793 12856 8396 189 8903 46937 97 1075 3837 1437 20719 349 662 1026 11059 4586 3385 908 4124 33857 7014 3383 5294 120 3352 8145 5532 14235 10492 41 2016 22211 1583 11324 26 1090 49 908 43 13948 3752 1560 8700 124 336 72 1648 3791 48198 493 6706 3052 250 62043 29
internal_value=0 -0.00559496 0.0125874 -0.0198467 -0.0119397 -0.00566256 0.0313167 -0.0207722 -0.01928 0.00535133 -0.0156368 0.0386277 0.021626 0.00211133 -0.0290562 -0.0255732 0.00886459 -0.0155039 -0.0102079 0.0293511 -0.0119458 0.0118678 0.0145419 0.0104415 0.0143516 -0.017059 -0.0125805 0.0140198 -0.0237156 -0.0292218 -0.00461768 0.0308359 -0.0297339 -0.00339017 0.00793439 -0.0254089 0.0317248 -0.00432764 0.0301873 -0.003558 0.00067952 0.0171603 -0.00458363 0.0251354 0.026731 -0.00240343 0.0239482 0.00134409 -0.0543546 -0.033626 -0.0304629 -0.025217 -0.0230631 -0.00919526 -0.0287159 -0.027984 -0.000855674 -0.0201977 -0.0354315 -0.0340509 -0.0273682 0.00107707 -0.0172725 -0.0292889 0.00669559 0.0205595 -0.00816749 -0.00700463 0.0361789 0.00218471 -0.035634 0.0408313 -0.0310821 -0.0147012 -0.0317326 0.00626266 0.00901248 -0.037475 0.0457178 0.0349292 -0.0107904 -0.0209864 -0.0372505 -0.0148526 0.0188334 -0.0214452 -0.0317596 -0.00245664 -0.0154556 -0.00431562 0.00501637 0.0462371 0.0443341 0.0361635 -0.0130658 -0.0279808 -0.0187807 -0.0365614 -0.0388547 -0.0344234 0.0443201 0.0446681 -0.0177406 -0.0173136 -0.0268639 -0.0303778 -0.0117632 -0.0267075 -0.0406171 -0.0300256 -0.0271012 -0.0277091 0.0382867 0.0317037 -0.0257835 -0.00916206 0.0416793 0.0113435 -0.0445458 0.0454451 0.0478535 -0.060806 0.0486365 0.0486475 0.0486292 0.0486493 0.0486292
internal_weight=0 370644 162863 207781 111796 82486.9 80375.9 68645.6 65725.2 39200.5 43286.4 45813 34562.8 43150.9 95984.6 54468.9 21536.6 48284.1 27827 17147.3 33687.6 23673.1 14781.3 22562.1 16109.5 13879.6 10159.3 17415.6 14596.5 37837.5 21614.2 16590 17441.2 13947.4 8682.29 15459.4 23212.8 13614.4 20687.6 6755.33 6452.55 13957.5 15527.4 8026.46 13107 12933.8 6098.99 3458.07 2920.34 41515.6 15086 7488.8 6852.44 11982.4 37231 34054 6049.19 8057.77 26429.6 10588.7 7009.78 9631.79 16631.4 3720.22 3718.87 9848.82 11332 6457.69 8563.55 6476.07 7597.22 1111.02 7401.65 10290.2 9405.26 479.022 4108.71 17024.3 22600.2 333.069 4121.07 7861.19 16862.1 557.241 192.626 6341.21 7179.76 5912.92 2593.65 309.128 2900.04 21124.2 9702.08 7580.57 2144.43 248.113 3928.45 3177.03 4710.71 5635.95 2525.18 2509.61 558.026 6169.16 449.224 2886.52 15.5739 706.142 879.386 237.934 650.437 3769.31 1476.08 502.003 2412.76 221.891 974.081 196.582 641.452 918.395 11422.1 162.218 42708.7 16979.6 25729.1 15387.9 1591.69
internal_count=1690580 1509881 670555 839326 453205 335531 335024 277045 265350 160287 175244 192057 142967 176160 386121 219359 88275 195213 112985 71289 136401 97180 60794 92570 66255 56158 41187 71678 58812 152176 87885 69029 70137 56827 35569 62259 96700 55441 86102 27481 26315 57541 63107 33342 54385 52614 25225 14137 11695 166762 60662 30161 27611 48612 149750 136996 24636 32509 106100 42526 28205 39273 67183 14971 15227 40699 45990 26222 35687 26392 30501 4610 29750 41610 37795 1956 16842 68305 95357 1386 16693 31706 67656 2260 794 25573 28852 24046 10493 1257 11875 89166 40871 31717 8679 1003 15847 12754 18898 22631 10598 10533 2262 24917 1814 11603 65 2845 3531 957 2622 15164 6191 2103 9726 898 4088 803 2574 3816 48295 649 180699 71830 108869 65095 6735
cat_boundaries=0 1 2 3 4 5
cat_threshold=2 2 4 4 4
is_linear=0
shrinkage=0.03


Tree=5
num_leaves=128
num_cat=8
split_feature=23 13 23 23 13 23 13 13 13 24 13 23 23 23 24 23 13 13 23 14 23 24 14 13 21 14 13 21 13 21 21 18 14 23 13 23 24 23 14 21 21 23 14 21 23 13 13 24 23 13 23 13 21 13 13 14 24 24 13 15 13 23 14 15 14 22 15 14 20 13 15 14 22 21 22 24 2 24 24 6 21 15 23 17 20 18 21 24 14 23 21 14 22 21 23 13 13 21 21 2 2 13 13 16 21 21 24 21 22 2 22 13 6 13 21 21 13 14 14 23 15 13 21 12 2 1 0
split_gain=119058 100407 59403.7 15358.3 13975 9506.11 6211.91 3601.4 2784.15 2704.75 2483.13 2422.47 2210.3 1988.78 1563.74 1554.95 1525.97 1472 1371.59 1195.58 1084.47 1035.92 925.078 904.525 1757.11 751.984 712.512 2291.71 610.275 1378.73 551.427 541.523 533.276 523.863 516.07 509.933 482.957 457.65 451.977 433.253 428.413 427.661 396.154 387.367 367.117 366.394 332.172 323.888 282.103 256.674 256.471 251.461 244.652 236.183 231.641 227.637 223.125 215.43 212.265 236.361 210.608 204.659 198.327 183.269 322.838 388.771 165.858 154.707 147.141 144.194 128.712 124.645 130.81 120.542 112.77 111.528 110.76 110.336 110.145 101.996 94.6915 93.727 91.5544 91.2544 89.0828 83.7358 83.3418 81.1856 80.1778 79.803 79.6057 79.4052 74.9412 74.8312 70.9787 72.412 67.914 57.3763 53.9592 55.1743 52.1316 45.5493 44.9878 40.3501 38.1287 95.5556 35.3935 41.3779 33.5478 31.6521 29.3583 27.6943 26.6528 25.3838 23.3492 15.9425 12.6864 11.8989 10.318 0.195963 0.369911 0.00327514 0.000562336 7.27596e-12 9.09495e-13 4.54747e-13 2.27374e-13
threshold=1.0000000180025095e-35 0.89695110288520496 5.5000000000000009 5.5000000000000009 0.80327867864821312 10.500000000000002 0.99999990454546384 0.4070935249439544 0.99999977500005133 1.0000000180025095e-35 0.9981512134111219 2.5000000000000004 2.5000000000000004 2.5000000000000004 1.0000000180025095e-35 9.5000000000000018 0.8253770883025987 0.68965515457788407 19.500000000000004 0.83504329475331074 1.5000000000000002 1.0000000180025095e-35 0.82479732857691113 0.99999999737876355 45.959925894968471 0.89473680678670531 0.99999999706734799 66.4959317867105 0.99999999737876355 51.694679741368731 42.617419264451847 1.0000000180025095e-35 0.82235370309221667 1.5000000000000002 1.0000000180025095e-35 16.500000000000004 1.0000000180025095e-35 3.5000000000000004 0.79673463720508575 42.34155982905984 81.560494903703116 4.5000000000000009 0.88996173830034786 75.16103584445689 16.500000000000004 0.99999999737876355 0.83090010860689345 1.0000000180025095e-35 7.5000000000000009 1.0000000180025095e-35 3.5000000000000004 1.0000000180025095e-35 9.3669977297364913 0.7728265157964298 0.71428570454545481 0.79215652612617915 4.5000000000000009 1.0000000180025095e-35 0.8322227037566523 0 0.75614065107453399 1.5000000000000002 0.75633822580787002 1 0.78144414078926205 73.100408090323143 2 0.73469386755518562 1.0000000180025095e-35 0.93710490176448802 3 0.86354270578530168 54.813598698017252 3.4221549034331016 138.38281321641247 1.5000000000000002 30.500000000000004 1.5000000000000002 1.0000000180025095e-35 1.0000000180025095e-35 5.4157520470856957 4 6.5000000000000009 1.0000000180025095e-35 1.0000000180025095e-35 1.0000000180025095e-35 10.374122436646049 1.0000000180025095e-35 0.77723324250622949 25.500000000000004 142.20662227570548 0.88888881481482185 23.616084852856847 39.003208044178031 1.5000000000000002 0.99999999799398009 0.99999999848599475 35.882604335600142 4.3210550753095456 73.500000000000014 40.500000000000007 0.8994951654392237 0.84538571998121137 1.0000000180025095e-35 12.535203435782732 16.403574628277671 1.0000000180025095e-35 2.4362029437127464 14.405248141186016 21.500000000000004 175.8340619600483 0.98254319681468505 1.0000000180025095e-35 0.99999997332859258 6.7664539130845904 1.7415939761458785 0.99999984523811947 0.99999999915046034 0.68421049930748057 11.500000000000002 5 0.99089988683057129 3.9976381101665877 1.0000000180025095e-35 73.500000000000014 6 7
decision_type=2 2 2 2 2 2 2 2 2 2 2 2 2 2 2 2 2 2 2 2 2 2 2 2 2 2 2 2 2 2 2 2 2 2 2 2 2 2 2 2 2 2 2 2 2 2 2 2 2 2 2 2 2 2 2 2 2 2 2 1 2 2 2 1 2 2 1 2 2 2 1 2 2 2 2 2 2 2 2 2 2 1 2 2 2 2 2 2 2 2 2 2 2 2 2 2 2 2 2 2 2 2 2 2 2 2 2 2 2 2 2 2 2 2 2 2 2 2 2 2 1 2 2 2 2 1 1
left_child=121 3 6 4 7 8 12 51 42 33 35 80 19 14 38 16 34 30 26 52 -19 73 62 24 -23 55 27 -12 29 -20 -11 -24 67 54 126 57 98 96 103 47 -25 66 84 -28 49 -39 87 -21 70 119 -48 124 78 56 -9 101 -36 114 59 -51 -35 -40 -16 64 65 -46 -27 110 -50 -41 -44 86 109 91 -60 111 102 -30 -3 -43 106 -69 -55 -74 88 -59 108 -34 -4 -77 -88 -10 -66 -57 118 -96 -38 -54 99 -13 -78 -14 -65 -6 115 -106 107 -8 -18 -73 -15 -37 -86 -108 -7 -53 -75 -100 -82 -17 -121 123 125 -1 -2 -123 -5
right_child=1 2 5 15 13 10 11 9 21 17 18 36 25 32 22 44 71 20 28 39 -22 23 31 40 -26 41 43 -29 77 -31 -32 -33 46 60 53 75 37 45 61 69 -42 79 48 -45 63 -47 50 -49 68 58 -52 104 97 82 -56 93 -58 85 74 -61 -62 -63 -64 76 92 -67 -68 81 -70 -71 -72 72 83 116 -76 89 100 -79 -80 -81 94 -83 -84 -85 112 -87 90 -89 -90 -91 -92 -93 -94 -95 95 -97 -98 -99 117 -101 -102 -103 -104 -105 105 -107 113 -109 -110 -111 -112 -113 -114 -115 -116 -117 -118 -119 -120 120 -122 122 -124 -125 -126 -127 -128
leaf_value=0.047744937491848452 -0.058502872649538545 -0.025641381692363831 -0.0299728155890184 -0.058502872649538545 -0.019309929280805532 -0.011941353466709848 0.016414949440543464 -0.028941468518489215 -0.024549527203886295 -0.024599668373893255 -0.0050093119334448863 0.031801526838821703 0.052514993994681999 -0.027754384671765091 -0.01770958215341285 -0.058502872649538545 -0.020360596634450851 -0.0015895220212518142 -0.019741364434852887 0.016519057030139984 -0.014494039195479615 0.0082212227542858146 0.01585649471070294 -0.010572842402636649 0.031113733421078624 0.024664461520858872 -0.026736115662144799 0.040182991386188895 0.030605791749830497 0.016484652228211088 0.0026642505408173717 0.039087777008280679 -0.020083323271559567 -0.036136782439625537 -0.032264674982391578 -0.013751254323058942 0.036349242267751339 0.029232576760965308 0.0032398943088192212 0.030483770891384501 0.0059806227453855637 0.0036552673734263821 0.0070578847449037554 -0.0088375058813941944 -0.02884654994196403 0.018075323161384296 0.005399261106788544 0.029627985820834212 -0.0078652229132072232 -0.026976416339845342 -0.0032801476644236552 -0.034487437555802185 0.0090646094476331245 -0.019351837892910919 -0.017736881988906699 0.0010783491855835331 -0.025619892075336284 -0.019675385454511966 -0.022513916584241428 -0.033256238566172928 -0.027328823990986632 -0.0082434957119066014 0.0028343022531401932 -0.041047888777025782 -0.02921143302076179 -0.0029950271931377375 0.016795505798178477 -0.0042405018812122341 0.013828039301053426 0.038579474074994229 -0.0015347145867330061 -0.018815725265603073 -0.012468788772164284 0.0011621741465989567 -0.029532468395803313 -0.028521270666648137 -0.031083521571245817 -0.031671971820023674 -0.0018408401454904719 0.013051948532664207 0.026915587849002005 -0.014698151374884815 -0.025382492553968607 -0.022132201466725114 -0.0046370577622689762 -0.034305829484660016 -0.015015677844231292 -0.0080917015923660345 -0.014200674221807267 -0.034924659274104958 -0.035124936454408673 0.02701712652283807 -0.038859675896614695 0.010917370054402289 0.044702990834005689 0.037993510518757566 0.027135953657097239 0.03361646367597812 0.045289357643809022 -0.055149229800915099 -0.036157083068457829 -0.017175920667522725 -0.035448858546690824 -0.033706357958684798 0.021193060230024489 -0.036253604047438708 0.042275119964385578 0.036104481413209696 -0.029008833265699419 -0.0040991743589069733 -0.050203377514297952 0.016970448910109057 0.020099899841546705 0.024577418201594325 0.015914260583418906 -0.045709199410798818 0.044786387172068051 0.035512205729457208 0.047011503893198983 -0.062089100347184373 -0.058810930096521809 0.047744937491848452 0.047763780639635732 0.047744937491848452 -0.058502872649538545 0.047744937491848452 -0.058502872649538545
leaf_weight=25015.876129209995 2030.6692914962769 310.02201150357723 330.97643774747849 262.57793127000332 351.35592812299728 32.3878313601017 129.91998644173145 2815.1484881639481 32.316145703196526 13270.429444015026 11535.437102854252 207.97933802008629 8.5699595808982831 370.83840945363045 501.74492275714874 128.66568468511105 993.24357275664806 7495.2877929508686 6312.1893719881773 2437.2456555366516 26881.712939485908 12041.015009433031 10253.580019697547 2073.7134116888046 4026.6542880982161 4111.0686741322279 1567.9998614341021 1106.7816427499056 25.854650944471359 1112.1348983794451 703.02777929604053 990.26666162908077 602.44269667565823 6792.0970695465803 9578.0569433867931 196.31102222204208 6714.3405441045761 9340.4745488911867 3760.1134543865919 3249.9951772987843 4377.2906285971403 1974.0935719311237 2625.8253321349621 3556.7413990646601 3556.7353874593973 3697.6038004606962 4992.0311917215586 5579.7738152891397 6256.4412378668785 9000.3210250288248 7933.8225533217192 148.04039533436298 242.6097234338522 3341.9174050986767 4049.0966854393482 1958.4190291166306 8660.4399050623178 7692.980305492878 5343.6593389362097 13462.763079792261 3815.8778341263533 2222.3521316945553 2692.0370379239321 4612.6212296783924 924.48521168529987 613.92815364897251 5828.5594103038311 1033.4471979290247 294.65490382909775 5067.4126447737217 3898.1583241671324 142.94922941923141 3707.5560760051012 6.0397157669067374 3353.2735899537802 4572.7366742938757 3042.1021455079317 2632.2799415141344 401.80711795389652 2196.241063773632 23.04137197136879 3041.0853059738874 7035.0742384642363 1153.0148151665926 82.72497396171093 368.9638777077198 3904.734070584178 3245.3426163941622 2347.5290512442589 2839.2147488445044 185.59268115460873 159.6280168145895 3350.1985809952021 1078.995743855834 7825.1377455741167 1776.3156995773315 806.56418800354004 132.42492264509201 2166.9669119864702 6.7821742594242087 4547.2505712658167 559.06123329699039 1793.8287152945995 349.51942448318005 29.781069383025169 208.54779189825058 885.46450540423393 368.57146300375462 680.1196004152298 1646.9390067607164 61.063276797533035 30.513097807765007 74.507030919194221 79.48776550590992 165.33387488126755 494.65571019053459 903.91679963469505 118.13528871536255 11266.654017210007 52.674880787730217 75.216834828257561 911.93133264780045 15205.717062875628 408.20895504951477 8.9941061139106733 660.88749587535858 214.85920161008835
leaf_count=107121 8128 1250 1333 1051 1413 132 543 11294 132 53329 46910 874 35 1491 2048 515 4003 30398 25480 10176 108618 49397 42301 8393 16858 17094 6321 4614 104 4583 2868 4152 2430 27217 38444 793 28334 39092 15360 13579 17922 8091 10715 14401 14278 15293 20414 23325 25371 36145 32235 593 995 13423 16317 8017 34773 30975 21481 53970 15309 9002 11028 18472 3709 2486 24131 4184 1207 21345 15879 577 14985 25 13472 18353 12186 10572 1635 9027 97 12313 28247 4648 335 1482 15737 13165 9486 11376 748 662 13424 4429 33319 7552 3383 550 9195 28 18216 2262 7188 1405 120 837 3752 1560 2741 6656 245 124 302 336 677 1981 3791 501 48198 211 301 3905 65095 1748 36 2830 860
internal_value=0 -0.00543028 0.0121077 -0.0193436 -0.0117652 -0.00565861 0.030476 -0.0201198 0.00500395 -0.0186734 -0.0152935 0.037804 0.0210045 0.0017798 0.00830143 -0.0281759 -0.0238122 -0.0150177 -0.00989328 0.0285921 -0.0116804 0.0115382 0.0138553 0.0101485 0.0139582 0.0135428 -0.00487792 -0.00105289 -0.0187312 -0.0143148 -0.023228 0.0179025 -0.00469307 -0.0287898 -0.0275697 -0.0247531 0.0309818 0.0294679 -0.00369624 0.0306193 0.000659413 0.0166671 -0.00469658 -0.0143139 -0.0315388 0.0260684 -0.00223149 0.0256428 -0.00249204 -0.0294455 7.18846e-05 -0.0527175 -0.00187534 -0.0270536 -0.0223321 0.00131463 -0.0291094 -0.0195862 -0.0291994 -0.0307401 -0.0329684 -0.00102593 -0.000393153 -0.0344694 -0.0309794 -0.0250412 0.0200501 -0.0138554 -0.0068895 0.0354161 0.0019237 -0.0150064 -0.0122079 0.0399397 -0.0252201 -0.03034 -0.0365754 -0.0310662 -0.0122067 0.00860388 0.0448411 -0.0120457 -0.0234403 -0.0147611 -0.0148613 -0.020345 -0.0182355 -0.00996921 -0.0161496 -0.0309741 -0.0159281 0.0183353 -0.0367731 0.00457351 0.0453579 0.0434617 0.0353612 0.0177339 0.0434327 0.0290556 -0.0341234 -0.0161237 -0.0394801 -0.0264893 -0.0393239 -0.0290752 0.037464 0.0309729 -0.0238756 -0.00527451 -0.0309283 -0.00961847 0.00708497 0.0408173 0.0113514 -0.0431243 0.0444968 0.0447839 0.0469705 -0.0593295 -0.0601611 0.0477517 0.047762 0.0477449 -0.0585029 0.0477449 -0.0585029
internal_weight=0 370338 163829 206509 111144 83279.3 80549.7 68743.4 39531.4 65822.7 43747.9 45413.4 35136.3 42401 21121 95364.8 41507.1 48350.5 27849.4 17421.3 34377 23620.6 14437.6 22518.7 16067.7 17715 17767 12642.2 10082.5 7424.32 13973.5 11243.8 21280.1 17472.2 29092.9 15898.4 23058.8 20559 6683.34 16334.4 6451 14110 15910.8 5124.74 53857.7 13038.1 16773.6 8017.02 13075.1 31416.6 12925.9 2920.69 1086.86 28615.5 6864.25 3605.05 18238.5 8259.67 31160 22463.1 10608 5982.47 3193.78 22441.1 8445.35 4170.66 9939.63 4506.43 6551.1 8317.41 6523.98 12414.1 6650.46 1101.9 8696.93 7638.78 13995.8 2658.13 711.829 4170.33 22354.6 4074.53 10377 4860.57 2835.74 8061.94 5763.69 3847.79 2678.51 7411.95 4090.33 191.944 4274.68 3037.41 20891.1 9601.45 7520.9 375.035 2499.86 214.762 7589.35 567.631 6406.45 700.875 881.025 238.329 1463.44 498.491 1673.36 1789.89 431.902 226.824 157.232 964.952 197.722 642.696 909.957 2285.1 11289.7 256.557 127.892 42202.6 16778.5 25424.1 2039.66 1572.82 477.437
internal_count=1690580 1509881 676703 833178 450231 338705 337998 277045 161808 265350 176897 192057 145941 173186 86709 382947 166893 195213 112985 72855 139016 97180 59529 92570 66255 73086 72246 51524 40739 30063 56197 46453 86477 70137 116798 63912 96700 86102 27180 68425 26315 58343 64628 20722 216054 54385 68244 33501 53172 126095 52649 11695 4430 114887 27611 14743 73217 33266 125068 90115 42526 24362 13076 89959 33897 16764 41225 18233 26578 34924 26594 50095 26866 4610 34953 30646 56062 10676 2885 17118 95357 16497 41670 19633 11456 32457 23229 15595 10819 29729 16485 794 17133 12446 89166 40871 31717 1545 10598 902 30402 2297 25660 2818 3531 957 6191 2103 6744 7233 1736 917 637 4088 809 2574 3816 9696 48295 1027 512 180699 71830 108869 8164 6735 1911
cat_boundaries=0 1 2 3 4 5 6 7 8
cat_threshold=2 2 4 4 2 2 1 1
is_linear=0
shrinkage=0.03


Tree=6
num_leaves=128
num_cat=7
split_feature=23 13 23 23 13 23 13 13 24 13 23 13 23 23 23 13 24 13 23 14 23 24 14 13 21 13 21 14 21 13 14 24 21 23 16 24 23 23 13 14 21 23 14 14 13 18 23 13 14 13 15 14 21 13 14 13 21 21 23 21 24 23 13 23 24 15 14 22 23 24 20 15 21 24 13 21 21 23 23 15 14 24 14 22 22 2 2 23 23 13 14 13 14 2 21 24 21 14 2 21 21 13 23 21 15 24 21 21 21 13 24 22 22 13 14 15 23 23 14 23 14 13 2 21 1 21 2
split_gain=113362 94505.9 55696.8 14784.5 13589 8896.07 5873.18 3403.27 2541.1 2506.93 2361.51 2243.93 2057.91 1935.01 1509.93 1619.7 1504.55 1383.2 1291.02 1137.64 1024.32 988.731 944.467 855.122 1673.73 747.974 1965.96 689.315 610.089 593.455 565.166 525.658 518.289 492.749 484.335 468.141 447.478 441.822 436.5 413.445 402.97 387.206 363.973 360.802 351.177 273.551 268.565 241.075 238.125 237.903 242.456 437.005 506.593 229.347 221.583 217.74 206.775 206.455 201.641 198.56 196.05 190.398 186.979 179.856 164.62 157.076 144.409 142.451 141.353 138.593 138.48 131.549 116.187 107.605 98.5331 92.8179 92.0295 90.0466 89.4025 88.966 80.5881 75.4026 75.0316 74.228 73.229 72.7313 79.7828 71.4395 70.0386 70.6466 69.9275 65.6246 65.0697 66.3622 64.6522 58.1829 57.4863 52.7553 50.2599 49.3021 45.8796 40.239 38.5962 35.8815 93.2642 34.2829 39.7966 32.7585 26.3049 24.5556 22.8631 21.9928 15.6493 12.1861 10.0663 1.03597 0.19904 0.0386308 0.0254166 0.00756728 0.00513615 0.00283327 0.000806491 0.000486462 7.27596e-12 3.63798e-12 1.81899e-12
threshold=1.0000000180025095e-35 0.8994951654392237 5.5000000000000009 5.5000000000000009 0.80327867864821312 10.500000000000002 0.99999990454546384 0.4070935249439544 1.0000000180025095e-35 0.99999977500005133 2.5000000000000004 0.9981512134111219 2.5000000000000004 2.5000000000000004 11.500000000000002 0.8253770883025987 1.0000000180025095e-35 0.69230768848429691 16.500000000000004 0.79415183464528949 2.5000000000000004 1.0000000180025095e-35 0.87019038730146658 0.99999999737876355 45.959925894968471 0.99999999698340203 58.431884206516841 0.89473680678670531 42.617419264451847 1.0000000180025095e-35 0.86424808186109991 1.0000000180025095e-35 40.092015706806755 1.5000000000000002 1.0000000180025095e-35 1.0000000180025095e-35 16.500000000000004 3.5000000000000004 0.99999999594318834 0.79673463720508575 81.560494903703116 4.5000000000000009 0.90060236977085784 0.88537071827966229 0.99999999737876355 1.0000000180025095e-35 7.5000000000000009 1.0000000180025095e-35 0.79215652612617915 1.0000000180025095e-35 0 0.78340207337090628 35.882604335600142 0.68515313928883825 0.79673463720508575 0.71428570454545481 107.73664848278383 42.617419264451847 1.5000000000000002 83.062435412874308 1.0000000180025095e-35 3.5000000000000004 0.84538571998121137 7.5000000000000009 1.0000000180025095e-35 1 0.956832287834253 60.785227449802342 7.5000000000000009 1.0000000180025095e-35 1.0000000180025095e-35 2 3.4221549034331016 1.5000000000000002 0.99999958333351391 5.4157520470856957 1.0343583243983689 18.500000000000004 16.500000000000004 3 0.73469386755518562 1.0000000180025095e-35 0.88888881481482185 505.45308660182548 6.4260719767194523 21.500000000000004 62.500000000000007 25.500000000000004 1.5000000000000002 0.99999999807114281 0.7873433152467727 0.99999999848599475 0.8060569422579037 22.500000000000004 39.003208044178031 3.5000000000000004 11.535704494757967 0.76907433985706908 73.500000000000014 0.50661737223858927 0.50661737223858927 0.999999969223486 1.5000000000000002 12.535203435782732 4 1.0000000180025095e-35 2.4362029437127464 5.7408633204919388 3.9976381101665877 0.99999997332859258 6.5000000000000009 704.33115207533126 12.545215375850328 0.99999984523811947 0.68421049930748057 5 13.500000000000002 16.500000000000004 0.78940687175716218 13.500000000000002 0.78940687175716218 0.99089988683057129 30.500000000000004 3.9976381101665877 6 75.16103584445689 49.500000000000007
decision_type=2 2 2 2 2 2 2 2 2 2 2 2 2 2 2 2 2 2 2 2 2 2 2 2 2 2 2 2 2 2 2 2 2 2 2 2 2 2 2 2 2 2 2 2 2 2 2 2 2 2 1 2 2 2 2 2 2 2 2 2 2 2 2 2 2 1 2 2 2 2 2 1 2 2 2 2 2 2 2 1 2 2 2 2 2 2 2 2 2 2 2 2 2 2 2 2 2 2 2 2 2 2 2 2 1 2 2 2 2 2 2 2 2 2 2 1 2 2 2 2 2 2 2 2 1 2 2
left_child=121 3 6 4 7 9 12 47 33 43 75 36 19 16 15 29 39 28 31 81 -19 72 34 24 -23 26 -20 48 -10 -5 54 76 42 55 -18 97 60 91 -33 102 -25 65 -21 90 -39 -24 71 126 99 115 51 52 -51 57 80 -9 -35 -31 -41 -27 111 64 78 92 -32 -29 -34 -53 -55 -56 -48 -45 82 108 -43 105 -13 -64 -52 -62 -15 96 -11 -63 -83 107 -87 -75 114 -90 100 -37 110 -94 -50 -92 -3 101 -99 -14 -4 -12 -6 112 -105 106 -8 -65 -38 -107 -17 -7 -49 -74 -77 116 120 119 -118 -117 -16 124 -119 -123 -1 -126 -2
right_child=1 2 5 14 13 11 10 8 17 21 35 18 27 30 49 63 22 20 25 32 -22 23 45 40 -26 59 -28 41 -30 53 61 38 66 56 -36 37 73 44 -40 58 -42 74 -44 46 -46 -47 70 103 94 50 62 67 -54 68 69 -57 -58 -59 -60 -61 79 83 77 85 -66 -67 -68 -69 -70 -71 -72 -73 113 87 -76 88 -78 -79 -80 -81 -82 84 -84 -85 -86 86 -88 -89 89 -91 95 -93 93 -95 -96 -97 -98 98 -100 -101 -102 -103 -104 104 -106 109 -108 -109 -110 -111 -112 -113 -114 -115 -116 117 118 122 -120 -121 -122 123 -124 -125 125 -127 -128
leaf_value=0.046917617858403364 -0.056883210565625425 -0.031682823224139643 -0.00084141547932126593 -0.056883210565625425 -0.019499652493064488 0.0075774320393898597 0.01597767597224322 -0.028035238273491608 -0.023689103002626447 -0.023731823080002119 -0.05147522062526922 -0.00047905421832908948 0.0089027214980337121 -0.029169986394412342 -0.059563838687826325 -0.023764174323319568 0.021195724987750117 -0.0053851636538527394 -0.015874493802273727 0.013530671047576243 -0.015897157282929508 0.0079851887437931372 0.020542043463976728 -0.010244165791275415 0.030388351517076608 -0.0341099722433508 0.030045278828920614 0.024057012059909601 0.0038065530873724568 -0.032208847121925441 -0.0061408182082205469 0.00030052325496704506 0.031381354225489613 -0.032832065250235382 0.0037497942986398835 0.035568268245015314 -0.03674612568220758 0.028538608528407464 -0.010677210323692036 0.003403819657127256 0.0058065771538834583 0.0070056868796297732 0.027880657259178453 0.0073280877696322794 0.017592590189687139 0.040473180621460284 -0.0075477030854856127 -0.036977225794035777 0.0014756619167029792 -0.025217549452911121 -0.032489451860690716 -0.028119036213596571 0.0066573132993730947 -0.023302192066740182 -0.015463064109211697 -0.017179545734551514 -0.012294413331267497 -0.0095798600092448401 -0.0079323917036333517 -0.020928301370986002 -0.015316833498535971 -0.00063737994867102616 -0.026349333797472389 -0.010060453591814024 0.009579704501050763 0.016324591145044292 0.039396151301559594 -0.036597704983475796 -0.027533245270927036 -0.0054062239663318808 0.013269546320611362 -0.0014098773304366844 0.0011275500481659837 -0.027421830381154338 0.022909632545485017 0.02627246443109111 0.041435198141734512 -0.032981083188094701 -0.036640643802683413 -0.022006566504051802 -0.014607344313983927 0.019275250066866007 0.026346801975516334 -0.0091830354308471852 -0.013313312677136637 -0.017668657555525734 -0.035827682301249116 -0.033566031346694475 0.043816359737202909 0.036961147400908244 -0.0062162143827454042 0.026483064367190435 -0.018912813023569088 -0.010605617594464366 0.010896926964780951 -0.016256204150436958 0.013176284961158073 0.043214939226225907 -0.024441603941516298 -0.019735137809264211 -0.02980498189489009 0.047644165802919115 -0.033896232431830618 0.053190893709029505 -0.03249232518517154 0.041442300157110139 0.035333738339875471 -0.029671384525899163 -0.0048034079798980507 0.023981596042387799 -0.0022206706459453 0.043028663108327404 -0.046339025973975642 0.043888891265282087 0.046183388022706565 -0.05687493259225266 -0.062469531889349096 -0.057970204898390471 -0.061310933385459121 -0.05747775756798678 -0.058644259239932606 0.046917617858403364 -0.058161743254789365 0.046935256117726649 0.046917617858403364 0.046917617858403364 -0.056883210565625425
leaf_weight=14853.523659840226 1613.6408966481686 219.84617637097836 57.102380335330963 604.67914971709251 436.74476815760136 178.61300195753574 129.47810854017735 2818.90175960958 13876.274911418557 32.425028890371323 9.4070316404104215 56.948830723762512 60.678416520357132 436.82875369489193 24.998658895492557 563.41293132305145 1811.1969387978315 15056.465524867177 8798.5050950050354 2199.92327734828 18709.85957673192 12025.26861473918 5346.9669568687677 2076.0038597583771 3999.5015578269958 1820.7130352854729 927.57043971121311 4008.2017253339291 766.3992418050766 8246.8624498695135 751.72291994094849 8224.3303665220737 5060.1913017779589 10159.5422655195 6844.0931257158518 6656.7871572375298 26.318935379385948 9281.4750119298697 5400.4540125578642 3803.2331986129284 4373.3023193180561 3709.8166165798903 5745.0491465479136 2575.4252426624298 3685.281100705266 701.00172021985054 6166.1577587723732 312.6073792129755 1892.823362365365 6947.3910488635302 8715.711051300168 2865.8229098021984 479.73832824826241 12887.319348216057 1441.176294490695 4054.9504419267178 461.23367911577225 379.55986846983433 2246.1920903176069 2363.6190284639597 2743.4222919046879 4786.2983870208263 4397.8203731030226 85.801854446530342 2960.6194075495005 5765.2576107680798 3371.1759175509214 4721.8521088063717 15842.276128277183 8549.214787364006 301.66581669449806 3896.9589336961508 6.0384434610605231 4439.5196423232555 387.19505204260349 22.899402096867561 273.89512388408184 3171.6043841540813 10057.124234080315 5143.6680850237608 1575.5437845140696 85.9505944699049 158.79137749969959 1130.9379386305809 223.24057480692863 8252.4297393113375 223.65583822131157 2763.1848732978106 7861.0215001702309 1634.2570551037788 849.09382627904415 801.72873787581921 1018.2100661695004 5769.7054757028818 1002.8893724381924 1338.2156537175179 29.11511118710041 2447.6294958591461 9.922043174505232 499.32643277943134 356.66035023331642 6.0612459927797309 271.96106700599194 12.040741890668869 226.5709677785635 876.2995136231184 365.36156861484051 719.52961820363998 195.95114217698574 79.025807157158852 48.121379002928734 17.272297322750092 330.70518885552883 894.86579577624798 11126.72816234827 38.88225531578064 60.40254819393158 30.462606757879257 23.737975776195526 36.180195286870003 6.996259093284606 1552.8379902988672 56.443470329046249 15012.820755168796 8062.9988654404879 2184.5790583640337 421.23155936598778
leaf_count=64423 6474 883 231 2426 1755 731 543 11294 55684 132 39 234 246 1753 100 2267 7525 61011 35472 9146 75390 49397 22244 8393 16858 7303 3882 16753 3128 33052 3049 33505 21353 40674 28044 28334 106 39092 21936 15545 17922 15238 24196 10521 15293 2981 24984 1251 7751 27863 34887 11482 1956 51681 5822 16317 1852 1522 9091 9501 11029 19460 17629 345 12178 23946 14334 18896 63495 34669 1238 15871 25 17793 1604 97 1152 12696 40239 20677 6368 349 662 4586 908 33195 899 11059 33857 7014 3432 3383 4103 23287 4124 5397 120 10492 41 2016 1433 26 1090 49 908 3752 1560 2893 792 336 194 72 1323 3791 48198 156 242 122 95 145 28 6735 226 65095 34971 9475 1690
internal_value=0 -0.00527199 0.0119317 -0.0186369 -0.0112219 -0.00532535 0.0298915 -0.0194941 -0.0180906 0.00505058 0.0370179 -0.0146806 0.0205326 0.0019888 -0.0272562 -0.0239767 0.00837113 -0.0145492 -0.00959025 0.0279697 -0.0112098 0.0112188 0.0137563 0.00986422 0.0135766 -0.016058 -0.0114952 0.0132637 -0.02225 -0.0274006 -0.00434309 -0.00314343 0.0294052 -0.0278897 0.00740051 0.0302666 -0.0238275 0.028774 -0.00405072 -0.00334515 0.000639912 0.0162504 0.0239072 -0.0043027 0.0254276 0.0228522 -0.00225334 -0.0512053 0.00127542 -0.0315602 -0.0313742 -0.0283317 -0.0231587 -0.0269234 -0.0086864 -0.0216314 -0.0319402 -0.0312132 -0.000805391 -0.026664 -0.0189433 0.00107061 -0.0331084 -0.016185 0.00639641 0.0194957 0.034586 -0.0333954 -0.0256353 -0.00685699 -0.00657677 0.00206704 0.0390942 -0.0291445 0.00850872 0.0440146 0.0342204 -0.0291281 -0.0347134 -0.0196796 -0.0177685 -0.0141486 0.0178548 -0.00227068 -0.00425417 -0.0189664 -0.0181478 -0.0297789 0.04453 0.0426365 -0.0144982 0.0345917 -0.0126961 -0.0118517 0.00473858 -0.0123588 -0.0264367 0.0425942 0.0429418 -0.0166321 -0.0258078 -0.0126353 -0.0250242 -0.0381045 -0.0281686 0.0366782 0.0302691 -0.027582 -0.00858574 0.0399979 -0.0220689 0.0107034 -0.0417898 0.0436023 0.0461425 -0.0592145 -0.0613768 -0.057664 -0.0621427 -0.0571655 -0.0593628 0.046924 -0.0580946 0.0469336 0.0469176 0.0469176 -0.0568832
